0.344892,0.324816,-0.412253,-0.046001,0.017743,0.242370,-0.109559,-0.151622,-0.364488,0.075839,0.111223,-0.291837
0.340032,-0.222576,-0.534784,-0.462429,0.130210,-0.295410,0.323354,-0.175201,0.370157,-0.311967,-0.625880,-0.038199
0.002370,0.122411,0.131942,-0.077265,0.218053,-0.072146,0.148226,0.052934,0.411154,0.152704,0.307177,0.433390
-0.287849,0.285900,0.306360,-0.005084,-0.412600,-0.240785,-0.360213,-0.360130,-0.217253,-0.162394,0.359797,0.184299
-0.331713,0.478276,-0.287420,0.413509,-0.100438,-0.434147,0.194160,0.062837,-0.292430,-0.215291,0.170491,-0.150122
-0.482859,0.346382,-0.183235,-0.304108,-0.397740,-0.312719,0.294513,-0.085856,0.198291,0.327507,0.114162,-0.028683
0.190273,-0.349969,0.233016,-0.362860,0.354107,-0.329711,-0.279751,0.306372,-0.267984,-0.214606,-0.030832,0.360882
0.191821,0.352852,0.063835,-0.144697,0.393005,0.509918,-0.295305,0.183721,-0.106579,-0.092770,0.115582,0.494886
0.302685,-0.401192,0.435130,-0.141291,-0.307889,-0.036969,0.150601,-0.008435,0.347801,-0.431545,0.234566,0.238733
0.480165,0.492972,-0.018749,-0.246660,-0.249825,0.098055,-0.075249,-0.153461,-0.167769,0.146530,0.150625,0.538993
0.249105,-0.361455,0.191512,0.156901,0.494548,0.336657,0.162118,-0.159342,0.234443,0.403563,-0.042830,-0.308901
-0.411399,-0.790166,2.012997,-0.880130,2.212023,1.002736,0.267069,-0.509138,-0.642743,-1.092056,-1.072901,0.004197
-0.310231,-0.552527,3.183099,-0.871568,2.813029,0.795700,0.065536,-0.494232,-1.234090,-0.805592,-1.128062,0.000001
-0.587398,-0.397513,0.975228,-0.481794,3.452247,1.935548,0.875771,-0.239947,-0.980482,-0.831868,-1.030384,0.000013
-0.789634,-0.290630,-0.079303,0.024592,3.870773,1.730961,1.021967,0.042367,-0.246152,-0.639356,-0.922512,0.000368
0.258969,0.861509,0.637354,1.200699,4.020575,0.395689,1.441164,1.078291,-1.278126,0.094122,-0.959165,0.011940
0.490382,1.593145,0.754761,0.764917,6.776334,-0.331564,0.879087,1.119635,-1.364975,1.411171,-1.039840,0.278583
0.990508,1.416315,2.371577,-0.720855,11.468206,-0.762785,-0.988598,0.786190,-1.436212,5.351134,-1.024128,0.986429
0.934435,1.773370,0.618559,-0.748515,8.313092,-0.762396,-0.902905,0.655867,-1.108151,5.328557,-0.852126,0.999904
1.844036,1.813790,-0.372245,-0.682234,2.065281,-1.084117,-0.710322,0.783062,-1.302335,3.788096,-0.360743,0.999933
0.802968,0.686002,-0.163957,-0.695702,0.831068,-0.407922,-0.260113,0.817269,-0.879216,6.465256,-0.546877,0.999998
-0.157137,1.033391,-0.141296,-0.504556,0.582848,-0.752413,-0.451347,0.991887,0.573254,4.066387,-0.191008,0.999997
-0.486478,0.175365,-0.425992,-0.667111,0.414884,-0.659781,-1.143676,0.593910,0.955551,3.110644,-0.051604,0.999941
0.851970,1.107501,-0.987661,-0.679008,0.712951,-0.357135,-1.285875,0.639164,0.913875,2.272805,0.490418,0.999084
1.075945,0.184841,-0.527813,-0.543999,0.726244,-1.060278,-1.289614,1.136614,0.946649,1.969519,-0.167712,0.946471
-0.156463,0.241828,-0.454662,-0.440852,0.201941,-0.542946,-0.128263,0.285226,0.003648,0.634173,-0.308286,0.173447
-0.016578,-0.343593,0.433378,-0.208217,-0.316603,-0.197987,-0.357174,0.008787,0.300969,-0.359388,-0.321295,-0.130083
-0.323879,-0.009691,-0.158067,-0.207962,-0.266521,0.328957,-0.103800,-0.307447,0.327195,0.233239,0.258830,-0.321480
0.405811,-0.538981,-0.213405,-0.029024,-0.071319,-0.150016,0.135639,-0.082817,0.377051,-0.159517,-0.274855,-0.181657
0.002801,0.060109,-0.466318,0.252315,0.034558,0.358550,-0.252936,0.242413,-0.309127,-0.204984,-0.423716,0.147079
-0.332488,-0.234322,0.353693,0.296462,0.319319,0.297987,-0.122852,0.142250,-0.329794,0.197859,-0.204108,0.450927
-0.468943,0.132583,-0.103084,0.219603,-0.215691,0.195940,0.627432,0.088987,0.024183,-0.014123,-0.204738,-0.409729
-0.500358,0.282293,0.012151,0.298912,-0.383917,-0.087172,0.008586,-0.223892,-0.069390,-0.331984,-0.199985,-0.284729
-0.575571,0.374772,-0.274406,-0.548282,-0.273627,-0.577495,0.368114,-0.442026,0.401558,-0.248528,0.052241,0.115608
-0.478290,0.154149,0.058578,-0.398693,-0.415069,0.172664,0.054074,-0.007765,0.259127,0.280911,0.342546,-0.162217
0.248546,-0.184048,0.203750,0.340407,-0.021715,-0.329688,-0.387647,0.373477,-0.277458,-0.329743,-0.286249,-0.174455
0.081692,0.544406,0.246197,-0.233347,0.327654,-0.176498,-0.005469,-0.256145,0.085480,-0.099215,-0.056962,0.224503
-0.274882,1.029048,-0.159496,-0.218197,0.156908,0.203386,0.413729,0.018927,0.106150,-0.756141,-0.960933,0.033271
0.074123,0.418757,0.206961,0.246668,0.077576,0.342352,0.432795,0.225137,-0.276250,-0.477025,-0.294913,0.016248
-0.368944,-0.341295,0.047847,-0.227250,-0.229688,-0.331105,0.405917,0.215310,0.412378,-0.212107,-0.239516,-0.167250
-0.038505,-0.262050,0.077696,0.199946,-0.224338,-0.090529,0.256307,0.239805,-0.438936,0.200764,0.381285,0.419744
0.097034,0.309710,0.267332,-0.231460,0.367175,-0.084946,-0.155514,0.196327,-0.250279,-0.198865,-0.271459,-0.275148
-0.065232,0.260037,-0.068268,-0.055560,0.103228,0.316030,-0.388873,0.263176,-0.101089,-0.133029,-0.232442,0.264806
0.007101,0.197800,0.281495,0.946728,-0.161241,0.070445,-0.611184,-0.172435,-0.222565,-1.003173,0.494999,0.072294
0.252027,0.272419,0.088302,0.031952,-0.316475,-0.243188,-0.370318,-0.409492,-0.215267,0.077173,0.349923,-0.238243
-0.352888,0.071126,0.398711,-0.025738,0.395803,-0.343333,0.331666,0.304754,0.382603,-0.083822,0.221562,-0.005026
0.115960,0.112327,0.434049,0.419071,-0.265003,-0.362066,0.231869,0.172188,0.293884,-0.439659,-0.214162,-0.036198
0.233336,0.393294,-0.348712,-0.241935,-0.568859,0.481507,-0.036479,-0.094321,-0.146550,0.069794,0.047654,-0.079376
0.173442,0.232550,0.206629,0.329420,0.296465,0.121296,-0.447663,0.256823,-0.173611,-0.203667,-0.472097,-0.316450
0.100889,0.159887,-0.050773,0.403118,0.220070,-0.531597,-0.169784,-0.322525,0.138221,0.199960,0.332237,0.406341
-0.354161,0.152855,0.221701,-0.036642,0.549240,0.244234,-0.316908,-0.254409,0.140747,0.155626,-0.450243,0.397240
-0.498131,-0.182777,1.456378,-0.754185,2.484541,-0.476803,-0.302908,-0.701327,-0.358973,-0.294371,-0.268548,-0.053777
-0.595742,-0.409478,2.567161,-0.828197,3.223975,-0.568518,-0.471459,-0.597810,-0.540055,-0.470611,-0.535100,-0.000067
-0.468897,-0.153497,0.550068,-0.546300,3.061468,0.221148,0.325614,-0.323959,-0.702194,-0.306519,-0.759849,0.002140
-0.496980,0.003117,-0.332964,0.002521,2.576891,1.024011,0.880648,0.072419,-0.167256,-0.657389,-0.870335,0.022012
-0.042497,0.672116,0.031239,0.241960,5.509197,0.703301,0.570793,0.469205,-0.323884,0.088037,-0.645123,0.242579
1.003266,0.935096,0.473490,-0.432617,7.057616,-0.937870,-1.125362,0.786007,-0.172558,1.723537,-0.432796,0.859107
1.002395,1.561157,1.668649,-0.745031,9.628116,-0.952363,-1.146933,0.627280,-1.048071,3.783471,-0.926563,0.999302
0.990961,1.448629,0.430743,-0.715777,5.692087,-0.976996,-0.875267,0.733249,-0.682164,3.162445,-0.734561,0.999992
1.269537,1.961075,-0.378403,-0.368885,1.519086,-0.569712,-0.566602,1.407913,0.110367,2.985507,-0.749621,1.000000
0.738872,2.010129,-1.577268,-0.660180,0.844135,-1.056850,-1.375302,1.028914,0.808163,2.588684,-0.559511,0.999991
-0.373459,1.609096,-1.893879,-0.703843,0.605424,-1.243283,-1.532316,0.977067,2.462764,1.890024,-0.464852,0.999991
-0.389640,1.154927,-1.318039,-0.694875,0.464277,-0.779439,-1.350308,0.689265,1.447808,2.182896,-0.335692,0.999957
-0.211531,1.664583,-1.819413,-0.736439,0.527769,-0.523839,-1.421151,0.714506,1.193459,1.636726,-0.605088,0.999817
-0.056203,1.027062,-1.685120,-0.764798,0.603882,-0.973441,-1.475232,0.577574,0.853074,1.653357,-0.528639,0.987568
-0.203205,0.379295,-0.523701,-0.323374,0.548444,-0.230055,-0.584423,0.421162,0.201888,0.717053,-0.234371,0.539630
0.407319,-0.381314,0.056866,0.076688,0.362155,0.044833,-0.406908,-0.134314,0.362344,-0.050423,-0.139932,-0.010419
-0.330179,-0.476032,0.340463,0.355156,0.093927,0.340981,0.139913,0.132788,-0.074080,-0.341766,-0.224298,0.306635
0.124621,-0.592293,0.568914,0.127674,0.253322,0.179758,1.182226,0.341450,0.374263,-1.053369,-0.611296,0.060756
-0.219076,0.151661,-0.192542,0.234717,0.283556,0.053816,-0.108888,0.146810,-0.076388,0.074556,-0.329410,-0.153435
0.390491,-0.266659,0.196258,0.261843,0.112304,-0.046208,-0.290106,-0.449914,-0.423950,0.293841,-0.115866,-0.269317
0.441135,0.427041,0.461716,0.101333,-0.315218,0.072593,-0.212792,0.039997,-0.047215,0.262250,0.325663,-0.252417
0.378475,0.166169,-0.450111,-0.372831,0.267641,-0.288726,0.083771,-0.198059,0.473319,0.137447,0.159871,0.036791
-0.172903,-0.164284,-0.442552,-0.421416,-0.205093,-0.453412,0.109548,0.230612,-0.128556,-0.225552,-0.244967,0.281370
-0.439737,0.432054,-0.090373,-0.320086,-0.278647,-0.354346,-0.089421,0.189662,0.264092,0.051387,0.449464,-0.019443
0.482286,0.127546,0.279192,-0.414476,0.214230,-0.404764,-0.109607,-0.108322,-0.090547,-0.015582,-0.285543,-0.407864
-0.230007,0.075257,-0.424972,-0.254095,-0.318650,0.490166,-0.025640,-0.158369,0.272728,-0.308591,-0.158072,-0.244738
-0.139529,0.577469,0.084841,-0.227145,-0.278280,0.050698,0.194602,0.302614,-0.222109,0.022326,-0.068020,-0.264545
0.184436,-0.163467,0.124784,0.314071,-0.178000,-0.256807,-0.213196,0.373989,0.104962,-0.407912,0.200935,0.095511
-0.251377,0.350184,-0.282556,-0.112118,0.144949,0.439785,0.469433,0.270605,0.302473,0.171587,0.132329,-0.160854
-0.034825,-0.200644,0.306197,-0.485610,-0.524560,0.114707,0.476744,0.260750,0.256915,0.201568,0.077883,-0.123681
0.232197,-0.425064,0.327729,-0.264481,-0.382028,-0.274899,0.668557,-0.225172,0.876388,-0.267346,-0.064084,0.110764
-0.085891,-0.509322,0.399421,-0.579999,-0.156432,-0.362299,0.494116,-0.085232,0.937479,-0.388791,-0.136274,-0.143811
-0.291811,-0.046573,0.299121,0.193184,0.091305,-0.056278,0.215715,-0.089802,0.454304,-0.523445,-0.114651,-0.239128
-0.388873,-0.333288,-0.034553,0.231246,-0.176975,-0.099271,0.214397,0.254320,0.514203,-0.178206,-0.301176,-0.180311
-0.239527,-0.435371,-0.148856,0.321652,0.006436,0.038674,-0.250059,-0.068077,0.502309,-0.339182,-0.194643,-0.002197
-0.110495,-0.720371,0.282744,0.312792,0.072294,-0.245830,-0.087266,0.092954,0.246801,-0.467784,-0.214705,-0.095032
0.180507,0.237353,0.023556,0.285280,-0.189570,0.279532,0.130954,0.081938,0.060059,0.281547,-0.133135,0.339878
-0.135428,-0.115244,0.205666,0.030627,-0.135901,0.489379,0.462520,-0.041344,-0.515514,0.129715,0.063313,0.347096
-0.288116,-0.217387,0.269233,0.271103,0.057243,0.396733,-0.376420,-0.298844,-0.163596,-0.272971,-0.187246,-0.433220
0.317179,-0.320417,-0.368829,0.208703,-0.172149,-0.154590,0.265867,-0.240377,0.422093,0.428082,-0.053867,-0.006562
-0.110367,-0.262037,0.588060,-0.378522,1.141265,-0.400261,-0.149699,-0.283379,-0.438989,-0.353235,-0.145885,-0.302492
-0.707052,-0.104827,0.586886,-0.611048,2.088437,-0.443531,0.012783,-0.472005,-0.581778,-0.335355,-0.689114,-0.014250
-0.545997,-0.324227,-0.570024,-0.378895,3.071817,-0.340851,0.526929,-0.299152,-1.164457,-0.263437,-0.834438,0.012691
0.180065,0.613588,-0.351910,-0.076508,3.185990,0.279386,0.064485,0.586623,-0.249038,-0.000185,-0.875973,0.409342
1.347304,1.333167,-0.083017,0.140225,4.075674,0.411912,-0.344234,1.431225,-0.106890,1.465755,-0.927411,0.908300
0.598716,1.796216,-0.451751,-0.659770,5.107523,-1.197912,-1.579318,0.770134,0.551782,0.610407,-0.483022,0.998144
0.310178,0.371880,0.808836,-0.645162,4.741961,-0.986739,-1.530587,0.031303,0.245680,2.286762,0.931041,0.999831
0.156499,1.119042,-0.815894,-0.693352,3.200646,-1.069265,-1.527164,0.393259,0.553787,1.976123,-0.081999,0.999985
-0.099195,1.686048,-1.339970,-0.653460,1.447966,-0.623761,-1.303706,0.475203,1.181597,1.243525,0.038778,0.999791
-0.168516,1.546202,-1.278718,-0.716420,0.642352,-0.851566,-1.502156,0.497816,1.780284,1.003853,0.016163,0.999021
-0.845816,1.592383,-1.653211,-0.718240,0.272065,-1.069594,-1.657975,0.072646,1.908228,1.435467,0.152696,0.996386
-0.541642,1.583323,-1.791520,-0.735864,0.398602,-0.882515,-1.547487,0.466927,1.643157,1.290659,-0.326715,0.996620
-0.178850,1.735642,-2.045786,-0.724574,0.405167,-1.033383,-1.560260,0.830664,1.500443,0.921205,-0.712031,0.999992
-0.274567,1.337490,-1.762069,-0.708500,0.445810,-1.119323,-1.618092,0.545132,1.117440,0.858473,-0.647461,0.997231
-0.338713,0.814233,-1.203491,-0.593285,0.507086,-0.542987,-1.176427,0.432680,0.686430,0.596832,-0.769015,0.914270
-0.400266,0.441814,-0.646486,-0.187229,0.522468,0.027207,-0.231489,0.083083,0.353592,-0.133616,-0.244389,0.266274
0.351335,-0.313276,0.308551,0.311368,-0.221193,0.380430,0.150004,-0.252264,-0.248591,0.188430,0.072130,-0.069914
-0.083007,-0.225042,0.072644,-0.328107,-0.323084,-0.105728,0.519617,-0.098557,0.120457,-0.423451,0.203589,-0.352840
-0.164875,-0.507158,0.313367,-0.067835,-0.051917,-0.207752,-0.091833,0.483311,-0.279533,0.289458,-0.222926,0.029623
0.089236,-0.307786,0.371575,0.419265,0.187518,0.312686,0.341155,-0.405652,-0.062041,0.247325,-0.262034,-0.187776
-0.494891,0.182894,-0.144633,0.170311,-0.284164,-0.079632,0.279877,0.111459,0.278349,-0.379168,0.493511,0.169777
0.378758,-0.323648,-0.241028,0.197988,-0.178843,-0.273049,0.467219,0.089921,-0.268740,0.226815,-0.150955,-0.411949
0.185730,0.425575,0.048366,-0.269171,-0.278042,0.286085,0.177190,-0.105382,-0.299450,-0.407353,-0.292850,-0.394511
0.434444,0.453824,-0.471660,0.427005,0.012520,0.310626,-0.121722,-0.046273,-0.084863,0.213692,0.097015,0.133078
-0.303593,0.033021,0.036512,0.341069,0.210034,0.401858,0.302385,-0.393451,-0.218620,-0.362007,-0.164041,0.362170
0.096177,0.062536,-0.078500,0.078119,0.461541,-0.211189,0.426255,-0.183689,-0.475373,0.385845,-0.339888,0.059211
-0.218343,0.526374,-0.132605,-0.282814,-0.130626,0.009701,0.458070,-0.038292,-0.383015,-0.408555,-0.226956,-0.026768
-0.451492,0.078295,0.266037,0.079028,-0.094252,0.232373,-0.054072,-0.359841,0.151348,-0.440881,-0.211704,0.423132
-0.304309,-0.291905,0.124995,0.250294,-0.414341,0.000258,0.538710,-0.310416,0.442961,-0.351686,0.427466,-0.005808
-0.095508,-0.522074,0.386286,-0.379109,-0.286907,0.130812,0.236174,0.067637,0.370395,-0.324140,-0.131927,0.117999
0.268880,-1.092393,0.837291,-0.693111,-0.281521,-0.275041,0.956847,-0.105580,1.498963,-0.543681,0.083724,0.000318
-0.084748,-0.898385,0.375438,-0.846621,-0.106480,-0.289127,0.527614,-0.468524,1.557785,-0.383992,-0.010502,-0.000511
-0.731889,-0.929592,0.283814,-0.715413,-0.516945,0.378366,0.156088,-0.585783,1.541863,-0.196658,-0.348186,0.003521
-0.766342,-0.879361,-0.063749,0.366802,-0.584738,0.183714,0.169154,-0.032343,1.384195,-0.748619,-0.136593,0.000208
-0.339701,-1.154060,-0.089835,0.197422,-0.158850,-0.194439,-0.069294,0.085283,1.309935,-0.679338,-0.414471,-0.001026
-0.478932,-1.119338,-0.129524,0.540994,-0.310159,-0.602761,-0.520301,0.083380,0.382121,-1.027761,-0.487708,-0.000047
-0.071980,-0.655625,0.315523,-0.203301,-0.183923,-0.303731,0.132719,-0.357310,-0.021074,-0.396863,-0.148610,0.068378
0.274735,-0.504914,0.642513,-0.431921,-0.278503,-0.173913,0.247724,-0.330975,-0.165622,-0.171518,0.326168,-0.096122
0.113568,0.114474,0.418759,-0.342340,-0.191896,-0.024793,0.246917,0.249684,-0.363894,0.215357,0.288329,-0.325196
0.386178,0.305482,-0.180365,-0.005621,0.521165,-0.057811,-0.325280,0.010604,0.370167,-0.392305,-0.023246,-0.212041
-0.161441,0.461987,0.109015,0.350521,-0.067386,0.096669,-0.319233,-0.412301,0.140257,0.103779,0.296200,-0.419236
0.226010,-0.350072,0.101589,-0.044519,0.640332,-0.335365,-0.225924,0.342314,0.021376,0.330759,-0.259672,0.243240
0.102094,-0.366490,-0.260435,-0.021353,1.979385,-0.104512,-0.201351,0.262074,-0.751745,0.009854,-0.824926,0.175074
1.890320,0.461860,0.687893,0.024101,3.374575,-0.048401,-0.557281,1.644545,-0.326712,0.886850,-1.191363,0.890591
2.134031,1.033901,0.902475,1.614280,4.221978,0.985362,-0.537069,2.565474,-0.296281,1.508801,-1.298936,0.998241
1.741562,1.136352,0.871148,0.377161,3.703582,0.060885,-0.989638,1.566983,0.109952,1.819624,-0.556858,0.999495
0.480349,0.843877,0.674569,-0.611354,2.992953,-1.223623,-1.495069,0.479235,0.395672,2.696846,0.103909,0.999850
-0.494334,1.537100,-1.144047,-0.622830,2.074916,-0.754567,-1.428628,0.282199,1.451166,1.136336,0.453425,0.999940
-0.633503,1.679760,-1.852915,-0.633812,1.129177,0.185838,-1.177339,0.247145,1.850086,0.726189,0.339393,0.998671
-0.836401,1.706171,-1.575707,-0.686424,0.638883,-0.394331,-1.240149,0.324181,2.166032,0.873688,-0.179389,0.970362
-1.143007,1.534173,-1.806061,-0.776403,0.502249,-0.866636,-1.263201,0.053794,2.301490,0.536143,-0.208543,0.877750
-0.911800,1.391633,-1.547303,-0.757281,0.320864,-0.757093,-1.448196,0.161184,1.847150,0.887155,-0.091002,0.954126
-0.345845,1.075063,-1.547898,-0.728483,0.342522,-0.754487,-1.476699,0.406477,1.040446,1.135182,-0.460546,0.996629
-0.209788,0.971408,-1.476626,-0.708624,0.208884,-0.721457,-1.508874,0.327229,0.441850,0.904840,-0.583192,0.997224
-0.249272,0.727372,-0.978740,-0.531966,0.235684,-0.535714,-1.133241,0.337370,0.478400,0.585026,-0.356983,0.724541
0.023986,0.496871,-0.033499,-0.417132,0.071294,0.238414,-0.085910,0.245894,0.011207,0.552278,-0.043185,0.100276
-0.365031,0.198563,-0.007651,-0.172685,0.350854,0.081048,-0.027049,-0.085266,0.122209,0.449846,0.154616,-0.360378
0.258248,-0.052999,-0.427989,0.018424,0.309255,0.021028,-0.251239,0.353972,0.168387,-0.051453,0.302418,0.401369
-0.308652,0.211085,0.258622,-0.160268,0.397330,-0.007303,-0.131573,-0.194529,-0.432022,0.060932,-0.463894,0.372976
-0.379388,0.281658,-0.257146,0.365583,-0.439143,0.032203,-0.264680,0.314691,0.240857,0.226130,0.299727,0.105490
-0.114093,0.210519,0.013559,-0.102644,0.529967,-0.492947,0.442099,0.402623,0.006587,-0.142725,0.070712,0.061048
0.365862,-0.006648,-0.138138,0.345625,-0.098344,0.329262,0.179739,0.044279,-0.276054,0.475787,-0.306931,0.390091
0.362166,-0.147052,-0.025875,-0.450026,0.046168,0.504110,0.155683,0.450939,0.062822,-0.281978,0.013294,-0.252384
-0.212744,0.429298,-0.453637,-0.000111,0.485578,-0.155473,-0.155839,0.084877,0.382189,0.088093,0.296153,0.172472
0.221568,-0.431081,-0.264866,0.340169,0.390111,-0.193844,-0.304630,-0.199364,-0.389558,0.049560,0.299750,-0.113226
0.052881,-0.330345,-0.329531,0.366452,-0.353627,0.106619,-0.299604,-0.304885,-0.258717,0.336049,0.053892,0.378324
0.148289,-0.089265,0.220390,0.104389,-0.137762,-0.479272,-0.587360,-0.071032,-0.341834,-0.435178,-0.045934,-0.055074
-0.013210,-0.164968,0.291202,0.351030,-0.301654,0.429321,0.140261,0.389442,-0.166626,0.400703,-0.313435,0.110043
-0.250424,0.208522,0.128422,-0.317395,0.254838,-0.209474,-0.418527,-0.238549,-0.021617,0.095377,-0.203324,-0.422615
-0.186193,0.073093,-0.113262,0.025607,0.014064,-0.080570,-0.063730,-0.235869,0.039820,0.079987,0.138813,0.222347
0.027453,-0.585122,0.948427,-0.755445,-0.361293,0.310149,0.305273,-0.345595,1.250635,-0.060979,-0.016836,-0.012671
-0.550251,-0.833360,0.518018,-0.814296,-0.452024,0.502294,0.210149,-0.808232,1.437588,-0.184013,0.450689,0.000062
-0.909531,-1.089672,0.129595,-0.765932,-0.517742,1.027290,0.250367,-1.101647,1.610944,0.168812,0.856165,0.000005
-0.777759,-1.173366,0.226336,-0.026899,-0.432891,1.015230,0.691571,-0.188118,1.579270,-0.513455,0.140134,-0.000002
-0.317435,-1.160513,0.008372,0.498453,-0.165300,0.235015,0.137639,0.529709,1.388956,-0.833136,-1.002936,0.000000
-0.294590,-1.094053,0.451164,0.005249,-0.187014,0.059904,0.106915,-0.070818,0.629056,-0.845630,-0.653163,0.001363
0.304536,-0.671848,0.791524,-0.823393,-0.365917,0.070992,0.484628,-0.886029,-0.560175,-0.101202,0.530287,0.000114
0.372224,-0.794718,1.121857,-0.833729,-0.125984,-0.793125,0.557264,-0.841550,-0.346626,-0.354015,0.416852,0.003007
0.176601,-0.399201,0.354514,-0.483192,0.122300,-0.538150,0.422044,-0.377396,0.142002,-0.357517,0.008710,-0.177024
-0.477414,0.005648,-0.238515,-0.117184,0.177908,0.315487,-0.278528,0.487415,0.123264,-0.336289,0.222842,0.182984
0.108683,0.237659,-0.235901,-0.041069,0.463712,-0.396311,0.160456,0.073145,-0.316034,0.431415,-0.406774,-0.143812
0.350706,0.236839,0.083454,-0.336391,0.259019,-0.258699,-0.416379,0.354771,-0.088788,0.461654,0.196918,-0.231787
0.698403,-0.121188,-0.142757,-0.235977,0.815484,-0.154680,-0.262732,0.139933,0.199740,0.412388,-0.480795,-0.177492
1.438393,0.528326,0.529183,0.253103,2.369799,-0.050451,-0.669248,1.161204,-0.224984,0.862499,-0.757167,0.686112
2.137326,0.875242,0.783514,0.652093,3.286789,0.443685,-0.688202,1.888480,-0.148892,1.422801,-0.794891,0.957177
2.467222,0.905868,0.750079,-0.423071,2.534604,0.049598,-0.939272,1.193936,0.180830,1.672834,-0.149745,0.995261
1.413620,1.198506,0.728003,-0.593584,2.234473,-0.484941,-1.110055,0.779426,0.385238,2.123181,-0.070551,0.983807
-0.037050,1.261315,-0.776923,-0.546053,1.642326,-0.511653,-1.069063,0.576818,1.157430,1.366751,0.026844,0.998695
-0.399428,1.773998,-1.667441,-0.572740,0.923478,-0.457609,-0.922681,0.605578,1.800795,0.613685,-0.206970,0.991377
-0.079563,1.764017,-1.901614,-0.638958,0.624149,-0.756975,-0.540313,0.878589,1.926434,0.242936,-0.671472,0.988096
-1.067185,1.196144,-1.858538,-0.768426,0.334093,-0.999509,-0.403646,0.142252,2.454179,-0.001417,-0.475981,0.471544
-0.705970,0.971149,-1.290311,-0.762827,0.354534,-0.863693,-1.179066,0.217527,1.852560,0.748043,-0.258671,0.817585
-0.669410,0.398762,-1.019869,-0.738824,0.268677,-0.638913,-1.373667,0.279127,1.248159,1.393070,-0.407554,0.994918
-0.235973,0.647757,-1.110438,-0.695308,0.475708,-0.617750,-1.374472,0.357832,0.927789,0.997171,-0.389178,0.992180
0.048407,0.536488,-0.660057,-0.433421,0.118290,-0.410694,-0.788438,0.321048,0.537962,0.677753,-0.128760,0.614862
-0.255138,0.212682,0.249951,0.216685,-0.266910,0.352479,0.045386,-0.044289,-0.269657,0.218897,-0.064954,-0.212021
-0.054428,-0.385564,0.209933,-0.235683,-0.376909,0.546127,0.597289,-0.409717,-0.193276,0.261338,0.184540,-0.057568
0.318209,-0.498688,0.133478,-0.252230,-0.063689,-0.095724,0.065706,-0.261657,0.397779,0.284357,0.058292,0.263177
-0.030274,-0.084814,0.232318,0.040496,0.606328,-0.300446,0.083024,-0.330310,0.149550,0.310061,-0.392450,-0.265725
0.244764,-0.201718,0.334730,0.239900,0.367688,-0.313476,0.066664,0.377821,-0.266250,-0.307703,0.047557,0.376475
0.673543,-0.497309,0.149842,0.307119,-0.402358,-0.123493,0.245274,0.645802,0.006681,-0.299209,-0.402459,-0.140557
0.766783,-0.368082,0.424449,0.717164,-0.048259,-0.085086,0.476876,0.969317,0.357079,-0.370003,-0.382461,-0.040231
0.080953,0.046311,0.192109,-0.025925,-0.279123,-0.317365,0.363186,0.564426,-0.144256,-0.077530,-0.443198,-0.091415
-0.303069,0.333655,-0.358291,0.315977,-0.042460,0.318137,0.259721,0.425172,-0.141777,-0.323275,0.095040,-0.252741
0.331945,-0.161841,-0.122447,0.363369,-0.283333,0.029725,-0.258819,-0.286314,0.079197,-0.318741,-0.428346,0.441660
0.088699,0.460108,0.086683,0.214922,-0.266691,-0.341419,0.214146,0.244741,-0.085977,0.338860,0.226245,0.509779
-0.053689,-0.403878,-0.101382,0.307936,0.163919,0.350495,-0.422476,-0.151562,0.344775,-0.375328,0.110113,0.325356
0.300147,0.288004,-0.392675,-0.490538,-0.003498,0.407113,-0.344945,0.025269,-0.179660,0.300972,-0.015736,0.152996
0.323742,0.118308,-0.061787,0.013755,0.364905,-0.298206,0.436370,0.373080,-0.223500,-0.080023,0.313064,-0.412837
0.041889,0.377955,0.244017,0.361828,-0.170665,0.052478,-0.349138,-0.276442,-0.234760,0.388117,0.222218,-0.059722
-0.339154,-0.340703,0.226024,-0.647621,-0.391830,0.436427,0.262527,-0.409605,0.553468,0.133199,-0.233687,0.140159
-0.223344,-0.811427,0.241424,-0.806299,-0.363995,0.535965,0.281732,-0.550323,1.031916,-0.327726,-0.223580,0.011059
-0.058709,-0.731479,-0.097479,-0.820675,-0.366999,0.990964,0.364135,-0.567289,1.237368,-0.071761,0.035156,0.000436
-0.109914,-1.025028,-0.049768,-0.443746,-0.236662,0.632759,0.288621,-0.078911,1.638033,-0.445785,-0.125685,-0.005511
0.316546,-1.198540,-0.076734,-0.527164,-0.228003,0.767032,0.760848,0.279207,1.304909,-0.706440,-1.016535,-0.000797
0.021138,-0.996767,0.156190,-0.177207,-0.403278,0.260110,0.328838,0.028164,0.767507,-0.345137,-0.593550,0.020999
-0.157650,-0.467042,0.446488,-0.778658,-0.424162,-0.216873,0.772916,-0.981499,-0.420875,-0.297219,0.324997,-0.010320
0.003512,-0.632510,0.818847,-0.326807,-0.278457,-0.166970,0.433170,-0.480246,-0.205857,-0.365781,0.199498,0.066955
0.011076,-0.427344,0.459686,0.145453,-0.343660,-0.316226,0.379547,-0.012484,0.282222,0.154687,0.215403,-0.196687
-0.389775,-0.351624,-0.282646,0.146287,0.097414,0.421631,0.040108,-0.122750,0.132079,-0.419449,0.090559,0.407083
0.106289,-0.195751,0.245448,0.363548,0.251243,-0.437400,-0.436439,-0.330088,-0.166528,-0.116062,-0.223177,-0.318450
-0.027967,0.448397,-0.193157,0.083715,-0.180674,0.238901,0.128516,0.233676,-0.086765,0.539787,0.438259,0.313975
-0.066207,0.402728,-0.208799,0.166308,-0.273579,-0.385903,-0.365545,-0.315372,0.261959,0.310794,0.198971,0.085002
0.575993,-0.083953,-0.164727,0.153971,0.208681,-0.234680,0.221514,-0.104110,0.034828,0.114122,0.222610,0.019678
1.578849,0.333610,0.142737,-0.145486,1.251173,-0.243484,-0.448276,0.778340,-0.201105,0.889322,-0.069773,0.593954
1.990456,0.645022,0.080076,-0.520612,1.305152,-0.373980,-0.859735,1.051558,-0.180042,1.150507,-0.205079,0.984373
1.151408,0.474566,0.621407,-0.507945,1.185127,0.140242,-0.265413,0.926444,0.160647,2.017821,-0.332628,0.947436
0.157413,0.737962,0.348347,-0.167683,0.713140,-0.456470,-0.335607,0.893694,0.822945,1.808310,0.042276,0.996298
-0.063004,1.847626,-0.716029,-0.318574,0.697815,-0.508525,-0.538691,0.851928,1.260889,1.200646,-0.215555,0.992259
-0.272497,2.389776,-0.850737,-0.484830,0.579299,-0.842746,-0.870706,0.955586,1.766233,1.081335,-0.738848,0.972887
-0.525328,1.729248,-0.814120,-0.725897,0.632055,-0.974043,-1.262649,0.710467,2.074383,0.703819,-0.666905,0.966654
-0.501095,0.844966,-0.932655,-0.701633,0.714414,-0.871743,-1.344892,0.668725,2.107712,0.699116,-0.485446,0.986510
-0.516372,0.397115,-0.066398,-0.673195,0.429736,-0.922927,-1.529160,0.457950,1.812142,1.306819,-0.057557,0.977860
-0.152160,0.463261,-0.583822,-0.623787,0.536277,-0.461397,-1.089236,0.489068,1.641917,0.850304,0.002498,0.888557
-0.242525,0.135130,-0.081545,-0.387578,0.017794,0.023976,-0.303190,0.389861,0.281713,0.526661,-0.048467,0.121451
0.111116,0.006980,0.190108,0.133866,0.482576,0.221031,-0.397546,0.361528,0.289089,-0.218887,-0.147923,-0.104505
-0.297453,0.341717,-0.087494,-0.123604,-0.079374,0.274078,-0.266320,-0.261044,0.245637,-0.218078,-0.217331,-0.227325
-0.427969,0.119022,-0.387739,-0.384902,0.178777,-0.119337,0.404977,-0.103067,0.304861,0.324667,-0.063454,-0.086292
-0.314252,0.070733,0.335839,-0.258831,-0.425401,-0.306947,-0.202779,-0.385229,0.344091,0.220710,0.125560,-0.218574
-0.001757,0.049357,-0.012100,0.510214,-0.400869,0.153365,0.268949,0.176466,-0.212983,-0.290237,-0.427401,0.236598
0.925313,-0.399239,0.428168,0.738737,-0.369824,0.326076,0.944684,1.024493,0.259669,-0.264519,-0.810524,-0.007057
0.862316,-0.154418,0.790568,0.816729,-0.238711,-0.197531,0.586644,1.160701,0.795770,-0.378505,-0.765714,-0.000225
0.744861,-0.102256,0.502291,0.744231,-0.047925,-0.010089,0.243420,0.896070,0.187551,-0.160575,-0.420691,-0.125659
0.090324,-0.473505,0.317049,-0.003955,0.405117,0.004971,0.381094,-0.269480,0.217892,-0.225391,-0.347327,0.190691
0.064138,0.426886,0.090437,-0.095060,0.488975,0.302300,-0.439444,-0.359414,-0.289358,-0.093676,-0.185184,-0.127028
-0.112798,-0.058274,0.219101,-0.305593,0.371275,0.091047,0.321060,0.135090,0.247782,-0.515003,0.125735,-0.482277
-0.205393,-0.508916,-0.003125,0.268605,-0.333614,0.038234,-0.108528,0.392930,-0.180769,-0.285631,0.140159,-0.462408
-0.014162,0.176752,0.102358,0.088305,-0.302972,0.048064,-0.561497,-0.390565,-0.421738,-0.264428,0.255187,-0.274691
0.304652,-0.241206,-0.000635,-0.044088,0.452794,0.134387,0.109748,-0.353104,-0.253598,0.285700,-0.391279,-0.433840
-0.274787,0.292749,-0.188182,0.314585,0.165255,-0.012188,-0.142545,-0.409224,-0.336508,0.356128,0.389936,0.297468
-0.287619,0.359908,0.047587,-0.410518,-0.275723,-0.124810,0.262903,-0.000802,-0.282973,0.399040,-0.181674,0.282577
0.159356,0.049932,0.280188,-0.207419,0.200090,-0.107865,-0.079517,-0.237687,0.462666,0.072711,-0.346155,-0.272234
-0.067217,-0.429141,-0.322320,-0.474205,-0.052786,0.480452,-0.156676,-0.426657,0.579015,-0.379368,-0.001098,-0.024551
0.067888,-0.774548,-0.334449,-0.418094,-0.245879,0.217278,0.328743,0.055744,0.673630,-0.278348,-0.292926,-0.069167
0.646062,-0.714829,-0.104694,-0.395126,-0.021956,0.859592,0.599190,0.063128,0.096048,-0.559736,-0.631018,0.052862
0.210023,-0.250558,-0.171358,0.059003,0.036511,0.192341,0.212684,0.197781,-0.061076,-0.567727,-0.246016,0.175647
-0.190403,0.046571,0.226775,-0.350537,-0.172563,0.173206,0.426783,0.058435,0.106496,-0.421120,0.220460,0.172491
-0.371538,-0.004076,-0.005416,-0.337432,0.122180,0.069106,-0.314330,-0.291780,0.068323,-0.454803,0.244437,0.199796
0.302864,-0.037144,-0.664851,0.130996,-0.064366,-0.285441,-0.034753,-0.163702,-0.025545,0.092824,0.406049,0.112319
0.289710,-0.354403,-0.395342,0.482818,-0.064551,0.317116,0.391766,0.544844,0.024775,-0.066543,-0.015055,0.219383
0.041445,-0.335380,-0.162978,-0.205306,-0.148504,0.073403,-0.457736,-0.329228,0.455695,-0.267616,-0.058724,0.341107
-0.423583,-0.063942,-0.029349,-0.460057,-0.418779,-0.241041,0.302517,-0.359800,-0.285103,-0.111566,0.176311,-0.154545
0.104020,-0.402736,0.251081,0.116963,0.153495,0.480171,0.057214,0.213816,0.313041,-0.273510,0.000227,0.478854
-0.204876,0.007939,-0.293597,-0.090230,0.439359,0.260848,-0.181384,-0.008349,-0.353046,0.204917,0.223796,0.264375
0.732448,0.241673,-0.182825,-0.254389,0.001464,-0.346233,0.020040,-0.007532,-0.028801,0.043841,0.318982,0.062018
0.913885,0.369916,0.242685,-0.057343,0.582519,-0.086094,-0.566105,0.385214,0.123955,0.305518,-0.104938,0.643161
0.599774,0.065461,0.272097,-0.480857,0.665468,0.057333,0.034796,0.578127,0.209485,0.956936,-0.036754,0.512751
-0.033092,0.375371,0.852815,-0.420033,0.769757,0.193783,-0.141988,0.649569,0.913009,1.537656,0.404854,0.968799
-0.068741,1.538597,-0.064327,-0.476489,0.543926,-0.438166,-0.391879,0.286143,0.694715,1.330977,0.798572,0.923966
-0.277295,1.892872,-0.253036,-0.601573,0.390291,-0.840210,-0.271719,0.228888,0.857695,1.021336,0.214975,0.759907
-0.362854,1.674745,-0.124242,-0.442428,0.401991,-0.927639,-1.123375,0.509293,1.040854,0.797386,-0.253999,0.916995
-0.348508,0.694978,-0.163600,-0.010178,0.625667,-0.500639,-1.212666,0.832985,1.235032,0.856830,-0.307646,0.981834
-0.111947,0.296799,-0.049719,-0.599598,0.553594,-0.327227,-1.089143,0.550843,1.382684,1.260053,-0.008610,0.922366
-0.096040,0.178575,0.070166,-0.101883,0.178390,-0.581205,-0.566780,0.566055,1.330656,0.820460,0.023326,0.424382
-0.394919,0.187838,0.164724,-0.202977,0.330677,0.149788,-0.002072,-0.111093,0.295598,0.401681,-0.284267,0.280128
0.381089,0.156361,-0.286235,0.043005,-0.413836,-0.374123,0.331595,-0.382684,-0.092036,-0.190979,-0.315908,-0.044960
-0.436232,0.251019,0.304737,0.519719,0.384849,-0.099996,-0.150652,-0.389712,0.152552,0.007375,-0.013210,0.088263
-0.340048,-0.435512,0.340991,0.091982,-0.303294,-0.379397,0.116975,0.002444,-0.370527,-0.090004,0.412704,0.034111
-0.453540,0.138553,0.276308,-0.193679,0.008413,-0.051589,-0.471096,-0.002501,-0.031844,-0.382766,0.424633,-0.322157
0.491793,0.116921,0.211010,-0.267730,0.229068,-0.161988,-0.046233,0.446064,0.074875,-0.493598,0.075128,0.127646
0.640348,-0.185367,0.236621,0.257884,-0.125055,0.072650,0.559068,0.757674,-0.081197,-0.206355,-0.433665,-0.245890
1.160852,-0.291159,0.831902,1.157421,-0.349004,-0.304390,0.239032,1.056104,-0.088478,-0.414300,-0.411951,-0.047123
0.524800,-0.354934,0.163528,0.353199,-0.391833,0.207384,0.030171,0.251818,0.098231,-0.321720,-0.480133,0.219219
0.088563,0.455338,-0.072986,0.313063,0.201025,-0.177192,0.255598,0.264780,-0.420534,-0.461683,-0.039375,0.273396
0.312269,0.328208,-0.337260,0.293138,-0.018658,0.011447,0.432125,0.287093,0.331439,-0.300740,0.349599,-0.053699
-0.401987,-0.405210,-0.321843,-0.007678,-0.159328,-0.403502,0.280552,-0.170453,0.141672,-0.308774,-0.232579,0.324193
0.465330,-0.231037,0.418623,0.318780,-0.075751,0.145790,-0.284027,-0.348038,-0.045950,0.371254,0.268439,0.111478
-0.254787,0.264609,-0.368001,0.168476,0.202289,-0.043295,0.458445,0.230405,-0.160095,-0.112349,-0.396915,0.446550
0.154447,-0.139331,0.402053,0.232368,-0.063845,0.306103,0.040902,-0.327355,-0.400660,0.472610,0.375428,0.098220
0.416263,0.033386,-0.324561,-0.132802,0.288298,-0.214490,0.113297,0.182233,-0.433913,-0.273009,-0.221290,-0.464352
0.041135,0.053200,0.026338,0.142777,0.259623,-0.069919,0.381002,0.387411,-0.108147,-0.426847,0.460609,0.446557
-0.028307,0.282173,0.262538,0.001503,0.205572,0.467124,0.324972,-0.218661,0.443789,-0.178232,-0.369457,-0.260646
0.192578,-0.125403,-0.566414,0.103849,-0.218445,-0.126217,-0.127558,-0.010578,0.029846,-0.303797,0.520834,0.303150
-0.377113,-0.057976,0.358678,0.019758,-0.029254,0.175001,0.003001,-0.014136,0.375062,-0.316166,0.124216,-0.481701
0.025397,-0.405822,-0.260412,0.114352,0.608859,0.134799,0.595319,0.199309,-0.184472,-0.248158,0.109255,-0.233234
-0.033531,-0.820524,-0.489681,0.629775,1.366740,0.613096,0.768081,0.234648,-0.366842,-0.677415,-0.173023,0.070798
-0.119832,0.046883,-0.407515,-0.168868,0.023488,-0.259172,0.108321,0.128993,-0.343364,-0.471894,0.059382,0.131875
-0.229874,0.327316,-0.310158,0.024448,-0.197993,-0.427137,0.119733,-0.236968,-0.092452,0.001360,0.303998,0.243839
-0.059164,-0.062763,0.386091,-0.140960,0.228226,-0.190827,-0.247024,-0.323927,-0.378784,0.321702,0.209993,-0.460252
0.222042,0.015585,-0.026311,-0.234101,0.348091,0.329237,-0.412607,-0.143159,-0.124229,0.359689,-0.156461,-0.466921
0.402338,0.080631,0.398621,-0.268949,0.313493,-0.329101,0.184982,0.155313,0.276767,0.345246,-0.333995,0.131440
0.480885,-0.213152,-0.427618,0.104294,-0.392043,0.338626,-0.312612,-0.098317,-0.374390,0.091964,-0.055530,-0.015594
-0.319547,0.156017,-0.342782,0.159312,0.427574,0.269850,-0.042236,-0.265423,-0.318112,0.071356,-0.230569,-0.141728
0.231097,-0.239113,0.078457,-0.628015,0.675083,-0.344012,0.562439,-0.098225,-0.544425,-0.206371,-0.456425,0.030453
0.405808,0.272773,-0.077908,-0.131740,-0.061222,-0.493988,0.071238,0.317515,0.220764,0.228262,-0.067976,0.115882
0.353028,-0.241865,-0.220480,-0.486087,-0.244330,0.098730,0.367227,0.106777,0.099041,0.525081,0.097141,-0.021878
0.253438,-0.168811,-0.226539,0.165764,0.242859,0.104297,-0.353925,0.124656,-0.258064,-0.200314,-0.237735,-0.249128
-0.122986,0.066385,0.073470,-0.341615,-0.089852,0.105756,0.127046,-0.014406,0.167708,0.674225,-0.147022,0.464910
0.043991,1.443403,0.074149,-0.617160,0.033135,-0.471125,0.078252,-0.040638,0.466269,0.662103,0.244833,0.306039
-0.399480,2.268094,0.975869,-0.738722,-0.267754,-0.496395,0.076691,-0.441495,0.818459,0.279306,0.525837,0.236526
-0.184091,1.372188,0.010482,-0.441535,0.079010,-0.594032,-0.508148,0.026106,0.528436,0.799841,-0.024592,0.277416
-0.394318,0.571464,-0.177783,0.100383,0.237634,-0.318248,-0.809198,0.315824,0.709282,0.686488,-0.172433,0.592791
-0.270517,0.384674,-0.161532,0.017941,0.178456,0.041365,-0.317593,0.174709,0.558833,0.550572,-0.204217,0.618705
-0.358855,0.095327,-0.252361,-0.271121,0.233687,0.158145,-0.371222,0.346940,0.390301,0.426659,-0.337503,0.245364
0.401740,-0.149731,0.216110,0.074494,-0.358368,-0.275280,0.098200,0.425015,-0.221329,-0.318336,0.209269,-0.141006
0.228695,0.071052,0.075196,-0.306082,-0.244327,-0.135653,-0.201521,-0.324893,0.420232,-0.494480,-0.438669,0.041799
0.163109,0.377241,-0.412401,-0.186443,-0.022010,-0.402893,0.281216,-0.120616,0.272423,-0.385552,0.243688,0.295592
-0.036352,0.332321,-0.237040,-0.399959,-0.096939,-0.517227,0.197521,0.167381,-0.317990,-0.381646,-0.211955,0.190710
-0.311226,-0.265319,-0.367900,-0.265883,-0.455152,0.445687,0.173860,-0.089416,0.261944,0.182166,0.250058,-0.135256
0.440474,0.002952,0.173063,0.251216,0.065804,-0.383751,-0.063439,-0.166352,0.177480,-0.434082,-0.229061,-0.506319
0.152219,0.167390,-0.220788,-0.472928,-0.244906,-0.116634,0.303861,0.239743,0.276172,0.532261,0.075760,0.186559
0.317603,0.200783,-0.161556,-0.472883,-0.089177,0.020194,0.355035,0.101132,0.119009,-0.091528,-0.098642,0.511734
0.153948,-0.060402,0.276506,0.278572,0.162282,-0.377537,0.451128,-0.072987,-0.257281,-0.142654,0.355742,0.449089
-0.408517,-0.240300,0.083348,-0.065465,0.260752,-0.142014,-0.171481,0.103337,-0.471996,0.540556,-0.277575,0.205763
-0.203127,-0.175182,0.408643,0.249234,-0.220142,-0.421801,-0.324738,-0.269283,0.348627,0.352007,-0.192197,0.110451
-0.287862,0.290252,0.306817,0.400374,-0.132494,0.407839,-0.364857,-0.146284,0.175499,0.257983,0.369629,0.076978
0.377879,0.186908,-0.394267,0.085764,0.261196,0.475044,-0.214420,0.066159,-0.357400,0.175345,-0.377103,0.117900
-0.164876,-0.347145,-0.571526,-0.174103,0.287288,0.186391,-0.387953,-0.240037,-0.018134,0.392677,0.090343,-0.061702
-0.011511,-0.381671,0.392895,-0.092850,0.303390,0.315295,-0.325453,0.367413,0.089211,0.382448,0.289970,-0.139947
-0.084822,0.387302,-0.027151,-0.466810,0.048808,0.217409,-0.036219,-0.621302,-0.394403,0.051385,-0.090599,-0.144129
0.024074,-0.436480,-0.182956,-0.282762,-0.122742,0.260193,-0.193991,0.254092,0.234893,0.355412,-0.464878,-0.336025
-0.199770,-0.368888,0.282686,0.310637,0.094712,-0.047708,-0.159905,-0.437285,0.441212,-0.347504,0.234435,0.221757
-0.182335,0.375355,0.025745,-0.263536,0.128477,0.074717,-0.043367,-0.482510,0.487734,-0.344786,-0.103944,0.362292
0.214342,-0.029858,-0.526687,-0.071041,0.178723,0.268075,0.484362,0.138807,-0.029342,0.535344,-0.074415,-0.100014
-0.359156,0.146620,0.106388,-0.053229,0.437678,-0.170310,0.308653,0.034153,-0.344597,-0.405050,-0.347584,0.342528
-0.486654,0.067054,-0.598015,0.023738,0.182649,-0.621669,0.244188,-0.358055,-0.588202,-0.980032,-0.018316,0.060040
-0.564771,-0.042887,-0.768166,-0.440352,-0.597738,-0.287471,0.056468,-1.000989,-0.967267,-1.132873,0.277070,-0.019820
-0.331873,0.347978,-0.228411,-0.658179,-0.580796,-0.454357,-0.586990,-1.148772,-0.690896,-1.040357,0.742609,0.009479
-0.311998,0.292973,-0.329626,-0.107229,-0.401309,0.123858,-0.372374,-0.188516,-0.473773,-0.486126,0.326141,-0.233666
-0.233566,0.286568,0.362552,-0.306452,-0.340490,0.396749,0.138732,0.381919,-0.352466,-0.187574,0.193505,0.024746
0.167701,-0.374290,0.394686,0.312996,-0.007541,0.168768,0.352521,0.340348,0.147248,0.161697,0.368295,0.354830
-0.091762,-0.149655,0.139730,0.232532,-0.321789,0.553736,0.086578,-0.223292,0.274877,-0.295932,-0.325674,-0.398213
-0.222225,-0.337979,0.427337,-0.417271,0.285373,-0.208183,0.270664,-0.306732,0.265749,0.315243,-0.077978,-0.015764
-0.070984,0.019987,-0.135460,0.039152,0.222647,0.244386,0.463805,-0.442945,-0.181156,-0.167481,0.435846,-0.015524
0.140432,0.155577,-0.142594,0.260138,0.172413,-0.222901,0.100745,-0.443757,-0.468400,0.240209,0.374016,-0.348753
0.393448,-0.112339,0.314082,0.297092,-0.387049,-0.110220,0.087003,-0.072381,-0.383730,0.537788,-0.171670,0.062049
0.125041,0.164590,0.306057,0.337951,-0.450670,0.478468,0.149333,-0.362128,-0.177022,-0.043153,0.312573,0.144392
0.129768,-0.246597,-0.347678,-0.113877,-0.232748,0.195202,-0.220005,-0.146575,0.408985,-0.357193,-0.292130,0.417499
0.215963,0.189256,-0.162425,-0.290512,0.037548,-0.361998,-0.400844,-0.263668,0.125614,-0.084066,0.394690,-0.211520
-0.235520,0.914914,0.339680,-0.178143,-0.333068,-0.122361,0.054821,-0.242675,0.226673,0.317276,-0.140723,-0.001398
-0.299110,0.395447,-0.231879,-0.355936,0.260738,-0.301188,-0.123570,0.342229,-0.016893,0.520673,0.207286,-0.188042
0.293984,-0.186590,-0.226602,-0.048903,0.437068,0.234063,-0.067757,-0.091156,-0.273513,0.358116,-0.007434,0.490830
0.153272,0.378727,0.153346,-0.367698,0.370593,0.294101,-0.311014,0.311849,0.455478,0.179571,0.149113,-0.150783
-0.024832,-0.257793,0.290995,0.365705,0.019535,-0.401908,0.426595,-0.262190,0.219783,-0.246921,-0.383816,-0.035923
0.127132,0.438411,0.379531,-0.403132,0.092291,0.505229,-0.168281,-0.080728,-0.215408,0.048456,-0.104816,0.346194
0.508884,-0.103711,-0.063244,0.110294,0.107466,0.010121,-0.477818,0.393869,-0.213270,0.248235,-0.460200,0.003805
0.326891,0.069736,0.389437,0.254637,0.305067,-0.031524,-0.638704,-0.286246,0.112275,0.027763,0.010657,0.272667
0.122976,0.343280,0.239672,-0.010241,0.133169,0.133504,-0.244331,-0.526865,0.227929,0.419574,-0.333179,0.312482
-0.406347,0.128301,0.348539,0.238150,-0.478900,0.008711,-0.235313,-0.121864,0.317150,-0.082269,0.482717,-0.014605
-0.473194,-0.011232,0.142550,0.264243,0.302930,0.408421,0.331694,-0.022258,-0.361300,-0.067520,0.229709,-0.356963
0.115282,-0.307208,0.176280,-0.195560,0.029411,0.160831,0.427964,-0.223919,-0.304663,-0.405604,0.350373,-0.280558
0.346336,-0.258340,0.491236,-0.123703,-0.176024,-0.003023,0.504015,0.441672,0.081555,-0.235894,-0.435642,-0.197763
0.318104,-0.232117,-0.234376,-0.288652,-0.317090,0.200117,-0.367334,-0.261230,0.217543,0.242356,-0.166116,0.294393
0.195497,0.369136,0.431501,-0.264457,-0.133404,0.172148,-0.079805,0.367829,-0.260172,0.387781,-0.323092,0.239316
0.002784,0.147976,0.530374,-0.265130,-0.527458,0.241404,0.069447,-0.055708,-0.246961,0.137602,0.198462,0.402804
0.009971,0.169515,0.158296,-0.452649,-0.075683,0.045774,-0.437210,0.380153,0.059845,0.403559,0.456504,-0.040010
-0.097170,-0.332758,0.228698,0.244472,-0.298049,-0.117032,0.353441,0.299385,0.399052,0.012518,0.179006,-0.428946
0.241181,0.378165,0.339999,-0.318195,0.220705,0.217655,0.211580,0.037521,-0.127894,-0.286634,0.245040,-0.109129
0.121085,0.391874,0.207071,0.156893,-0.278624,0.285838,-0.370443,-0.163276,0.347031,-0.319263,-0.393269,0.019268
0.278828,-0.045830,0.004207,0.500759,0.008765,0.377599,0.144719,-0.504739,-0.231045,-0.369684,-0.237741,0.066675
0.197738,0.247403,-0.152890,0.343711,0.271890,-0.293926,0.028501,-0.485469,-0.119904,-0.032837,0.407945,-0.423668
0.422423,-0.021562,-0.470295,-0.295876,0.200001,-0.227072,-0.035036,0.155499,-0.293911,0.180612,0.406131,0.333853
-0.166120,-0.343252,-0.309520,-0.301802,0.208865,-0.215052,-0.248491,0.397064,0.224883,-0.446948,0.294470,0.146158
0.264790,-0.006739,-0.052246,0.168417,-0.480852,0.139959,0.170029,0.104781,-0.214314,0.476503,-0.401382,0.405408
0.008724,-0.041546,-0.481507,-0.187881,-0.139609,-0.587903,0.063281,0.004470,0.248563,0.058909,0.090814,-0.399685
-0.283661,0.537805,-0.751950,-0.666354,-0.217925,-1.113005,0.126029,-0.798075,-0.921514,-1.086483,-0.057394,0.039913
-0.432161,0.684630,-1.408858,-0.873261,-0.642753,-1.061262,0.227265,-1.232576,-1.382947,-1.528902,0.170333,-0.000127
-0.380729,0.467848,-0.860431,-0.666989,-0.487871,-0.517702,0.150160,-0.920225,-1.030116,-0.946643,0.254041,0.034016
-0.367046,-0.241069,-0.083740,-0.232348,-0.293623,-0.311029,0.156999,-0.005377,-0.447647,-0.434140,-0.088160,-0.313134
0.289152,-0.513707,0.310700,-0.151445,-0.377976,0.080333,0.378810,0.236768,-0.025169,-0.117407,0.273543,-0.240924
0.072288,-0.012784,-0.216356,-0.136163,0.333776,0.227816,0.032789,0.464119,0.417467,-0.439355,0.321153,0.279653
-0.026926,-0.043754,0.037440,0.219462,-0.540161,0.279788,0.167429,-0.442728,0.311359,-0.363831,0.014578,-0.352373
-0.078589,-0.371859,0.370571,0.316870,0.399073,-0.399048,0.237033,0.093306,-0.414359,0.029864,-0.235919,0.078240
-0.306177,0.158061,0.132303,-0.476735,0.150089,0.339039,0.227505,0.049762,0.191838,-0.566345,0.026087,0.293494
0.002933,0.325568,0.398984,-0.243301,0.087199,-0.408938,-0.337951,-0.429310,-0.414400,-0.129650,0.047903,0.106392
-0.131717,0.412790,-0.355455,0.457100,-0.075303,0.174451,-0.263806,-0.170893,0.454804,0.125303,0.270688,0.214985
0.351615,0.403220,-0.254904,0.246235,-0.174063,-0.342128,0.330080,-0.361173,0.229103,-0.069365,0.197363,-0.323954
-0.003111,-0.451099,-0.319076,0.241210,0.166053,-0.403611,-0.071786,-0.156337,0.105631,-0.446980,0.450378,-0.022361
-0.436559,0.001710,0.090730,0.272347,-0.198223,0.271194,0.209218,0.417986,-0.140445,0.530308,0.071727,-0.278576
0.437274,-0.324828,0.288568,0.277869,-0.427874,0.191052,0.299669,0.057307,-0.263572,-0.202248,0.188111,0.062588
0.275870,0.100660,0.396463,-0.017513,-0.163198,-0.258104,-0.276851,0.414883,-0.113356,0.439020,-0.202634,0.409243
-0.257149,-0.518505,-0.215301,0.514079,0.182516,0.032916,-0.110025,-0.218147,-0.173186,0.403285,-0.203907,-0.147693
0.393737,0.165964,-0.045655,0.244046,0.231162,-0.028778,-0.163937,-0.164432,0.431620,-0.055243,-0.461071,0.496301
0.267828,0.113634,-0.324220,0.219129,-0.208105,0.185775,0.030975,0.439518,-0.251073,-0.065200,-0.492013,0.424807
-0.415157,0.000777,0.400883,-0.149614,0.331661,-0.314501,0.148566,-0.287436,0.393026,-0.228387,-0.206037,0.282540
0.007937,-0.458360,0.382855,0.148359,-0.369391,-0.272306,0.235764,0.420965,0.216953,-0.286719,-0.101501,-0.195172
-0.425734,0.112690,-0.179466,-0.131303,0.166106,-0.495101,-0.495705,0.200453,0.155002,-0.361185,0.205169,-0.037487
-0.513622,-0.175808,-0.123371,-0.389623,0.003323,-0.030335,-0.483885,0.071999,0.361851,-0.078336,0.073415,-0.394380
-0.475738,-0.439053,-0.155867,-0.024204,0.169653,-0.388414,0.249057,-0.430486,0.055204,-0.259311,0.241461,-0.020899
0.303276,0.083969,-0.223777,0.483579,0.384022,-0.124088,0.396882,-0.238770,0.283622,0.314057,0.232068,-0.080375
0.183342,0.099027,0.194054,-0.414457,0.013516,0.285661,-0.124386,0.387241,0.304901,0.409585,0.344401,0.316307
0.210157,0.133754,0.357011,0.250483,-0.116702,-0.215010,0.254618,0.440085,-0.263638,0.379405,0.158201,-0.345789
0.397071,0.480282,0.202268,-0.467978,0.246901,-0.055438,-0.321406,0.264003,0.236349,-0.037224,-0.047982,-0.191278
0.155534,-0.432742,-0.180320,-0.501972,0.490534,-0.342905,0.142275,0.138254,-0.073220,-0.290032,0.110361,-0.067202
-0.337420,0.445225,0.364861,0.003621,0.335497,0.027458,-0.378959,0.174431,-0.198820,0.390057,-0.100965,0.226420
0.196403,-0.364971,-0.140031,-0.333850,-0.428173,-0.013575,0.404384,0.053375,0.025901,-0.014676,0.230179,0.276967
-0.180147,-0.066064,0.213751,-0.141546,0.095347,-0.311874,0.078036,0.211631,-0.116682,0.042185,-0.265457,-0.089177
0.490335,-0.379683,-0.156225,0.056034,-0.312202,0.047908,0.197073,-0.134730,-0.385485,-0.238497,-0.331372,-0.095751
0.138401,-0.390988,0.265939,0.271982,-0.404955,0.222666,0.139756,-0.292258,-0.030297,0.400099,-0.149026,0.085629
0.045346,0.043735,0.376311,0.463449,0.316660,-0.216798,-0.199531,-0.460287,-0.322382,0.207549,0.274616,-0.135144
-0.220639,-0.399951,0.105532,-0.382677,-0.190952,0.013378,-0.007409,-0.305544,-0.381643,-0.345153,0.401381,-0.278991
-0.368200,-0.344109,0.085517,0.402032,-0.139000,0.106357,-0.334019,0.069851,-0.459394,-0.136510,-0.313312,-0.319611
-0.382953,0.055275,0.007456,0.088908,-0.172583,0.458329,0.614604,0.395316,-0.062079,0.237639,-0.090024,-0.005705
0.280149,-0.120188,0.439765,0.332263,-0.175870,0.463884,-0.242395,0.263398,0.199841,-0.290030,0.317416,0.000987
0.359747,-0.000071,0.353955,0.000687,0.417445,0.172795,0.296415,0.170407,-0.316871,-0.029616,-0.245830,0.211387
0.018626,0.284196,-0.346525,-0.206601,-0.503490,-0.452743,-0.025315,-0.158694,-0.429415,-0.817839,-0.074680,-0.074817
0.229460,0.834503,-0.363070,-0.531314,-0.550310,-0.813236,0.187836,-0.523945,-0.884079,-1.368181,-0.087910,-0.005630
-0.092311,0.514266,-0.401060,-0.509867,-0.424897,-0.334418,0.181332,-0.398786,-0.540569,-0.763198,-0.232223,-0.037610
0.132767,-0.050331,-0.093781,-0.511850,-0.212562,-0.370549,-0.158976,-0.440522,-0.845408,0.050184,0.027651,-0.145729
0.394827,0.299546,0.290872,-0.316245,0.059627,0.279002,0.211389,0.316143,-0.223373,0.303445,-0.297213,0.023854
-0.168069,0.235910,0.355010,0.285568,-0.766564,0.098817,-0.274188,-0.064774,-0.099461,-0.008967,-0.101482,0.098727
0.388822,0.242599,0.054031,0.212112,-0.171108,-0.401842,0.316599,-0.258863,0.136964,0.107160,-0.400604,-0.439684
-0.396659,-0.368150,0.219879,-0.404974,-0.060027,0.178449,0.387991,0.430230,-0.106301,-0.104651,0.010270,0.318154
0.342827,0.345438,0.510877,-0.196780,-0.164722,-0.067125,0.405792,0.317486,-0.091579,0.066883,-0.345246,-0.184457
-0.371189,0.240087,0.061788,0.355824,0.416328,-0.209584,-0.085836,-0.294452,-0.410366,0.003016,0.424511,0.118856
0.051495,0.308229,0.344605,-0.259203,0.130677,-0.247191,0.227500,-0.054509,-0.404248,0.432173,0.482921,0.009286
-0.221016,0.129806,0.300573,0.205140,0.233671,0.459572,-0.023122,0.428404,-0.504378,-0.051812,-0.306646,0.029804
0.293441,-0.048207,0.345609,0.310808,0.332457,0.314698,-0.142058,0.368224,-0.254335,0.364561,0.081206,0.354960
-0.096060,-0.168929,-0.011687,-0.255475,0.092149,0.412155,0.446653,0.273091,0.392835,-0.356301,0.318276,-0.248278
0.357047,0.378197,-0.393346,-0.196229,0.253562,0.259819,-0.464185,0.079579,0.023898,0.325959,0.195799,0.193687
-0.336659,-0.265064,-0.377382,0.071143,0.160816,0.390274,-0.086610,-0.357550,-0.402267,0.332638,-0.287753,-0.000011
0.002409,0.319306,-0.334118,0.415724,0.180690,-0.198128,-0.082974,-0.187268,0.136717,0.500717,0.294903,0.378617
0.530323,-0.066409,-0.194561,-0.127933,-0.337042,-0.180315,0.400641,-0.302246,-0.195767,0.439225,-0.131986,0.114662
-0.203369,-0.304315,-0.201816,0.147403,0.032107,0.252110,-0.421280,0.391799,0.428177,0.192446,-0.355712,0.225777
-0.359828,0.344534,-0.181732,-0.097015,0.113982,-0.404546,0.147593,-0.107424,-0.391796,-0.136159,-0.364100,-0.113466
-0.138007,-0.466218,-0.378333,-0.213278,-0.082958,-0.116491,0.292076,-0.181099,0.194662,-0.304528,-0.471037,-0.264273
0.308940,0.356397,0.312059,-0.399776,-0.270231,-0.178580,-0.317462,0.052900,0.088313,0.193448,0.048742,0.513599
0.082247,0.339459,-0.455417,-0.105384,0.137874,0.026054,0.391363,0.228091,-0.507674,0.387111,-0.154705,0.055609
-0.409360,0.106914,0.062683,-0.016577,0.112344,0.171690,0.331794,-0.430421,0.086979,-0.441958,0.419574,0.316871
0.441225,0.356704,-0.348100,0.144838,0.087092,0.391844,0.436197,-0.052020,-0.210670,0.144733,-0.122394,-0.318612
-0.055938,0.155573,-0.290479,0.028307,0.465095,0.285279,-0.009325,0.490783,0.197813,-0.341653,-0.100803,-0.425864
0.315673,0.129283,-0.341519,-0.457104,0.006319,0.195831,-0.385701,0.076378,-0.099091,0.277239,-0.460601,0.215018
0.192358,0.308786,-0.320916,-0.064665,-0.389276,0.357950,0.363115,0.079091,0.417170,0.225139,-0.207702,0.034733
0.292995,0.121560,-0.427436,-0.232483,0.382962,0.383170,-0.318022,0.236841,0.351392,-0.160382,-0.163963,0.065808
-0.390697,-0.356642,-0.368378,0.181017,0.411958,-0.267822,0.163437,-0.120940,-0.309204,0.237398,-0.218255,-0.131372
-0.159745,-0.169074,-0.102944,-0.163577,-0.075633,-0.245120,-0.121892,0.294173,-0.325249,0.056302,-0.176338,-0.254847
0.054554,-0.647629,0.261233,0.287278,-0.265549,-0.160832,0.504711,0.352417,-0.381294,0.145249,-1.028729,-0.047699
0.176816,-0.137270,-0.118527,0.316513,0.116250,0.207924,0.420958,0.059307,-0.200270,0.179243,-0.196601,-0.104935
-0.288714,-0.111280,0.147050,0.248964,-0.470039,0.146055,0.318761,-0.477493,-0.137771,0.119456,0.052344,0.374264
0.079181,-0.018928,-0.221976,-0.539303,0.306848,0.470945,0.207371,0.228461,0.175631,0.009801,0.453942,0.071444
-0.500770,-0.501185,-0.218551,0.268999,-0.082489,-0.280274,-0.168971,0.231893,0.015519,0.051063,-0.222045,-0.397597
0.113243,-0.302083,0.141764,-0.191148,-0.620214,0.057513,0.116292,0.144140,-0.293598,-0.096629,-0.116652,-0.554859
-0.519558,-0.277828,-0.238998,0.044126,-0.322366,0.488578,-0.310306,0.233665,-0.025961,0.150871,0.252950,-0.112586
-0.262160,0.193496,-0.143307,0.451709,-0.449575,0.366114,0.099566,-0.069532,0.109142,0.127856,0.190487,-0.499002
-0.023305,-0.102642,-0.328769,0.143453,-0.235254,0.167576,0.297117,0.446118,-0.331301,-0.206113,0.293634,0.277149
0.150999,0.638306,0.115534,0.113863,-0.298798,-0.503970,-0.033239,0.213398,0.130543,-0.702779,-0.032002,-0.013005
0.483653,0.990658,0.947444,0.167340,-0.524981,-0.442475,0.317663,0.165012,-0.229683,-1.187372,-0.390064,0.000265
0.394043,0.914497,0.179204,-0.460624,-0.371159,-0.684892,0.371406,-0.251354,-0.346210,-0.575744,-0.275286,-0.005933
0.173536,0.378466,-0.313557,-0.363789,-0.324108,-0.187850,0.334743,0.177032,0.077875,-0.106212,0.131098,0.121941
0.093330,0.070691,0.114770,-0.075839,0.296950,0.200061,-0.305074,0.176994,-0.420085,0.389283,0.232990,-0.533981
0.381881,-0.442844,0.231432,0.375936,0.255791,-0.015851,-0.055967,0.007048,-0.330125,-0.165811,0.305765,-0.404385
-0.065028,0.079867,-0.049671,0.255504,0.332794,-0.105438,0.128820,0.391052,0.525579,0.190624,-0.477439,0.298118
-0.160135,0.320428,-0.135600,0.240400,-0.448887,0.447655,-0.038760,-0.175178,0.441030,-0.349558,-0.031812,0.200602
0.394809,0.350675,0.038090,0.338316,-0.194856,-0.313032,0.175224,-0.287290,-0.328551,0.387698,0.229765,-0.180195
0.035107,-0.428845,-0.443915,0.086496,-0.126980,0.216883,0.044526,0.453051,0.313378,0.114113,-0.247820,-0.397973
-0.376535,0.273363,0.016154,-0.347034,-0.291621,-0.144163,0.337169,0.456756,-0.243922,-0.418154,-0.002430,-0.006396
-0.252966,0.349960,-0.218149,0.090041,0.397874,0.083382,-0.408730,0.088897,-0.293382,0.394128,0.033591,-0.418419
0.307494,0.080882,0.180343,0.096835,0.217844,-0.301594,-0.181341,0.035577,0.296578,-0.264345,0.492082,0.533346
0.007994,-0.282044,0.149504,0.161928,-0.411531,-0.028903,-0.439862,-0.318218,0.156426,-0.288208,0.176726,-0.517799
0.215150,0.190296,-0.125163,-0.308744,0.429898,-0.482058,0.042090,-0.266782,0.027214,0.290361,0.199103,0.437814
0.073088,0.498893,0.096155,0.511266,-0.430622,0.192173,0.127494,-0.004579,-0.113906,-0.245658,-0.402051,0.038916
0.182797,-0.333928,-0.045555,-0.335667,0.370479,0.384499,-0.255687,-0.319699,0.038538,0.391217,0.364831,-0.002897
0.040391,0.199508,-0.366111,0.432065,-0.232963,0.006477,0.276072,0.456845,0.032620,-0.238613,0.487900,0.002810
-0.497104,-0.165125,0.020661,0.122617,-0.310699,0.321378,0.132152,0.229715,-0.159035,-0.335772,0.182480,0.163716
-0.135422,-0.561752,-0.480175,0.216877,-0.252869,-0.463168,-0.312688,0.170647,0.131542,-0.061196,-0.567106,0.035215
-0.094830,0.211992,-0.041935,0.003588,-0.225200,0.287121,-0.429421,0.370204,-0.231951,0.312345,0.204010,-0.225861
-0.424336,0.407922,0.362351,-0.355010,-0.323381,0.075310,-0.261658,-0.179646,0.177625,0.277808,-0.028757,0.270883
0.307192,0.142981,-0.284908,-0.363657,0.121666,-0.289634,-0.249354,0.268600,-0.339125,-0.138210,0.415733,0.363061
-0.389069,-0.119348,0.404653,-0.162682,0.065085,-0.136281,-0.407234,-0.169937,-0.144137,-0.047790,0.432567,0.465265
0.424566,-0.075446,0.221329,0.262851,-0.356550,0.067451,-0.279033,0.504625,-0.309833,-0.107760,-0.019522,0.351090
-0.281682,-0.319911,0.390039,0.149389,0.189397,-0.075294,0.298107,-0.275254,-0.130100,-0.311686,-0.258371,-0.390231
-0.267582,-0.457761,-0.209310,-0.495560,-0.072373,-0.213252,0.038018,-0.311790,0.380537,-0.243857,0.270229,0.091848
-0.227373,-0.713593,-0.116267,-0.733112,-0.462572,0.004454,0.015339,-0.832918,0.788222,-0.072914,0.542350,0.024782
-0.253108,-0.360333,-0.205111,-0.501948,-0.078306,0.153002,0.127556,-0.528201,0.071700,-0.212005,0.449505,-0.135253
-0.085893,-0.336634,-0.015830,-0.001298,-0.328584,-0.024143,-0.238953,-0.331688,-0.199631,-0.188789,0.529136,0.017048
-0.291997,0.032038,0.276273,-0.040447,-0.376182,0.015029,-0.098107,0.197137,0.200527,-0.006578,0.137527,-0.286443
-0.177636,-0.141751,-0.056421,-0.008658,0.162054,-0.007069,0.384414,-0.023554,-0.403961,0.122910,-0.523398,-0.290787
0.326253,-0.052330,0.343816,0.166182,-0.409858,0.196574,0.154287,0.308390,0.121386,0.362895,0.213108,0.177476
-0.441760,0.407613,-0.344753,-0.349903,0.047703,-0.152575,-0.034220,0.363771,0.318785,-0.025624,0.076610,-0.332019
-0.497442,0.356124,-0.163332,0.091330,-0.282692,0.220094,-0.271059,-0.002938,-0.319021,-0.320040,0.416958,0.104004
-0.392475,0.193931,-0.336946,-0.193610,-0.177200,-0.086507,0.127573,0.226441,0.402066,-0.259539,0.073882,0.562518
-0.279774,-0.087349,0.272744,0.402240,0.436052,-0.222034,0.039711,0.045081,-0.396268,-0.064860,-0.274112,-0.445486
-0.235467,-0.291933,-0.369654,0.300747,0.200742,0.471427,-0.259510,-0.166498,-0.033829,-0.129339,0.496947,0.080187
-0.387917,-0.419710,-0.078033,-0.303970,-0.291588,-0.251877,-0.165427,-0.084094,0.179294,0.246934,-0.075808,0.311946
-0.139017,-0.285413,-0.344653,0.249173,-0.265879,-0.041371,-0.028418,0.232169,0.251330,0.186868,-0.101930,-0.193315
0.181966,0.594730,0.293599,-0.297176,-0.286528,-0.039884,0.227380,-0.237818,-0.030342,-0.203930,0.073243,0.153782
0.571499,0.811949,1.112605,-0.696396,-0.482560,-0.578832,-0.041267,-0.182647,0.027474,-0.651005,0.188054,0.006266
0.113732,0.578670,0.439435,-0.044309,-0.347665,-0.518958,0.077074,0.101563,-0.051452,-0.205651,-0.157700,0.049909
-0.172535,0.328311,-0.202004,-0.308920,0.329339,0.235171,0.241327,-0.082829,-0.410978,0.141866,-0.145593,0.053036
0.219079,0.179800,-0.430415,-0.457260,-0.297223,-0.038511,0.333672,0.338323,0.034671,-0.398302,-0.198247,0.074710
-0.388356,0.249605,-0.284276,-0.014657,0.261728,-0.387568,0.001530,0.306468,0.151734,0.237096,0.310047,-0.435131
0.086625,-0.232263,0.075198,0.411489,-0.246270,-0.107159,0.047772,-0.186292,-0.458401,0.128511,-0.575248,-0.291512
-0.236760,0.302831,-0.516595,0.342379,-0.006087,-0.410842,0.271995,-0.025879,-0.094778,-0.105063,-0.239711,0.327095
0.033078,0.115168,0.173067,-0.005813,-0.455454,0.288159,-0.237706,-0.331846,-0.097429,0.210167,0.155183,0.359466
0.167214,0.296414,-0.176456,0.230585,-0.182417,-0.045424,0.464547,-0.224608,0.114048,-0.242413,-0.221493,-0.578949
-0.337012,-0.101456,-0.440488,-0.006905,-0.187695,-0.438141,0.405283,-0.316219,-0.329762,-0.201597,0.101529,-0.171313
0.096313,0.468742,-0.285659,-0.182437,-0.045908,-0.355715,0.198082,-0.439295,0.413570,-0.030134,0.204719,0.285207
0.365916,-0.404096,-0.185585,-0.240320,0.152299,-0.460495,0.176907,-0.411270,0.179061,-0.264835,0.002110,0.269486
-0.433825,-0.016585,-0.039726,0.041283,0.438348,-0.068432,0.427941,0.258185,0.311946,0.262694,-0.439031,0.024125
0.033532,0.141360,-0.247067,0.453311,0.171690,0.225519,-0.343732,0.210832,0.343027,-0.021832,-0.467108,0.364452
0.005716,-0.159707,-0.356937,0.376528,-0.395152,0.375296,-0.201609,-0.080000,-0.290448,-0.155625,-0.219881,0.452015
0.434624,0.167329,-0.293130,-0.275347,-0.328781,0.290829,0.048979,-0.407119,-0.026465,-0.287051,0.416192,-0.059844
-0.008879,-0.080808,-0.071570,0.268911,-0.098335,-0.071815,-0.064882,0.257717,-0.457387,0.464673,0.434724,-0.402561
0.130157,0.029570,-0.393065,0.398637,0.253809,-0.167402,0.118238,0.379900,-0.353369,0.080394,-0.376422,-0.006493
0.162419,-0.047088,0.166226,0.295099,0.249970,0.085574,0.242743,0.246092,-0.239741,0.169768,0.087162,0.279502
0.140293,-0.332120,-0.064335,-0.364908,0.320244,0.126028,-0.002139,0.071975,0.098556,0.478522,0.415785,-0.313613
0.259570,-0.058401,0.444134,-0.077993,0.276083,0.510360,-0.238454,0.269711,-0.347026,0.261270,0.225886,0.130939
-0.171927,0.207512,0.388931,-0.171512,-0.394736,-0.418535,-0.095016,-0.111588,-0.242190,0.293095,-0.356408,-0.350136
0.244629,0.183506,0.045281,0.370102,-0.478039,-0.003937,-0.472218,-0.176736,-0.360708,-0.257312,0.121620,0.271245
-0.328042,-0.136941,-0.130072,-0.019649,-0.269155,-0.204841,-0.437883,-0.484032,0.266028,0.244911,-0.426863,0.038899
-0.245268,-0.105872,-0.045403,-0.019563,0.031126,0.077036,-0.238276,-0.318554,0.242397,0.107401,0.519809,-0.225956
-0.850300,-0.770896,-0.341783,-0.784152,-0.478602,-0.037159,-0.284151,-1.327323,0.293468,-0.007758,0.811568,-0.000965
-0.899188,-0.833296,-0.308046,-0.735778,-0.613916,0.091871,-0.207801,-1.186169,0.645421,-0.378818,0.711996,0.000000
-0.647307,-0.938806,-0.071704,-0.861302,-0.549206,0.483980,0.089498,-1.212266,-0.090294,-0.216014,0.387305,0.000279
-0.449588,-0.895687,0.332445,-0.410543,-0.690424,0.475227,-0.136657,-0.990912,0.075552,-0.539418,0.688270,0.011949
-0.212671,-0.580772,0.080275,0.010643,-0.564147,-0.019755,-0.349507,-0.668247,0.024973,-0.299585,0.734839,-0.063759
0.177908,-0.359960,0.200607,-0.072618,-0.386796,-0.140993,-0.298355,0.263151,0.282778,0.249599,-0.279698,-0.264033
-0.403382,-0.353620,0.087388,0.459257,0.146420,0.029654,0.136327,-0.417020,0.387031,0.159565,0.213180,-0.210888
0.017886,0.292724,0.289534,-0.059802,-0.501748,-0.265479,0.364726,0.110074,-0.419039,0.228129,0.028801,-0.361194
-0.441166,-0.410317,0.170846,-0.081756,-0.192074,-0.152842,0.414509,0.061486,0.426868,-0.052235,0.186514,0.381519
-0.259238,-0.276362,0.079569,-0.406926,0.381428,0.124478,-0.352278,0.407173,0.061231,-0.187452,-0.313444,0.310632
0.400698,-0.391134,-0.265902,-0.279379,-0.107368,-0.013566,0.367936,0.224369,0.184241,-0.406730,0.295657,0.230969
-0.104380,-0.101796,0.290910,0.106433,-0.088806,0.426857,-0.025287,-0.407784,0.278329,0.429169,-0.128889,-0.445221
-0.194801,-0.137183,-0.416356,-0.233334,-0.288887,-0.093096,0.304169,-0.142596,-0.262831,-0.342243,-0.234424,0.116694
0.020832,-0.092908,-0.611099,0.154355,-0.029707,0.663228,0.770965,-0.032190,-0.325163,-0.871907,-0.273605,-0.054060
-0.024017,0.246781,0.246530,0.157677,-0.262666,-0.184925,0.158905,0.068472,-0.259848,-0.560870,-0.075006,-0.009414
0.202429,0.156589,0.764724,0.034093,-0.391097,-0.148667,-0.181899,0.188557,0.019184,0.265927,0.005855,-0.027568
0.042728,0.040433,1.103396,0.543213,-0.188423,-0.870749,0.107844,0.634683,0.089190,0.743602,-0.676966,-0.006438
0.228561,-0.215331,0.125075,0.377115,-0.327531,-0.543848,0.260610,0.173860,0.230904,0.230254,-0.366169,0.252982
0.447639,0.088794,0.463206,0.286019,-0.008604,0.046105,0.159633,0.072370,-0.385923,0.313435,0.045069,0.302449
-0.312318,-0.232530,-0.202046,-0.261293,-0.169822,0.265698,0.300617,0.367102,0.310283,-0.469273,0.105329,-0.093008
0.438872,0.139163,-0.072784,-0.329478,-0.218783,0.367278,0.023071,-0.131973,-0.210939,-0.152105,0.315348,-0.429226
0.157083,-0.192452,0.160272,-0.206684,0.014936,0.126394,0.201071,-0.347923,0.325517,0.151107,-0.023775,0.106322
0.108947,0.329793,-0.499128,0.387108,-0.435707,-0.080839,0.340274,-0.185047,-0.428738,-0.460669,0.055732,-0.032231
-0.330133,0.174666,-0.065075,-0.178231,0.034295,-0.118146,-0.321089,0.100063,-0.411612,0.050053,0.221988,0.400693
0.420469,0.058264,0.257328,0.122053,-0.185329,-0.262483,0.450071,0.186119,-0.419343,0.031595,-0.153336,-0.429287
-0.053784,-0.070807,-0.347068,0.228568,0.466726,0.074025,0.096852,-0.260029,0.333524,0.419878,-0.189656,0.441599
0.057567,0.275474,0.070416,-0.269871,0.027068,-0.113299,-0.390033,0.265435,0.448803,-0.213677,-0.253008,0.450083
-0.055449,-0.304074,-0.142302,0.336117,0.027963,0.297261,-0.401486,0.177369,0.081226,-0.214450,0.378380,-0.151365
-0.410635,-0.179033,-0.181186,0.360807,-0.308177,0.422562,0.254649,-0.028359,0.092420,-0.040012,0.214109,-0.445904
0.394359,0.245144,0.242121,-0.367672,0.127469,-0.336279,-0.256031,0.171618,-0.002340,0.379480,0.297728,0.363662
-0.211104,-0.101863,0.056224,0.373882,-0.124910,0.416893,-0.466478,-0.075963,-0.384735,-0.287034,-0.232120,-0.310764
-0.413559,0.068844,0.054621,0.231139,0.242932,0.358031,0.230591,-0.149485,-0.225408,-0.384039,-0.235200,-0.017670
-0.604752,-0.473917,-0.539447,0.124305,-0.272531,0.249056,0.169690,0.002695,0.106631,-0.459147,-0.689711,-0.011979
-0.584283,-0.712418,-0.565734,-0.105096,-0.422180,-0.065994,0.110791,-0.060062,0.540597,-1.021492,-0.591429,0.041016
-0.552881,-0.290704,-0.422103,-0.143836,-0.169488,0.246165,-0.239434,-0.231172,0.052162,-0.095903,-0.189503,0.297866
0.105043,-0.325481,0.063834,-0.201461,0.357300,-0.441456,0.466168,0.280894,0.340626,-0.170958,-0.192002,0.048566
-0.520346,0.319485,-0.340034,-0.348022,-0.185669,0.251548,0.115409,-0.109614,0.194157,0.034534,0.464817,-0.114427
-0.471638,0.125882,0.065812,-0.313341,-0.023021,-0.355747,-0.005300,-0.314701,-0.332203,0.479785,-0.191157,0.235049
0.353157,0.272059,-0.344438,-0.074274,0.289441,0.374562,-0.030689,-0.387521,0.057810,0.266216,0.217478,-0.371350
-0.684165,0.059854,-0.306039,-0.211440,-0.539041,0.178424,-0.019673,-0.896244,0.145572,0.376302,1.080597,0.102180
-0.933955,0.036957,-0.132675,-0.523679,-0.710510,0.534044,-0.094432,-1.528487,0.590983,0.491293,1.663304,0.000020
-0.896576,-0.513413,-0.044813,-0.717017,-0.640091,0.196857,-0.180264,-1.667643,-0.109759,0.202714,1.532162,0.000001
-0.508459,-0.784126,0.056245,-0.831563,-0.687583,0.332333,-0.188200,-1.559079,-0.337485,-0.680445,1.081137,0.019086
-0.377358,-0.651497,0.009810,-0.651569,-0.832344,0.303945,-0.213599,-1.343485,0.110633,-0.642257,1.148364,0.355042
0.216414,-0.491628,0.409917,-0.652998,-0.401098,-0.320943,-0.231470,-0.892894,0.215396,-0.179043,0.989099,0.024604
0.365476,0.156271,-0.205305,-0.355355,0.032764,-0.250782,-0.145063,-0.223122,-0.229592,-0.159023,-0.085808,-0.128968
0.160540,0.018499,-0.541181,-0.456741,-0.042089,-0.175840,-0.331067,-0.109576,-0.096281,-0.262371,0.116544,-0.469361
0.081842,-0.171054,-0.361918,0.004734,0.356376,-0.406031,-0.388121,0.408157,-0.064433,0.156716,0.412737,-0.157638
-0.407822,0.007478,0.043151,-0.484048,0.420698,-0.100624,-0.369490,0.216650,0.176254,-0.263244,0.353176,-0.042339
0.302136,-0.352398,-0.137272,-0.440906,0.060567,0.255251,0.277732,0.391423,-0.042183,0.275953,0.092173,-0.430921
-0.297527,0.352734,-0.220453,0.445485,-0.381219,0.123115,0.099491,-0.249316,0.018661,-0.193986,-0.201269,0.478361
-0.204889,0.274398,0.222374,-0.177643,-0.325343,-0.233957,-0.016214,0.215859,0.364035,0.255112,0.431166,0.309192
-0.159917,0.111507,-0.059839,0.017935,-0.084404,0.480728,0.233180,-0.115130,-0.066418,-0.258661,-0.385034,-0.123540
0.059768,0.393712,-0.532216,0.273331,0.063519,0.571637,0.826689,0.083019,-0.140459,-0.814139,-0.448286,-0.001759
-0.190035,0.109011,-0.324450,0.232515,0.242387,0.095325,0.235743,-0.062885,0.024379,-0.430662,-0.407898,0.161141
-0.310510,0.099088,-0.301907,0.048884,-0.054228,0.192259,0.437658,0.237093,0.337255,0.090708,-0.504803,0.040376
0.403899,0.182220,0.247040,-0.007922,-0.375396,-0.118730,-0.217509,0.450021,0.090051,0.377874,-0.427523,0.052925
-0.189458,0.497176,0.266353,0.301633,-0.320093,0.107976,-0.480891,-0.104923,0.283075,-0.068435,0.052736,0.030882
-0.155110,0.347992,-0.059411,0.328810,0.171026,-0.102424,0.073463,-0.223411,0.199051,-0.374619,0.079945,0.271070
0.439142,-0.444325,0.370549,-0.393925,-0.224122,0.252008,0.333040,0.274333,0.503586,-0.455283,-0.423783,-0.062759
-0.300674,0.164662,-0.189870,-0.168822,-0.348839,0.321405,0.314563,-0.146939,0.030246,-0.031763,-0.319199,0.298175
-0.759240,-0.509698,-0.110451,0.736816,-0.103551,0.441726,0.273131,0.004009,0.213909,-0.078408,0.042415,0.087209
-0.320946,0.295034,-0.026939,0.092904,0.158026,0.306455,0.169025,0.010448,-0.370453,0.054797,0.291373,-0.300131
-0.283791,0.030361,-0.305515,-0.275768,-0.109428,-0.345441,0.152369,-0.138383,-0.431185,0.277175,-0.381447,0.260218
0.350592,0.154499,-0.428145,0.315721,-0.148156,-0.159495,0.058826,-0.355298,0.027456,-0.542133,0.289692,-0.093431
0.349828,-0.338130,0.377273,0.109844,0.384596,0.115473,0.026705,0.424105,0.168162,0.279663,0.389857,0.024420
-0.158749,0.061999,-0.154068,0.343225,0.092494,0.014999,-0.399489,-0.430667,-0.347215,-0.114462,0.317160,-0.313258
-0.753203,-0.768266,-0.375439,0.227386,-0.234061,-0.342621,-0.350403,-0.588268,-0.431215,-0.820172,0.311840,0.003671
0.090013,-0.384262,-0.236946,-0.357903,-0.357132,0.049863,0.002862,-0.453760,-0.358667,-0.283799,-0.205580,0.240478
-0.004776,-0.363245,-0.382448,-0.259716,-0.422397,0.277035,0.093658,0.427215,-0.172684,0.261610,0.201919,-0.144788
-0.042036,-0.319847,-0.124065,0.196267,0.291910,0.456097,-0.310337,-0.245179,-0.441831,0.051166,0.119555,0.051940
-0.680136,-0.616570,-0.422514,-0.426626,0.040977,0.322885,0.105839,-0.212897,0.247609,-0.429158,-0.475222,0.050413
-1.180885,-0.840091,-0.805995,0.131955,-0.322971,0.118056,0.069102,-0.139371,0.271039,-0.577106,-0.728064,0.009135
-1.225796,-0.980114,-0.369398,-0.248468,-0.465353,-0.317226,-0.278310,-0.178215,0.689878,-0.906818,-0.948069,0.000133
-0.808608,-0.761117,-0.307779,-0.134182,-0.416899,-0.188314,0.042627,-0.238136,0.484099,-0.628740,-0.610308,-0.094996
-0.529213,-0.097796,-0.257978,0.199262,-0.306268,0.038346,-0.061966,0.177481,0.325033,-0.164764,-0.405802,-0.229531
-0.006130,0.135501,0.190479,0.066594,0.041322,0.275287,-0.092382,-0.264602,-0.336379,0.349358,0.236645,-0.446016
-0.386648,0.071485,-0.078839,0.252033,-0.273788,0.180652,0.391299,-0.202416,0.456912,-0.237347,-0.233782,-0.390630
0.183532,0.288047,-0.022513,-0.344300,-0.128086,-0.317448,0.040297,-0.336177,-0.041649,-0.319069,0.345920,-0.141882
-0.615403,-0.051238,-0.328088,-0.175395,-0.491970,-0.039191,0.115250,-1.279951,0.435546,-0.045659,1.682388,-0.004624
-0.899090,-0.071590,0.008917,-0.386620,-0.546419,0.154125,-0.196494,-1.776126,0.194498,-0.033079,2.194566,0.000004
-0.938527,0.206777,-0.066113,-0.652876,-0.540261,0.117381,-0.163784,-2.091275,-0.435264,-0.602415,2.433555,0.000000
-0.596244,-0.459993,0.271209,-0.720000,-0.690410,0.531667,-0.122781,-1.792219,-0.166311,-1.062692,1.899980,0.000899
-0.352085,-0.738944,0.147322,-0.754468,-0.481880,0.377399,-0.100486,-1.598493,0.284202,-0.693430,1.888218,0.015523
-0.117237,-0.293717,0.281945,-0.687827,-0.481428,0.080574,-0.023812,-1.245515,0.528914,-0.248243,1.508149,0.002624
-0.076311,0.004893,0.026472,-0.077522,0.063280,0.303206,-0.064380,-0.652605,0.354820,-0.127279,0.385232,0.086963
0.506747,0.607936,-0.124734,0.194780,-0.328206,-0.339469,0.103146,0.065607,-0.057199,-0.212339,0.035864,-0.021131
-0.416862,0.383040,-0.127650,0.249101,-0.266465,0.419130,0.180998,-0.390411,-0.324823,0.189751,-0.102313,0.126773
0.281498,0.349408,-0.218759,-0.300367,0.270533,-0.024682,0.358949,-0.124944,-0.392285,0.204636,0.001243,0.496568
0.221679,-0.167832,0.550383,0.047481,0.469711,0.341696,-0.003842,0.113108,0.442500,0.035321,-0.120704,-0.236006
0.036575,0.410638,-0.241285,-0.281060,0.283645,-0.336614,-0.251757,-0.247518,-0.316964,-0.406456,-0.329008,0.018970
-0.613248,-0.390231,-0.088203,0.124949,0.010304,0.028685,-0.206632,-0.064208,-0.049338,0.591259,-0.061755,-0.041831
-0.107957,0.405312,0.160266,-0.226710,-0.220628,0.321746,0.215865,0.155966,0.074594,-0.443080,-0.378643,-0.301406
0.177857,0.398942,-0.389790,0.192754,-0.176216,0.463132,0.596905,-0.150231,-0.056406,-0.399954,-0.020066,-0.041475
-0.253209,0.138479,0.098172,0.357136,-0.161193,0.143955,0.028836,0.082546,0.308602,0.023623,0.128010,0.397626
-0.237761,-0.394857,-0.109120,-0.205175,-0.435474,-0.332381,0.072488,0.115725,-0.124410,0.234112,0.440598,-0.279612
-0.339032,-0.699994,0.094719,-0.245315,-0.240452,-0.111608,-0.200368,-0.466504,-0.352448,0.428864,0.321651,-0.134489
0.015749,0.111436,-0.152053,0.150331,-0.228920,0.220693,-0.222933,-0.089977,0.019465,0.511730,0.308393,0.084239
-0.481169,0.062177,-0.151285,0.199405,0.051413,0.159216,0.152990,0.302954,0.451843,0.319852,-0.292080,-0.038442
-0.334226,-0.125309,-0.256204,0.150442,-0.246513,-0.032091,0.159039,0.173473,-0.003214,0.241052,0.189856,-0.373652
-0.179498,0.173099,-0.318338,0.187943,-0.012598,0.011019,-0.017120,-0.451139,0.270503,0.018953,0.330149,-0.456729
-0.249523,-0.199220,-0.346537,-0.172008,0.165140,0.185503,0.211678,-0.005050,-0.439960,-0.316648,-0.183726,-0.458193
0.443670,-0.336923,-0.218405,0.465001,0.003945,0.363070,-0.114774,-0.168750,-0.234970,-0.332217,0.173145,0.144358
-0.260626,-0.427252,0.305524,-0.371823,0.045812,-0.339876,-0.197709,-0.324725,-0.151143,0.097830,0.220191,-0.404354
-0.034909,-0.107808,0.081860,-0.382708,-0.258707,-0.357973,0.186187,-0.343032,-0.200373,-0.062304,0.361200,0.066618
0.238421,-0.108484,-0.295334,0.155943,0.052626,0.159683,0.241025,0.148754,-0.304926,0.278889,0.178538,0.307395
-0.473504,-0.463250,-0.242612,-0.334469,-0.172902,0.230859,0.009694,0.027670,-0.314197,0.396273,-0.071606,-0.061228
0.097242,-0.100973,-0.295915,-0.221761,-0.216813,0.337115,-0.258416,0.012383,0.222892,-0.153787,-0.154773,0.079071
-0.120275,0.111018,-0.396549,-0.129474,0.384635,0.029458,0.253792,-0.306155,0.259985,-0.337774,-0.126925,-0.392706
-0.177481,0.289871,-0.024910,-0.012552,-0.243616,-0.006765,-0.272020,0.224045,0.060828,0.070241,0.309467,0.322632
-0.226988,-0.458508,-0.313727,-0.187952,0.532342,0.311522,0.180601,-0.347235,-0.144495,-0.074849,-0.510498,-0.150923
-0.806646,-0.917988,0.035789,-0.786990,0.473625,0.729126,0.392591,-0.621165,-0.130475,-0.629527,-0.489634,0.014601
-1.108140,-0.873307,-0.477076,-0.677919,-0.100173,0.797410,0.380746,-0.383466,0.540688,-0.309142,-0.931500,0.127309
-1.221736,-1.073156,-0.319289,-0.792807,-0.327430,-0.202519,0.016928,-0.726990,0.359672,-0.534006,-0.720911,0.003799
-0.768530,-0.654486,-0.282659,-0.595643,-0.361448,-0.306184,0.127087,-0.774140,0.029355,-0.322358,-0.135474,-0.027841
-1.365827,-0.022556,-1.459155,0.163998,-0.486249,0.012784,0.590099,-0.297499,0.638091,0.565417,-0.261927,-0.049307
-0.432511,0.257004,-0.591758,0.477762,-0.157594,-0.303722,0.258332,-0.019970,0.029956,-0.120179,0.329535,-0.142169
-0.192162,-0.098779,-0.489112,0.072320,0.126934,-0.342608,-0.016581,-0.418018,-0.210479,0.451965,0.358779,-0.078432
-0.417042,0.153443,0.181855,-0.102209,-0.207676,-0.067332,-0.073006,-0.372617,0.161342,-0.438713,0.597581,0.171101
-0.847936,0.566827,-0.374619,-0.288828,-0.626627,-0.047118,0.213570,-1.503265,0.721434,-0.358115,1.894156,0.001152
-1.526366,-0.159712,-0.420068,-0.609965,-0.656200,-0.461657,-0.177583,-1.675642,1.595772,-0.699787,1.812850,0.000000
-0.785280,-0.244192,-0.164980,-0.563264,-0.568750,0.197451,0.328778,-1.765226,-0.052173,-0.961505,1.913144,0.000000
-0.388360,-0.542296,-0.015652,-0.439799,-0.676864,1.215055,0.465929,-1.645006,-0.208351,-1.231596,1.923962,0.000001
-0.423849,-0.592160,0.073097,-0.699499,-0.634865,0.923204,0.473565,-1.516328,0.300571,-0.416376,1.718800,0.006409
-0.545597,-0.737232,0.108606,-0.733808,-0.485711,0.598671,0.667097,-1.192234,0.677017,0.488541,1.137287,0.073461
-0.242870,-0.707492,-0.122297,-0.580155,-0.372547,0.376566,0.539049,-0.653261,0.607556,0.137288,0.514512,0.073380
0.048656,-0.042650,0.268746,0.219605,-0.320371,-0.201729,-0.157089,-0.402534,0.198761,-0.227388,-0.087143,0.093592
0.113846,-0.310163,0.346757,0.270818,0.089766,0.271651,0.335278,0.190395,0.386314,0.111995,-0.372246,-0.299965
-0.332046,0.374162,0.238446,0.374570,0.292562,-0.327188,-0.224654,-0.243437,-0.368999,0.323406,0.055630,0.079794
0.201637,-0.000006,0.450326,-0.484171,-0.010617,-0.052347,-0.208697,0.394761,0.101046,0.379443,-0.403729,-0.051955
0.473363,-0.361885,-0.085913,-0.092032,-0.366894,-0.203162,-0.044313,0.406576,-0.305810,0.204536,0.370067,0.116783
-0.372564,0.014351,0.070754,-0.073774,0.031899,0.146446,-0.484815,0.106351,0.308416,0.499602,-0.426848,-0.229165
-0.075159,0.211628,-0.186752,0.261564,-0.433022,0.068626,-0.213148,-0.340162,0.292307,0.377355,0.396829,-0.267276
0.266161,0.290591,0.255299,0.385908,-0.074190,-0.028142,0.387632,-0.179172,0.302523,0.385696,0.229256,0.263874
0.032542,-0.582069,0.258233,-0.601679,0.040671,-0.294210,-0.177848,-0.309913,0.004323,0.263212,0.354402,-0.002697
0.244986,-0.618077,0.312107,-0.695746,-0.368278,-0.351498,-0.263572,-1.014363,-0.453990,0.860693,0.799620,0.017659
-0.422465,-0.896663,0.040521,-0.789153,-0.506272,0.191002,-0.375403,-1.299815,-0.350673,1.268286,0.780834,-0.000157
-0.453095,-0.812607,0.223087,-0.759132,-0.678134,-0.171180,-0.028477,-1.028310,0.209206,0.511021,0.611085,0.002564
-0.722381,-0.518869,-0.567816,0.342415,-0.471862,-0.066118,0.568927,0.170185,1.115238,0.472959,-0.301833,0.001623
-0.272284,-0.474307,-0.348958,0.094624,-0.177593,0.162847,0.654198,0.284564,0.871477,0.095086,-0.228920,-0.177599
-0.376426,-0.735211,0.066213,0.116786,0.004325,0.158928,0.433225,0.209041,0.943036,-0.307308,-0.378591,-0.115584
0.172358,-0.360385,0.127335,-0.211979,0.248419,0.366069,0.215717,0.030699,0.076405,-0.422007,-0.320288,0.080983
0.240407,0.096969,0.343303,-0.442406,-0.118640,-0.083373,-0.266128,0.098056,-0.005646,-0.293057,0.337902,0.424658
-0.319390,-0.532477,0.090877,-0.464393,-0.049844,-0.389098,0.299490,-0.432839,-0.079462,-0.347309,0.251527,-0.035590
-0.206124,-0.638296,-0.084774,-0.741641,-0.400566,-1.064398,0.516958,-1.087550,-0.398829,-0.284839,0.852960,0.000261
0.055426,-0.358809,0.140788,-0.199106,-0.446696,-0.424918,0.181581,-0.459326,-0.298275,-0.274816,0.395408,-0.085834
-0.038302,-0.407943,-0.146742,0.327690,-0.234753,-0.229512,-0.137285,-0.406894,-0.279644,-0.494568,-0.174287,-0.228938
0.085748,0.222695,-0.236689,0.134079,-0.408649,-0.094405,0.267940,-0.267586,-0.413616,-0.136277,-0.436495,-0.387473
-0.382805,0.119639,0.026780,-0.278950,-0.139402,-0.228849,-0.442164,0.264314,0.435552,-0.459417,0.178713,0.128797
-0.700066,-0.122971,-0.092380,-0.165694,-0.400542,-1.034936,-0.529310,-0.549180,0.350050,-0.731290,0.164717,0.026862
-0.504462,0.034291,-0.335080,-0.183746,-0.243702,-0.129372,0.227855,-0.077945,-0.139921,-0.029855,-0.047072,0.126648
-0.617316,-0.647999,-0.068461,-0.790566,-0.030108,0.361450,0.602145,-0.480105,0.181455,-0.122031,-0.596393,0.054432
-0.689775,-0.768949,-0.366786,-0.843526,-0.239836,0.388654,0.867932,-0.580900,0.817457,-0.210042,-0.474965,0.004313
-1.357733,-0.484113,0.040769,-0.797228,0.105813,0.292121,0.291235,-0.866427,0.408957,-0.482099,-0.285209,-0.002374
-0.588190,-0.265815,-0.017892,-0.366712,-0.002345,0.098616,-0.151106,-0.081345,0.150686,-0.294152,-0.238376,-0.266392
0.027833,-0.369073,-0.263856,-0.118824,-0.050901,-0.023991,0.133253,-0.214316,0.436171,0.410967,0.212999,-0.226788
-0.502522,0.197494,-0.433957,0.183201,-0.370014,0.211224,-0.218689,-0.390208,0.229316,0.293852,0.087541,-0.198358
0.124260,-0.071733,0.444171,0.049647,0.055925,0.004542,0.141232,-0.441761,0.081753,-0.497177,-0.269967,0.458859
-0.189627,0.183479,0.029707,0.271101,-0.012684,-0.145440,-0.065245,-0.474169,-0.086541,-0.124091,0.497009,-0.299342
-1.013341,0.604428,-0.800555,0.188603,-0.569401,-0.275982,0.102414,-1.090424,0.285638,-0.701548,1.521798,-0.001084
-1.565333,0.583526,-1.579475,-0.633170,-0.759153,0.248381,-0.119773,-1.727342,0.919337,-1.077988,1.564163,0.000062
-0.939013,-0.017047,-0.361993,-0.364585,-0.676230,0.363899,-0.017428,-1.464760,0.569572,-0.968795,1.686285,0.000002
-1.041920,-0.493173,0.224339,-0.258158,-0.644376,1.255540,0.626528,-1.451958,0.597048,-1.182159,1.656365,0.000000
-0.066459,-0.533874,0.221563,-0.577214,-0.520668,0.997029,0.905761,-1.109833,0.564844,-0.722260,1.374598,0.000194
-0.170737,-0.551272,-0.129252,-0.627438,-0.436635,0.462999,1.209010,-0.944256,0.323399,-0.473838,0.954230,0.002074
0.044939,-0.171472,-0.074316,-0.639936,-0.303782,0.190492,0.671027,-0.680981,0.078961,-0.046868,0.466446,0.068071
-0.473777,0.083254,-0.507803,-0.721570,0.021677,-0.292445,0.029305,-0.143413,0.589897,-0.070163,-0.775176,-0.071259
-0.005296,0.315961,0.125371,0.169688,0.102424,0.233392,-0.083764,0.305035,-0.219809,-0.138994,0.146855,-0.046736
-0.376786,-0.062376,0.073137,-0.073578,-0.082861,0.340960,0.395823,-0.394739,-0.415014,-0.273858,0.314651,-0.248042
-0.322867,0.432171,0.015648,0.012748,-0.382382,-0.375381,0.094545,-0.364222,0.351460,0.376230,0.026306,0.118697
0.088085,-0.237300,0.263789,-0.133641,0.252492,0.473731,0.028981,0.348602,0.179129,0.447071,0.138067,0.432348
-0.127318,0.234049,-0.141218,-0.064074,0.081185,-0.182248,-0.582886,0.325900,0.341548,0.046388,-0.254199,-0.485450
-0.083589,-0.414442,-0.235261,-0.191309,0.424018,-0.259754,0.228938,0.298067,0.328482,-0.348178,0.150648,-0.297431
-0.152366,-0.505166,-0.270600,0.031328,-0.024816,0.096639,0.043106,0.266214,0.255519,0.487317,0.175087,0.401717
0.080883,-0.539131,0.570479,-0.086047,-0.738924,-0.329966,0.053496,-0.339757,-0.557102,0.310773,0.525814,0.135152
0.363713,-0.778311,1.034811,-0.702811,-0.612540,-0.434440,0.116120,-1.203047,-1.018806,1.184579,1.694683,0.000581
-0.413107,-0.598758,0.479004,0.104553,-0.670591,-0.394930,-0.457004,-0.959811,-0.538995,1.348035,1.324674,-0.000001
-0.282596,-1.047047,0.314017,-0.642100,-0.482036,-0.648829,-0.152828,-0.931180,0.425670,1.659496,1.025066,-0.000079
-0.425260,-0.410861,-0.041117,-0.274945,-0.218443,-0.191918,0.921089,-0.025399,1.157284,0.504841,-0.083301,0.002166
-0.692689,-0.760346,-0.319162,-0.636150,-0.264289,0.523347,0.986215,-0.202583,2.095605,0.098238,-0.391129,0.000402
-0.770482,-1.009120,-0.290995,-0.008109,-0.350369,0.339668,0.540539,0.025628,2.338036,-0.453394,-0.002533,-0.005446
-0.513714,-0.691567,-0.435240,-0.020562,-0.324372,0.463969,0.709057,-0.068180,1.010456,-0.328536,-0.068043,-0.057711
-0.490532,-0.580868,-0.003688,-0.005908,-0.415201,0.165671,0.176235,0.124361,-0.086803,-0.286188,-0.242577,-0.191514
-0.344386,-0.459249,-0.149145,-0.528399,0.115206,-0.294154,0.142711,-0.238995,0.211855,0.074393,0.395208,-0.100186
-0.192714,-0.257098,-0.202255,-0.594939,-0.227607,-0.620969,0.708345,-0.866847,0.057614,0.066278,0.634467,-0.046434
-0.333604,-0.423519,-0.075690,-0.462499,-0.152486,-0.507008,0.210091,0.028673,-0.082904,0.238678,0.075636,-0.190547
0.398414,0.279116,0.168876,0.400824,0.234657,-0.367573,-0.134160,0.272247,0.028028,-0.427152,-0.131659,-0.284113
0.199250,0.407776,-0.254600,0.242493,-0.305698,0.349804,-0.055634,0.293882,0.008663,-0.357606,0.196098,0.429413
-0.138303,-0.045583,0.210672,0.236813,-0.366041,0.281557,-0.444538,0.291364,-0.289565,0.192482,-0.186205,0.133236
0.068616,-0.117886,-0.332308,-0.160651,-0.201530,-0.431729,-0.205019,0.231753,-0.022726,-0.365479,-0.297724,-0.331018
0.287491,0.218155,-0.097041,0.375425,-0.051582,-0.240454,0.351624,0.238386,0.233964,-0.343372,0.321486,0.166569
-0.149490,-0.364166,-0.107562,0.172009,-0.213593,-0.108703,0.115112,-0.266327,0.459944,0.124674,-0.189376,-0.315172
-0.422694,-0.181270,-0.065114,-0.618420,-0.188545,0.168243,0.449498,-0.184553,0.541908,-0.024406,-0.127308,0.037588
-0.190969,-0.162538,0.286031,-0.139772,0.188490,0.042056,0.182251,-0.390404,0.322955,0.023427,-0.130435,-0.306214
-0.322812,-0.030189,-0.091714,-0.266970,0.265576,0.086565,0.371244,-0.416433,0.397806,0.386141,-0.356476,-0.048935
-0.430047,-0.184106,0.280528,-0.375642,-0.174209,0.182485,0.409925,-0.035512,-0.394830,-0.174000,0.225419,0.249275
0.402163,-0.408336,-0.301093,0.224715,-0.011943,0.162462,0.268352,0.264744,-0.212378,0.162135,0.401599,-0.344022
0.631981,-0.224099,-0.390752,0.301168,-0.452941,-0.021288,-0.137429,-0.038469,0.069151,0.198280,-0.141724,0.126237
0.106876,-0.277583,-0.146165,0.453099,-0.199576,-0.014069,-0.022894,0.411932,0.513828,0.050251,0.167288,-0.177217
-0.499790,0.389817,-0.469101,0.029677,-0.538930,0.161037,0.263236,-0.427636,-0.069747,-0.452915,0.754464,-0.069051
-0.965516,0.796549,-1.026483,-0.476861,-0.583005,1.064950,0.358661,-1.307309,0.140617,-1.003824,0.943421,0.001223
-1.332165,-0.485533,-0.324442,-0.759412,-0.428639,0.667308,0.368983,-1.551337,0.510485,-0.843295,1.029191,0.000138
-0.914527,-0.925765,0.033565,-0.728558,-0.615641,1.592705,0.424133,-1.181708,0.436974,-0.788004,0.679402,0.000008
-0.026843,-0.615339,-0.060318,-0.656160,-0.447078,0.698779,0.453689,-1.052522,-0.123127,-0.891986,0.805605,-0.000098
-0.243866,0.158228,-0.268074,-0.166911,-0.351258,0.037141,0.929028,-1.018268,-0.218949,-0.614288,1.293920,-0.004229
0.161206,0.253408,-0.265984,-0.256715,-0.222833,-0.042200,0.524754,-0.352397,-0.052255,-0.428116,0.277326,-0.215521
0.357686,0.506400,-0.499012,0.045174,-0.422294,-0.026620,-0.191039,-0.203131,-0.457875,-0.497502,0.079255,-0.115657
0.331166,0.571601,-0.055135,0.305143,-0.090332,-0.301291,-0.091731,-0.259288,-0.396093,-0.004149,0.277534,-0.318407
-0.333396,-0.219212,0.024915,0.435903,0.001018,0.077005,0.417319,0.015203,-0.149238,-0.365349,0.404497,-0.387911
-0.177466,-0.027763,0.253992,-0.338270,0.432524,0.480838,-0.136786,-0.277484,0.439151,0.030212,-0.135959,-0.250105
0.227457,-0.338997,-0.291859,-0.480385,-0.034920,-0.045225,0.157686,0.206036,0.145477,-0.416615,-0.204914,-0.457793
0.029919,-0.387612,0.175147,0.375016,0.492882,0.302835,-0.242176,-0.175900,-0.203881,-0.049684,-0.288415,0.337787
0.437182,0.096993,0.122316,-0.070779,0.275597,-0.309858,0.234209,-0.432730,0.251377,-0.379279,-0.090000,-0.342038
0.397787,0.378769,-0.086041,0.247924,-0.449084,0.036804,0.251711,0.351961,0.434458,0.079332,-0.127058,0.047766
-0.237227,-0.358712,0.237938,0.215171,-0.341039,-0.149121,-0.161608,-0.449078,0.012832,0.459244,0.345669,-0.154857
0.225365,-0.358262,0.032349,-0.470707,-0.676891,-0.667029,0.509183,-1.013826,-1.096480,1.071875,1.054925,-0.022545
0.188155,0.104393,-0.240833,-0.039359,-0.615607,-0.636742,0.222715,-0.699643,-1.236083,2.170333,1.226726,0.000974
-0.152266,-0.398083,0.102111,-0.625529,-0.274113,-0.896145,0.397984,-0.585797,0.019712,1.237844,0.822415,-0.010290
-0.416839,-0.195427,-0.175113,-0.592379,-0.014711,-0.277342,1.267943,0.138833,1.721154,0.377728,-0.248919,-0.000392
-0.722367,-0.764626,0.493787,-0.548456,-0.143215,1.003713,1.178782,0.203172,2.650059,1.089189,-0.240831,-0.000007
-1.128345,-0.609240,-0.403897,-0.068470,-0.380127,0.320121,0.672655,-0.052706,3.055349,0.025121,0.179579,-0.000258
-0.855355,-0.376277,-0.238692,0.095200,-0.275979,0.141806,0.384266,-0.144946,1.274041,0.111991,0.026671,-0.038628
-1.207697,-0.725402,-0.454108,0.657845,-0.406241,0.200080,0.174632,0.009512,-0.868121,-0.072790,-0.727604,-0.004265
-0.070450,-0.384595,0.162807,0.073405,-0.269618,0.296957,0.056148,0.058687,-0.481627,0.291484,0.112249,0.218103
-0.145846,-0.187896,0.021715,-0.466039,-0.176045,0.123670,-0.211806,-0.533303,0.175214,-0.065459,0.242264,-0.413952
-0.070880,0.277203,-0.371187,0.299605,0.371811,-0.374528,-0.244517,-0.115796,0.006803,0.227300,-0.316082,0.332163
0.023514,-0.148597,-0.404659,-0.332552,0.313114,-0.321272,0.284221,0.259218,0.235119,0.027439,-0.262221,-0.422086
-0.124641,0.423241,0.158324,-0.157135,-0.280461,0.143513,0.239182,-0.119153,0.416034,0.435284,0.321016,0.075985
-0.278254,0.274669,-0.185524,0.560795,-0.198057,-0.181248,0.083781,-0.009822,-0.339075,0.196132,-0.490735,0.317019
-0.134083,0.162166,-0.523501,-0.176117,-0.399981,-0.148171,-0.494497,0.275434,-0.121817,-0.254311,-0.130823,0.028374
0.408419,0.466808,0.074752,-0.413885,-0.168671,0.165651,0.364295,-0.234865,0.195313,0.203485,0.298623,0.114483
0.255891,0.046596,-0.315484,-0.115712,-0.454432,-0.142928,0.252425,-0.182358,0.137065,-0.523899,-0.414180,0.115768
-0.456905,0.286768,-0.408314,-0.269516,-0.101610,0.402133,-0.199192,0.129666,-0.044821,-0.029121,0.090154,-0.426018
-0.455261,0.266010,0.038238,0.404656,0.125079,0.365479,-0.066489,-0.302403,0.416337,0.252900,0.054979,-0.232739
-0.371442,-0.211679,-0.138376,0.404383,0.400794,-0.417821,-0.051616,-0.133753,-0.154913,0.349253,0.306759,0.169504
-0.333369,0.366548,-0.062354,-0.522496,-0.200978,0.089429,-0.020967,-0.530389,-0.256222,-0.243635,-0.060683,-0.337313
0.337972,0.285205,-0.268174,-0.262980,-0.348330,0.227685,-0.383042,-0.390108,0.112398,-0.252269,0.147420,-0.298101
-0.361545,0.102143,-0.464928,-0.382217,-0.028403,0.449557,0.381634,-0.178759,-0.029305,0.092920,-0.258044,-0.198455
0.296531,0.421737,-0.003359,-0.372993,-0.192663,0.420130,-0.119840,0.322818,-0.018566,-0.310145,-0.135562,0.383145
0.330527,-0.147576,-0.281398,-0.074516,0.128604,0.444874,-0.320822,-0.316887,-0.346730,-0.352002,-0.191617,0.162441
-0.277662,0.253270,-0.396500,0.101135,-0.263485,0.154164,0.028124,-0.542547,0.311757,-0.423373,0.421807,0.071919
-0.703007,-0.462219,-0.022539,-0.541913,-0.396276,0.467436,0.216649,-0.969041,0.370759,-0.778785,0.461692,-0.019584
-0.863021,-0.476769,0.026664,-0.104288,-0.477405,1.445962,0.640360,-0.739292,0.592593,-0.323313,0.594388,0.000177
-0.279368,-0.740533,-0.280461,-0.606991,-0.138112,0.652990,0.802989,-0.894247,-0.168381,-0.643219,0.602436,-0.025892
-0.079481,-0.352004,-0.379197,0.002877,0.007909,0.167530,0.459294,-0.654730,-0.209453,-0.551023,0.488353,0.052648
0.536555,0.545088,-0.067759,0.227349,-0.468588,-0.324729,-0.288498,0.034411,-0.646159,-0.351043,0.288905,0.192777
0.526427,1.615404,-0.788621,0.887615,-0.551705,-0.251777,-0.480681,0.064108,-1.084016,-1.073798,0.197067,-0.006922
0.372637,0.880246,-0.817614,0.076604,-0.259045,-0.789163,0.291780,-0.204757,-0.722064,-0.348515,0.031435,-0.034416
0.459271,-0.174890,-0.025730,0.262450,0.139086,-0.475884,0.046164,0.000625,0.431821,-0.477875,0.097670,0.128915
0.194244,-0.307721,0.490595,-0.168343,0.126395,-0.082655,-0.267249,-0.196380,-0.411923,-0.453479,-0.042889,0.297525
0.335434,0.251226,0.394630,0.351856,0.369692,0.370871,-0.038200,0.402868,-0.105170,0.237692,-0.124556,-0.093593
-0.486460,0.074396,0.458938,-0.099262,-0.515205,-0.267944,0.069954,0.124250,-0.208537,0.022530,0.106464,-0.084947
-0.251128,-0.263967,0.291186,0.033425,-0.335707,-0.303646,0.143188,-0.209586,-0.141032,0.298056,0.118013,-0.203291
-0.143748,-0.372709,0.366636,0.320818,-0.067959,0.019860,0.220331,-0.263452,0.245459,0.394272,0.060063,0.328441
-0.426669,0.362961,0.324715,-0.009493,-0.388043,0.329559,-0.063127,0.200643,-0.260237,0.132586,0.309982,0.258882
-0.281596,-0.460129,-0.262763,-0.484023,-0.093651,-0.246881,0.156596,-0.203283,-0.262996,0.027575,0.318262,-0.247799
0.089964,-0.318037,-0.176182,0.005600,-0.000028,-0.136444,-0.016552,-0.382699,-0.247204,0.674983,0.416887,-0.162148
-0.266973,0.044336,0.129978,-0.011644,0.090543,-0.050536,0.070936,0.024665,0.216726,0.283572,-0.024402,0.179355
-0.248287,-0.591821,0.506095,-0.574154,-0.067685,0.134505,0.772912,0.169943,1.983040,0.550245,-0.276415,0.015956
-0.489695,-0.675186,0.211476,-0.742124,-0.130063,0.279929,0.295923,0.176424,3.020645,0.899315,-0.170255,0.000156
-1.347311,-0.762596,-0.400799,-0.730357,-0.335745,0.382823,0.148916,-0.801695,3.039738,0.702903,0.498893,-0.000926
-0.546950,-0.661717,-0.022120,-0.309394,-0.277961,0.206730,-0.021145,-0.203939,1.331523,0.386647,-0.027445,-0.028891
-0.405819,-0.351869,-0.433520,-0.005118,0.117478,0.038374,0.226746,0.052867,0.077941,-0.277488,-0.233173,-0.298084
0.000870,-0.239711,-0.191922,-0.033328,0.319413,-0.088536,-0.418100,-0.274029,-0.048371,-0.298919,0.289455,0.514015
0.294534,-0.451170,-0.138557,-0.077035,0.351903,-0.188547,0.250604,0.192159,-0.047048,-0.378224,0.339648,-0.393423
0.391764,0.328937,0.286896,-0.062629,-0.284568,-0.428565,0.122270,-0.007777,0.205834,-0.296210,0.056519,-0.138800
0.222794,-0.480137,-0.613849,0.230842,-0.146294,-0.059591,0.581989,0.316263,-0.283351,0.058760,-0.527410,0.031281
-0.022323,0.248033,-0.359431,-0.371861,-0.451237,-0.047099,-0.304923,0.179765,0.279529,-0.086588,-0.323305,0.075243
0.009631,0.618205,0.170288,-0.231406,-0.212440,0.134160,-0.365986,0.150816,0.464910,-0.097518,0.007089,0.120505
-0.214046,-0.251310,0.334415,-0.419427,0.144306,0.384554,-0.367215,0.158481,0.156126,0.240880,0.380171,-0.190946
-0.302872,0.655142,0.215837,-0.194558,-0.077522,-0.214739,0.112984,0.046080,0.422429,-0.308080,-0.025784,0.231392
0.275973,0.199561,0.070046,0.225345,0.105571,0.358932,-0.211093,0.220026,0.353055,-0.345468,0.446043,-0.381489
-0.331245,0.105479,0.448445,0.431538,0.103166,-0.231726,0.179845,-0.429103,-0.236443,0.040640,-0.172958,0.313551
0.089200,-0.144907,0.370317,-0.389984,0.368211,-0.299356,-0.016221,-0.315144,-0.065965,-0.434609,0.380080,0.167193
0.097584,-0.385601,-0.298436,0.383064,0.233950,0.232607,0.148812,-0.392719,-0.057240,0.316312,-0.262095,0.361341
0.353535,-0.090659,-0.252224,0.331064,-0.430394,0.246020,0.429166,-0.224214,0.158518,0.006300,-0.098952,-0.410853
-0.067886,0.430212,-0.092319,-0.174047,-0.436073,0.032294,0.202522,-0.367885,-0.121897,-0.038176,-0.417158,0.428092
-0.036703,-0.298349,0.336230,0.165290,0.077049,0.426264,0.079892,0.081994,0.416994,0.196139,0.276196,-0.398259
-0.422323,-0.418859,0.148070,-0.129143,-0.244031,0.334897,-0.237886,0.066241,0.433529,0.381322,-0.024159,-0.125688
0.287072,0.146485,-0.479343,0.298359,0.155941,-0.032946,0.245390,0.373090,-0.390022,0.051550,0.401185,0.190313
-0.000474,0.422895,0.213662,-0.123344,-0.100397,0.323648,0.380930,0.317413,0.348675,0.230994,0.409759,-0.206179
-0.231171,-0.182034,-0.247872,-0.338181,-0.110089,-0.282558,-0.041739,-0.040941,0.151850,0.359986,-0.357077,-0.379005
-0.481113,-0.455380,0.047087,-0.039800,-0.407325,0.395148,0.332503,0.046708,-0.102813,-0.335839,0.298116,-0.061110
-0.131582,0.102863,-0.120809,0.064094,0.086922,0.282327,-0.183624,-0.427604,-0.306827,-0.447902,0.265193,0.018767
0.467394,-0.036779,-0.475478,-0.124101,0.006478,-0.360043,0.371072,0.234010,0.066747,-0.423154,-0.294173,0.081162
0.293779,0.116030,0.153323,-0.150248,-0.396968,-0.016976,0.112724,0.328570,-0.513629,0.114805,0.275583,-0.215882
0.347667,0.684160,0.049084,0.334510,-0.246846,-0.412268,-0.134100,0.206380,-0.343822,-0.489171,0.081357,-0.138996
0.280993,0.177192,0.045385,0.188995,-0.160449,-0.194676,0.005820,0.191351,-0.724421,0.137727,-0.202073,-0.277507
-0.254380,-0.267034,0.355980,-0.333930,0.018114,-0.063393,0.476626,0.096626,-0.345083,0.248301,0.271155,0.356544
0.238814,-0.017002,0.360009,0.144234,-0.128157,-0.273250,0.349618,-0.161343,0.454684,-0.386173,0.413232,0.141439
-0.056608,0.179847,0.315036,-0.092880,-0.435651,-0.508857,0.390657,-0.133086,-0.196729,0.074453,-0.054037,-0.418949
0.027010,-0.266557,0.103971,-0.061137,-0.280646,-0.169693,0.162557,-0.430041,-0.140176,0.263498,0.467274,0.056505
-0.171275,-0.641137,0.112687,0.166340,-0.573698,-0.776735,-0.202384,-0.475516,-0.484805,0.039233,0.621550,-0.002678
-0.188539,-0.185165,0.017418,0.224889,-0.526961,-0.186066,-0.123045,-0.459537,-0.190605,0.007984,0.481359,-0.170384
0.012361,-0.369450,0.378168,0.176382,0.196474,-0.471595,0.219483,0.367582,-0.345341,-0.118300,-0.094586,-0.281757
-0.541138,0.114071,0.253604,-0.124982,0.074716,0.373074,0.141033,0.194869,0.492346,-0.184671,-0.197049,-0.300458
-0.064795,0.236985,-0.043699,0.495827,-0.020986,-0.430089,-0.211638,-0.224463,0.091358,0.145598,0.360724,-0.494502
-0.325919,-0.332195,0.368770,0.299629,-0.034656,0.207435,0.308428,0.250969,-0.266377,0.173283,-0.189671,-0.334838
-0.114166,-0.314582,-0.098752,-0.293817,0.271871,0.154880,-0.027374,0.123490,0.779843,0.637500,0.046742,0.111610
-0.185347,-0.876909,0.315234,-0.532612,-0.095961,0.027121,-0.058160,-0.047072,1.636625,1.402799,-0.113027,0.057966
-0.557786,-0.601444,-0.182783,-0.601433,-0.176838,0.370395,0.267590,-0.453701,1.791813,0.720499,-0.040356,0.013727
0.134055,0.156003,0.103953,0.094979,-0.073987,0.206512,-0.143703,0.065056,0.552779,-0.083919,-0.164791,-0.139068
-0.013443,-0.144210,-0.321302,-0.392351,-0.065122,0.116355,0.075753,-0.349214,-0.330533,0.064846,-0.012011,-0.093452
-0.426949,-0.109348,0.062988,-0.052402,-0.446369,-0.239727,-0.006482,0.151516,-0.022784,0.181092,-0.028477,0.147512
0.176372,-0.128723,-0.151479,-0.279403,-0.291039,-0.300653,0.335540,-0.222342,0.171430,-0.360395,-0.398268,-0.350734
-0.105046,-0.079061,0.360267,0.195693,0.379761,0.203202,-0.245475,0.165529,-0.392878,-0.374365,0.348586,0.210133
0.150399,-0.255439,-0.381631,-0.161267,-0.506743,-0.122505,-0.180776,-0.186908,-0.073260,0.382276,-0.310767,0.228486
-0.207553,-0.199667,0.249598,-0.214410,-0.132742,0.107639,-0.349329,0.051762,-0.158851,-0.184255,-0.108470,-0.066145
-0.242594,-0.200670,-0.204532,0.243276,-0.324342,-0.206725,0.091770,0.278515,-0.009927,0.418111,0.243415,-0.412413
-0.353955,0.395813,0.069807,0.123633,0.024137,-0.408929,0.279228,-0.183733,0.173516,0.229982,-0.414322,-0.391143
-0.285791,-0.172075,-0.231871,-0.316757,0.239254,0.359078,-0.101508,-0.474952,-0.117818,-0.052176,-0.490661,0.235237
0.071777,-0.085604,0.399067,0.463608,-0.353787,0.204656,0.152068,0.197445,-0.408263,0.244472,-0.288915,0.104951
-0.386156,-0.436071,0.174476,0.169486,-0.160586,-0.280935,0.066404,-0.393149,0.308131,-0.558103,-0.136295,-0.067911
0.102525,0.253071,0.562222,-0.086153,0.171704,0.156348,0.079367,-0.513237,-0.211737,-0.189819,0.009194,0.054849
0.293521,0.328467,0.145209,-0.085634,-0.221590,-0.221270,-0.199584,0.092950,-0.266877,0.219158,-0.336172,0.404714
-0.033481,-0.362618,0.447233,0.364043,0.073010,-0.023801,-0.252160,0.031986,0.326703,0.032440,-0.537936,-0.230749
-0.283277,-0.288641,-0.224567,0.377538,0.410595,0.367398,0.067800,-0.106965,0.338795,-0.262368,0.044425,-0.063603
0.196297,-0.502913,0.444834,0.452564,0.003467,0.564210,0.253136,0.320919,-0.523072,-0.265728,-0.308789,-0.101988
0.528940,-0.271500,0.107845,-0.212005,-0.115461,-0.156168,-0.302905,-0.117053,0.053020,-0.492961,0.064484,-0.199638
0.345246,0.294229,-0.126327,0.509647,0.204402,-0.105008,-0.086860,0.519597,0.150093,-0.217203,0.196947,0.265429
0.154257,0.193094,-0.317483,0.280518,0.327783,0.306440,-0.311712,0.309876,0.154474,-0.349153,-0.248443,0.357366
0.276915,0.439983,-0.185333,-0.151030,-0.175648,0.343753,0.016855,0.369728,-0.361599,-0.272871,-0.011065,-0.400458
0.131156,0.103124,-0.036534,-0.336514,0.514738,0.450837,0.396250,0.405646,-0.057222,0.103692,0.023870,-0.224736
-0.434345,0.072786,-0.045533,0.442555,-0.464179,-0.353226,-0.237441,0.303904,-0.013193,0.163377,-0.236418,0.091687
0.021474,0.356495,0.039425,0.240162,-0.317202,0.326862,-0.209915,0.392166,-0.185902,0.367593,0.005490,0.325073
-0.250726,0.451943,-0.288310,-0.449449,-0.477125,0.355203,-0.116066,0.104954,0.127683,-0.095362,0.119689,0.083895
0.277330,0.220338,0.001002,-0.103337,-0.380098,0.025139,0.528512,0.372577,-0.142702,-0.438391,0.269733,-0.111984
0.135763,-0.200147,0.371844,0.220142,0.337665,0.314297,-0.077651,0.208127,0.280790,-0.379477,-0.358691,0.204823
-0.246072,-0.500409,0.360813,0.108719,-0.420343,0.104545,-0.145470,0.257414,0.263298,0.055878,0.273617,-0.119340
0.276929,0.424151,-0.012507,0.116740,-0.203053,0.243256,0.011066,-0.297341,-0.364293,-0.423448,0.274203,-0.027820
-0.355598,0.376992,0.114950,-0.333476,-0.138195,-0.440764,-0.179527,0.177036,-0.300381,0.145772,-0.256750,0.238661
0.043905,0.011373,-0.168154,-0.056003,-0.464102,-0.180497,0.225630,-0.026960,-0.192065,0.091193,0.095220,-0.218385
-0.190929,-0.734411,0.093980,0.215477,-0.520388,-0.076399,-0.076364,-0.307766,0.032779,-0.111579,0.315902,0.000173
-0.087020,0.017583,0.198516,0.034031,-0.162603,0.200669,-0.117610,0.096904,-0.254518,-0.259395,0.237501,0.167942
-0.318814,-0.177174,-0.233664,0.489353,0.194170,-0.466914,-0.453476,0.021069,0.266100,0.114797,0.056179,-0.064382
-0.108759,0.234337,-0.118864,0.533130,-0.333004,0.062821,0.144492,0.216810,0.075188,-0.186328,0.529724,0.362137
0.393783,-0.095052,-0.160802,-0.189058,-0.038186,0.380150,0.393118,-0.149127,-0.055230,0.359063,0.189957,-0.531702
0.216286,-0.372029,-0.003509,-0.187065,-0.024585,-0.261845,-0.247394,0.254487,-0.436807,0.502938,-0.333618,0.149514
-0.350054,0.132040,-0.151051,-0.273584,-0.451652,-0.054876,-0.421209,0.208173,-0.330355,0.271387,0.225503,-0.239355
0.007910,-0.014272,-0.266120,0.438876,0.330602,0.479187,-0.173781,0.008608,-0.000015,-0.075739,0.314927,-0.319803
-0.026597,-0.257924,0.198934,-0.456683,0.169533,0.308730,0.338525,0.006680,-0.183052,0.303770,0.304204,0.244289
-0.131894,-0.392068,-0.033349,-0.456255,-0.091689,-0.066670,0.132031,-0.497890,0.061105,0.121265,-0.277870,-0.039545
-0.158659,-0.657007,-0.065789,-0.661943,-0.515666,-0.174576,0.283542,-0.466793,-0.244801,0.256507,-0.298056,-0.009942
-0.375851,-0.545005,-0.054206,-0.166159,-0.416241,-0.547640,0.216554,-0.104242,-0.314201,-0.076947,-0.568108,-0.021522
-0.249076,-0.345036,-0.254465,-0.006854,-0.211802,-0.070682,-0.016437,-0.422882,-0.341508,0.290883,0.484040,-0.008330
-0.226660,-0.039924,-0.438553,0.282869,0.342760,0.119937,0.350135,-0.321874,-0.146791,-0.230562,0.203067,-0.215560
-0.590552,0.134061,-0.560824,-0.172858,-0.027497,-0.261736,-0.252266,-0.643820,0.452119,-0.116150,-0.068482,-0.038449
-1.154731,0.173620,0.164467,-0.499855,-0.677780,-0.650672,-0.450277,-1.253277,1.032341,-0.733625,0.902334,-0.002947
-0.697951,0.260109,-0.762941,-0.491812,-0.371412,-0.417351,-0.244004,-0.886360,0.494490,-0.121907,0.324278,-0.050599
-0.337831,0.501314,-0.377245,-0.484243,-0.268219,-0.169014,0.067171,-0.082466,0.137522,0.136174,0.419808,-0.255819
0.109976,-0.178789,0.193719,-0.054508,-0.225359,0.393036,-0.134097,0.424509,-0.472008,-0.447677,0.135161,0.171289
0.111537,-0.283392,-0.324849,-0.328354,-0.219587,-0.290031,-0.262781,-0.260667,0.377413,0.272681,0.150466,-0.373194
-0.464446,0.041408,0.538543,0.159296,-0.363616,-0.173533,0.160325,-0.178713,0.029328,-0.316353,0.379171,-0.084784
-0.309468,0.025245,0.876686,-0.600253,-0.383938,-0.443313,-0.214639,-0.805779,-0.004730,-1.027780,0.214134,0.015493
-0.215851,0.226362,-0.117592,0.229489,-0.181760,-0.229983,-0.160023,-0.181581,0.252485,-0.208946,0.399084,0.133939
0.146571,0.133536,0.015423,-0.213005,0.311576,0.476507,-0.167622,0.144267,0.340764,0.459114,-0.028968,-0.062046
0.111918,-0.109511,-0.196664,-0.375731,-0.347162,-0.150620,0.001365,-0.343202,0.200712,-0.389159,0.331392,-0.344646
0.361683,-0.043255,0.361697,0.053776,0.301502,-0.302002,-0.155032,0.340256,-0.309154,-0.366939,0.047302,0.187925
-0.416296,-0.158714,-0.437721,-0.080984,-0.328727,-0.032408,0.323048,0.134180,0.091821,-0.305964,0.000765,-0.488013
-0.308817,-0.327958,-0.291802,-0.042532,0.392091,-0.372301,0.349982,0.020077,0.092005,0.037298,0.434241,0.138782
-0.251673,-0.297429,0.082697,-0.129958,-0.182344,-0.139527,0.035117,0.192918,-0.074671,0.342336,-0.206143,-0.352316
0.140172,0.147077,-0.237238,0.032331,0.262227,-0.102607,0.233769,0.182462,0.104982,0.058918,-0.255810,0.218421
0.287429,-0.122347,0.108792,0.141415,-0.386348,-0.228014,0.443505,0.020728,0.158553,0.319062,0.253215,0.322221
