-0.229762,-0.074431,0.244422,0.083652,-0.032748,0.133450,-0.247409,0.577144,0.391542,-0.388789,-0.396571,-0.003287
-0.430826,0.179728,-0.134369,-0.261786,0.263255,0.032340,0.431873,0.166136,0.422930,-0.092918,-0.469120,-0.058810
-0.243813,-0.128004,0.081414,0.054388,-0.480265,0.360301,0.079066,-0.107892,-0.040456,-0.350854,-0.495995,-0.406786
-0.101799,0.262239,0.214556,-0.132577,0.306674,-0.086669,-0.182517,0.470193,0.409310,0.091750,0.037326,-0.569172
0.199804,0.410244,0.102365,-0.235776,-0.049664,-0.403740,0.399676,-0.187025,0.201187,0.429940,-0.225587,-0.298838
0.134149,-0.354874,0.271786,0.006358,-0.377071,-0.453783,-0.089685,-0.295497,0.411124,-0.336703,0.225384,-0.074215
0.473186,0.150581,0.149894,0.391763,-0.237503,-0.321146,0.156567,-0.043568,0.039206,0.451724,-0.013241,0.430991
-0.444958,-0.376900,-0.149968,0.293555,0.166925,-0.167050,0.331360,0.029288,0.074276,-0.411498,0.387902,-0.244031
0.421158,0.171271,-0.240922,0.364645,-0.237061,-0.171269,-0.334666,-0.478660,0.230648,0.097351,0.334052,0.037002
-0.252869,-0.222599,-0.307434,-0.096326,0.414791,-0.189231,-0.512902,-0.107385,0.405177,-0.053082,0.204890,-0.302136
0.292302,-0.100912,0.179409,-0.099998,0.352740,0.089995,0.445293,-0.157771,0.491968,0.386733,0.071968,-0.331229
0.110542,0.382492,-0.293711,-0.129079,-0.017851,-0.196475,-0.490032,0.129685,-0.365991,0.348264,0.307345,0.304931
0.274364,-0.436502,-0.138607,0.046397,0.342294,0.263826,0.200169,0.497721,-0.386698,-0.194106,-0.038285,-0.222677
0.219561,0.036745,-0.478236,0.496445,-0.278711,-0.068527,-0.356936,0.002535,0.263969,-0.203795,-0.110978,-0.376779
0.118513,0.244116,0.235188,-0.441871,-0.027784,0.308279,0.327176,0.292193,-0.416860,-0.443724,0.003265,-0.129988
0.103319,0.223386,0.427231,0.321201,-0.396725,-0.176033,0.396700,-0.355847,-0.134847,0.323441,0.219570,-0.101695
0.006799,-0.250463,0.238006,-0.139190,-0.285775,-0.276518,0.217872,0.396025,0.208738,0.229416,0.391461,0.499321
-0.199246,-0.061017,0.344228,-0.397860,-0.180645,0.017096,0.518419,0.576690,-0.191949,-0.018701,0.085805,-0.031322
-0.393323,-0.123850,-0.093664,-0.496691,-0.037069,0.068259,-0.477427,0.019904,-0.440620,-0.291421,-0.170734,0.178595
-0.004518,-0.107413,-0.433593,-0.513171,-0.248578,0.275938,0.206412,-0.151486,0.242395,-0.436124,0.102516,0.272286
0.341546,0.313235,0.020483,0.408888,0.098128,-0.213399,0.414470,-0.147954,-0.281380,-0.280294,0.160948,0.430272
0.111094,-0.211045,-0.180095,0.393661,-0.518933,0.140042,0.186887,-0.394559,0.246586,0.386535,0.017060,-0.256328
0.031117,-0.128481,-0.242664,-0.332577,-0.447095,0.162520,0.134046,0.408920,0.419205,0.039325,0.436663,-0.183267
0.057202,-0.433494,0.075085,-0.107032,0.201743,0.144521,0.486567,0.442238,-0.146384,-0.135953,0.506600,0.035413
0.486777,-0.148173,0.143099,-0.317547,0.159705,-0.548897,-0.097147,-0.197525,0.480588,0.102157,0.055952,0.000875
-0.226564,0.450059,0.445204,0.462676,0.049869,0.338376,0.179583,0.234855,0.136779,0.314565,-0.037268,0.101976
-0.173718,-0.444317,0.415649,-0.195156,-0.359564,0.446608,0.320791,0.120052,-0.103331,-0.316438,0.026760,0.062953
-0.481790,0.102792,-0.223183,0.162269,-0.252469,0.320044,-0.439255,0.178702,0.070541,0.054105,-0.519891,-0.109235
0.022925,-0.176474,0.370004,0.464587,0.465221,0.129551,0.298944,0.315880,0.227759,0.325196,-0.133196,0.133634
0.013817,-0.418122,0.099768,0.009601,0.430090,-0.290552,-0.402113,-0.239540,0.348335,-0.224360,-0.382660,-0.091444
-0.410993,-0.282172,-0.100134,-0.394687,-0.042496,-0.042718,0.216480,0.205515,-0.148360,-0.427130,-0.361017,-0.397673
0.311667,-0.357212,-0.213734,0.216591,0.068143,0.010223,-0.250904,0.288507,0.379373,-0.366425,-0.347196,-0.364688
-0.495470,0.443920,-0.213459,0.125747,0.060574,0.090100,0.230913,-0.322495,-0.184936,0.264399,0.097648,0.461858
-0.331329,-0.212296,0.070430,0.375236,-0.130927,0.414633,-0.457035,0.159388,-0.324298,0.270876,-0.278758,0.140684
-0.426914,0.068362,0.065914,-0.348006,-0.120332,-0.132509,-0.469758,0.406018,0.162269,-0.440777,0.187503,-0.119519
0.168104,-0.233471,-0.181999,-0.249670,0.109895,0.276793,0.400999,-0.029045,-0.315179,-0.450799,-0.317714,-0.409803
0.166673,0.097802,0.230153,0.518859,-0.146409,0.192628,-0.095245,0.390991,0.304483,0.401018,-0.088842,-0.398202
0.269129,0.209450,0.420394,-0.071679,-0.189340,0.241258,-0.462375,-0.064768,-0.062110,-0.052090,0.407117,-0.466342
-0.124317,-0.179314,0.282577,-0.153575,-0.240652,0.236074,0.504914,0.290711,-0.103204,0.203963,-0.181685,-0.557314
-0.274448,0.328624,0.387638,-0.269197,-0.223093,0.213308,0.241663,-0.171235,-0.019994,0.280250,0.344841,0.461592
-0.322298,0.229319,0.342899,0.199748,0.412335,0.365692,-0.334175,-0.167034,0.038722,0.444500,-0.039081,-0.183068
0.330860,0.020348,0.211627,-0.417087,-0.306597,-0.371167,0.126942,0.265425,0.050099,0.265780,-0.086268,-0.440674
-0.370561,-0.019277,0.247562,-0.092826,0.195862,-0.409775,0.225812,-0.331233,0.152740,-0.159999,-0.061522,-0.277153
0.140494,0.393550,0.286603,-0.174172,-0.041236,0.383136,0.006700,-0.179083,0.166580,-0.243635,-0.430679,-0.403248
-0.389514,0.238763,-0.220104,-0.454583,-0.229521,-0.259947,-0.249409,0.367489,0.021030,0.460462,0.027337,-0.067217
0.475055,0.088785,0.365852,-0.146044,-0.248726,0.064976,-0.489994,-0.443960,-0.172131,-0.147489,0.112623,-0.209468
0.315737,-0.069424,-0.205571,-0.361116,0.193212,-0.391851,-0.481890,-0.020517,-0.015918,0.366471,-0.401395,0.060303
0.468901,-0.013108,0.059093,-0.175871,-0.048020,0.502346,0.400777,0.047198,0.355559,0.103461,-0.326689,0.290134
-0.419314,-0.011374,0.356183,0.488818,0.427622,-0.010074,0.122019,0.000539,0.274805,-0.018438,-0.348874,-0.250629
0.361699,-0.002636,-0.230664,0.465686,0.095719,-0.280629,0.417010,-0.273331,-0.220733,0.190408,-0.114473,0.405578
-0.248347,0.466460,-0.049416,0.283660,-0.049793,-0.316696,0.053517,0.500586,-0.079031,-0.286065,-0.435631,-0.061272
0.033468,-0.444227,-0.089867,0.439931,0.112919,-0.419443,-0.006142,-0.100165,-0.172647,0.191857,-0.431655,-0.385007
0.219748,-0.345054,-0.357016,-0.212139,0.111046,0.361905,-0.396154,0.435469,0.033294,-0.002228,0.406943,-0.059937
-0.177458,-0.303237,0.167577,-0.239226,0.483077,0.297777,-0.276757,0.065320,0.391101,-0.107430,-0.464179,0.091571
-0.314499,0.365652,0.351017,-0.110155,-0.120863,0.053795,0.188005,0.250417,0.511877,0.380155,-0.285321,-0.168942
-0.169599,0.412363,0.348382,0.017489,-0.357980,-0.230624,-0.392136,-0.178702,0.232134,0.219719,-0.303345,0.343939
0.325074,-0.091450,-0.104888,-0.273632,0.413617,0.395367,-0.549387,-0.021543,-0.236905,-0.071014,-0.193108,-0.268228
0.263179,0.329678,-0.335972,0.048860,-0.155889,-0.045934,0.363079,-0.415499,-0.363254,-0.194854,-0.226046,-0.393559
0.145290,0.292042,0.464664,0.472111,-0.409230,-0.063200,-0.239162,-0.136289,0.038867,0.432538,-0.056903,-0.125409
0.297581,-0.012416,-0.135455,0.493666,0.520654,-0.121945,-0.146564,-0.204273,0.246407,-0.472546,0.125215,0.019567
-0.341169,-0.432268,0.123053,-0.452899,0.156241,0.403384,0.232527,-0.378983,-0.025963,-0.010459,-0.259306,0.153751
-0.074479,0.399208,-0.445648,0.431872,-0.145390,-0.022490,0.141668,0.488002,0.359364,0.102925,-0.128005,0.118272
0.424379,0.104295,0.113216,-0.488970,0.404258,0.043018,0.024233,0.379872,0.232817,-0.270382,-0.327617,0.110935
-0.449501,0.542967,-0.274441,0.073348,-0.286578,0.063752,0.214822,0.282868,0.127454,-0.000224,0.336417,0.284012
-0.134175,0.407164,0.489376,-0.204451,-0.397513,-0.054485,0.114218,-0.293142,0.035038,-0.387389,0.299164,-0.184837
0.382563,0.138677,0.319750,0.320884,-0.200191,-0.357813,-0.463566,-0.211450,0.212287,0.275074,0.201378,-0.200531
0.133728,0.013088,0.186977,-0.042700,0.305608,0.039713,-0.583677,-0.170837,-0.534159,0.102601,0.428263,-0.032582
0.209145,0.114795,0.117365,0.446587,0.080268,0.333138,0.391857,0.169488,-0.249021,-0.061346,0.556155,-0.234694
0.281620,-0.195262,0.358548,0.352131,0.016359,0.196214,0.153445,-0.304024,0.422284,-0.401394,0.166516,0.328782
-0.254711,0.042456,0.288976,0.467196,-0.434774,0.335022,0.162158,0.025333,0.038490,-0.500572,0.187824,0.126505
0.120367,-0.323282,0.331540,0.381355,-0.362048,0.178925,0.220746,0.126294,-0.158653,-0.342666,0.376377,-0.337089
0.082932,0.384153,-0.166969,-0.146057,-0.039922,-0.463539,-0.431744,-0.175318,0.260808,-0.029372,-0.464966,-0.278675
-0.195508,0.397549,-0.220861,0.229775,-0.427531,-0.416856,0.325683,-0.131333,0.042311,-0.388849,0.101030,-0.243073
-0.321684,-0.188287,-0.362386,0.284484,0.156290,-0.193155,-0.430624,0.331368,-0.224600,0.283683,0.399621,-0.034883
0.411248,0.235865,-0.384279,0.057385,-0.346189,0.353811,0.139958,-0.232761,-0.080884,0.450826,0.296069,0.089677
-0.404446,0.063945,-0.246205,-0.202043,0.139041,-0.228879,0.411767,0.078648,0.529879,0.363996,0.256483,0.066276
0.310015,-0.062203,-0.449595,-0.226697,-0.278374,0.370902,-0.034155,0.184819,0.414985,0.064814,-0.452368,0.122719
0.272762,0.043054,0.408490,-0.138189,-0.062883,-0.299396,-0.432219,-0.315058,-0.459778,-0.110307,0.366561,0.013759
-0.223777,-0.281114,0.327594,-0.241199,0.049177,-0.039268,-0.209037,0.353155,-0.384061,-0.213826,-0.441376,0.380777
0.388470,0.088329,0.128458,-0.073037,0.332761,0.483652,-0.249289,-0.458624,-0.015616,-0.385902,-0.198279,-0.117661
-0.010419,-0.424810,0.134031,-0.419525,-0.052980,-0.035323,-0.483558,0.007565,-0.271685,0.407299,-0.153439,-0.352526
0.331667,-0.212460,-0.230994,-0.218773,0.354627,0.318285,-0.262155,0.413081,0.241375,-0.426277,-0.192942,-0.003196
0.343767,0.135831,0.490315,0.491732,0.084171,-0.170758,-0.070242,-0.291616,-0.141378,0.417460,0.237202,0.066510
0.179005,0.101801,-0.041992,-0.050720,0.264083,0.126169,-0.109736,0.507821,-0.186276,0.285831,-0.267390,0.640141
0.126084,0.504425,0.044277,0.099087,-0.088637,0.151656,-0.394120,0.278323,0.166486,0.122307,-0.391891,0.507911
-0.042390,-0.334289,0.092729,0.532082,0.046854,-0.407762,-0.243382,-0.070620,0.117238,-0.408816,-0.408834,0.118476
0.319612,0.190706,0.394227,-0.142464,0.452206,-0.145292,0.286658,0.433980,-0.342686,0.233912,-0.093270,-0.093858
-0.373330,-0.306015,0.150002,0.312221,0.415029,0.029232,0.053060,0.461625,0.302116,-0.306128,0.270081,-0.006926
0.220569,0.095531,0.307440,0.151123,0.364286,0.029447,0.057879,-0.140746,-0.367451,-0.290848,-0.481154,0.465846
0.213404,0.455498,-0.432366,0.396753,-0.396942,-0.396621,0.003248,0.190167,-0.058248,0.105317,-0.191506,-0.020559
-0.121580,0.057439,0.055281,0.459079,-0.242997,-0.245669,-0.128044,0.034439,-0.390771,0.299987,-0.426982,-0.454005
-0.352553,0.450240,0.487429,0.174007,-0.019278,0.055567,0.325146,0.185707,0.205982,-0.363664,0.187303,0.227368
-0.408524,0.305130,0.377834,-0.062398,0.179955,-0.022562,0.261367,0.139573,-0.408722,-0.349358,-0.168239,0.394027
-0.152333,0.267467,-0.127090,0.209570,-0.216323,-0.425396,0.086808,0.342699,-0.392213,-0.349106,0.168976,0.433810
0.315305,-0.226964,-0.111937,-0.257252,-0.100279,-0.544505,-0.352689,0.117830,-0.367043,-0.313051,0.274202,0.132807
-0.025525,-0.230055,-0.292533,-0.446568,-0.004981,-0.398909,-0.095194,-0.401454,0.000274,0.448575,0.270442,-0.240175
-0.385245,0.360578,0.132358,0.330397,0.048508,-0.352983,0.172378,-0.361656,-0.364006,-0.293201,-0.133620,0.263876
0.197231,-0.046354,0.154783,0.383627,-0.383678,0.144340,0.047191,-0.347769,0.333653,-0.268370,0.373350,-0.155828
0.909181,-0.312124,0.626922,0.954944,-0.246702,-0.109478,0.250729,0.827618,-0.123959,-0.423214,-0.293943,0.037700
0.788106,-0.057756,0.602939,0.797906,-0.220998,-0.293242,0.441368,1.117479,0.797995,-0.337589,-0.850537,0.007171
0.374243,-0.164317,0.515152,0.577186,-0.264853,-0.300942,0.165368,0.576694,0.248459,-0.052963,-0.589479,-0.014772
0.074541,0.020527,-0.467004,0.404336,-0.371505,0.073162,-0.316454,0.465098,0.155829,0.167325,-0.114585,0.256079
0.343932,-0.142190,0.268890,0.282437,-0.220764,-0.428181,0.059330,0.250784,0.366402,-0.060623,-0.320402,0.412961
-0.356451,-0.176239,-0.322552,-0.375740,0.340168,0.062810,-0.123134,-0.321005,0.303216,0.369124,0.143269,0.331777
-0.337115,-0.068791,-0.127911,0.305921,-0.311742,0.096702,0.358582,-0.239843,0.416655,-0.108837,-0.347923,0.415374
0.326329,-0.203137,-0.312999,-0.358299,0.002667,0.295768,-0.245366,-0.351887,0.084880,-0.338220,-0.321307,-0.359925
-0.455436,-0.235294,-0.084279,-0.336654,0.233615,0.396627,0.173325,-0.356255,-0.167322,-0.017711,-0.426363,0.194506
0.390536,-0.123880,-0.405945,-0.211385,0.368193,-0.162466,0.407163,0.153490,-0.128599,0.350672,-0.115092,-0.344389
0.334539,0.175040,-0.340425,-0.239496,0.168072,0.387982,0.401835,0.065308,0.288835,-0.115524,0.467077,0.157317
0.101029,0.413998,-0.114419,0.289569,-0.274737,-0.378964,0.068700,0.035253,0.391953,0.353860,0.032642,0.465285
0.412598,0.375082,0.116470,-0.373651,-0.403617,-0.261389,-0.184404,0.003506,0.285827,-0.381391,-0.122389,-0.168858
0.306577,0.114752,-0.084808,0.059535,0.417023,-0.315795,-0.254209,-0.022139,0.356783,-0.272195,0.408161,-0.418782
0.391004,-0.003480,0.323922,0.215368,0.422129,-0.384957,-0.143188,-0.132417,0.333557,-0.254789,0.388240,0.066826
-0.228159,-0.290833,0.297481,0.553329,0.003463,0.131233,-0.047193,0.289957,-0.194045,0.092777,0.390108,-0.408302
0.338425,0.291386,0.309291,-0.269027,-0.395156,0.083867,-0.241392,0.460828,0.170343,0.178873,-0.285970,0.236475
-0.448683,0.001582,-0.053642,0.201953,-0.126869,-0.075634,0.240449,0.384157,-0.498394,0.448379,0.244058,-0.137131
0.358277,0.001076,-0.406348,0.388279,0.066017,0.357710,-0.159996,-0.438091,0.145846,-0.172741,-0.280191,0.276230
-0.156317,-0.085582,0.083001,-0.698810,-0.372099,0.233108,0.390338,0.301071,0.026938,0.134297,-0.131252,-0.034958
-0.069172,0.083915,0.135225,0.478765,0.710501,-0.219334,-0.113986,0.135096,-0.013427,-0.291033,0.177051,-0.200702
0.268969,0.394330,-0.224689,-0.033294,0.115568,-0.434982,0.404058,0.385485,0.203794,-0.344099,-0.026493,-0.213312
0.110812,0.477188,-0.336371,0.184845,0.511525,0.350812,0.193554,-0.160830,-0.275451,0.210932,-0.185806,0.098761
0.324506,-0.125341,0.090671,-0.156600,-0.448322,0.401671,0.490889,0.224195,0.056025,0.136133,0.413309,-0.013317
0.394538,-0.093314,0.418057,0.023088,0.425470,-0.448974,0.095410,-0.148297,-0.003289,0.140435,0.475923,-0.019825
-0.305824,-0.402494,-0.122914,0.147802,0.059830,0.103634,-0.321294,0.056522,0.401602,-0.503198,0.107409,0.400928
0.471213,-0.278835,-0.442513,0.195361,0.319951,-0.104654,0.416136,-0.272549,-0.009610,0.257146,0.134082,-0.145802
-0.176342,0.019072,0.091271,-0.438312,-0.113623,0.265208,0.159440,-0.255360,0.165663,-0.364712,0.396853,-0.525609
-0.329406,-0.072550,-0.496422,-0.079030,0.024933,-0.270857,0.080627,-0.307795,-0.279228,-0.438374,-0.200784,0.384539
0.416805,0.394967,-0.152263,-0.081998,-0.161791,-0.496512,0.507128,0.026078,0.179360,0.094474,0.239469,-0.106620
0.191972,-0.008062,-0.465835,0.083153,-0.535189,-0.297172,-0.125257,0.099945,0.103662,0.259590,0.505150,0.073752
0.139269,-0.523386,0.012580,0.080496,-0.015777,0.291902,0.249890,0.398204,0.430702,-0.400189,-0.200039,-0.088854
-0.122562,-0.083733,0.132395,-0.057605,0.337530,0.472933,-0.289779,0.501504,-0.224700,-0.445468,0.077050,0.166241
-0.001405,-0.013540,-0.309337,0.087783,0.189098,-0.014182,0.249567,-0.367753,0.457768,-0.493207,0.154044,-0.333771
0.073310,0.437231,-0.143104,0.297410,-0.325846,-0.455325,0.036435,0.457390,0.447656,-0.554634,-0.009088,0.083660
0.168272,0.350550,-0.069829,-0.040918,-0.453629,0.260666,0.307498,0.204123,-0.342103,-0.162000,0.421804,0.039272
-0.322859,0.174417,-0.407481,-0.176482,-0.045922,0.070037,-0.173534,0.523422,-0.266722,-0.520335,0.066312,-0.100194
-0.066676,-0.255686,0.031249,0.082520,-0.161405,0.003186,-0.374815,0.415921,0.486224,-0.247831,-0.509143,-0.160603
-0.218386,-0.356407,-0.221268,-0.269392,-0.358476,0.378592,0.147473,0.003255,0.271564,0.340266,-0.343063,-0.320834
0.104569,-0.335890,-0.342857,0.388188,0.462992,-0.165804,-0.400657,0.377732,-0.141812,-0.005780,0.205885,0.020245
-0.022000,-0.371396,-0.254833,-0.454335,0.180176,0.195154,0.521286,0.272612,0.307061,-0.261111,-0.021005,-0.103491
0.274188,0.227699,-0.233822,0.401775,0.254611,0.063377,-0.038093,0.109240,-0.488997,0.418894,0.363253,0.167650
-0.337112,0.556828,0.114527,0.089884,-0.403241,0.243599,0.167767,0.113614,0.409306,-0.022166,-0.256906,0.241002
-0.281679,0.319257,0.391807,0.156887,0.432662,0.308986,0.001436,0.226903,0.411603,-0.208379,-0.305952,0.002003
0.317063,0.039404,-0.300356,0.177703,0.321185,0.269744,-0.348864,0.407922,-0.433301,0.315031,0.154774,-0.033903
-0.013421,-0.235459,-0.282311,0.368971,-0.413726,-0.228735,0.414691,0.171673,-0.294941,-0.115467,0.344539,-0.290828
0.373993,-0.059686,0.232633,-0.173273,0.450903,0.229400,0.220852,-0.024846,-0.296497,0.459172,-0.388109,-0.133103
0.014225,0.402328,-0.253555,-0.262109,-0.384276,0.256630,0.393374,-0.340249,-0.206208,-0.286768,0.277848,-0.137626
-0.416876,0.304644,0.380736,0.077570,-0.520387,-0.293921,-0.367980,-0.044888,0.003841,-0.191624,0.223834,-0.031264
-0.015159,-0.495985,0.303592,0.044679,-0.049812,-0.471337,-0.291695,0.131276,-0.316586,-0.168789,-0.449582,-0.042486
-0.290004,0.229897,0.068771,-0.349304,-0.165772,-0.546144,-0.452210,-0.201010,0.164532,-0.171261,0.203360,0.260562
0.244732,-0.151608,-0.053237,0.291359,0.064756,0.354893,-0.007030,-0.569739,0.448215,0.057730,-0.204053,-0.358798
-0.283329,0.394604,-0.012373,-0.168462,-0.422120,0.423052,-0.379482,-0.238616,0.111640,0.315199,-0.248368,-0.062266
-0.012662,0.301140,0.310752,-0.433322,-0.255930,-0.245938,0.236830,0.108111,-0.412971,-0.286841,0.361724,0.217696
0.396823,0.143223,0.288786,-0.454610,0.192315,-0.276383,-0.324734,0.251320,0.332944,0.319387,0.057523,-0.183838
-0.108764,-0.386389,0.355799,-0.400345,-0.367127,0.219551,0.204262,-0.303106,0.253806,-0.097392,-0.255547,0.310189
-0.145763,-0.048820,-0.504430,0.070232,-0.382557,0.254369,0.364571,0.178331,-0.288484,-0.118528,0.348044,0.350448
0.270316,0.305457,-0.173823,-0.200367,-0.142077,-0.391466,-0.354562,0.463291,0.088025,-0.147730,0.266147,-0.386099
-0.228890,-0.061838,0.024575,-0.277633,0.160355,-0.145283,-0.619341,-0.072819,0.012814,0.002551,-0.181168,-0.630398
-0.031006,-0.399322,-0.337705,-0.119380,-0.385737,0.304035,0.366071,-0.020416,0.401038,0.159772,-0.221346,-0.316664
-0.176838,-0.331286,-0.155386,-0.227019,0.352458,-0.102205,0.458559,-0.251839,0.177003,-0.195010,-0.027705,-0.552084
0.035032,-0.347612,0.196936,-0.340192,-0.230217,0.086560,-0.237553,0.403129,0.275019,-0.294269,-0.148222,-0.509694
-0.491306,-0.176087,-0.375307,-0.086055,0.372794,-0.029660,-0.233111,-0.353963,-0.174727,0.326743,0.340609,-0.080997
-0.293724,0.224294,0.191040,0.408304,0.199770,-0.269186,0.365618,-0.400566,0.297845,0.282476,-0.240406,-0.165565
0.267060,0.256767,0.339689,-0.316378,-0.296092,0.280169,-0.332545,0.081636,0.109524,-0.279045,0.352173,-0.387249
-0.311221,0.281242,0.395654,0.007237,0.341830,-0.019178,0.173621,-0.384745,0.157576,-0.355279,0.268685,-0.385768
-0.492118,0.053635,-0.048538,0.405909,-0.435194,0.376490,0.038031,0.186834,0.252920,-0.277977,0.097021,0.263969
0.159064,0.093029,-0.377605,-0.104500,0.483222,0.419375,-0.211258,0.141888,0.207878,0.480815,0.228680,-0.108194
0.167255,0.016450,-0.167289,-0.418113,0.403087,-0.150551,-0.454610,-0.289923,0.440944,-0.181712,0.134972,-0.217745
-0.332102,0.115372,0.416224,-0.185958,0.053424,0.175623,-0.402413,-0.392892,0.073738,0.340747,-0.213284,0.389283
-0.393386,-0.094249,-0.421848,0.220427,0.151721,0.055167,0.095251,-0.241294,-0.476632,0.098133,0.386123,-0.361335
0.330968,-0.317767,0.241117,-0.387082,0.180155,-0.489530,-0.059064,-0.100656,0.210529,0.228644,-0.306024,-0.324880
-0.162995,0.022707,-0.069038,-0.395322,-0.110493,-0.402673,-0.367432,0.256913,0.121080,0.394944,0.308247,0.413339
0.428781,-0.288152,-0.104473,-0.461014,0.219520,0.111356,-0.312497,-0.089337,-0.022977,-0.429045,0.301587,-0.260538
0.379118,-0.067988,0.054684,-0.474587,-0.208287,-0.149453,-0.292199,0.056576,-0.394349,0.294556,0.096384,-0.466433
0.063951,0.168168,0.433175,0.120145,-0.155378,0.349441,0.188801,-0.217956,-0.431770,0.349639,-0.167211,0.446677
-0.230205,-0.200431,-0.329540,-0.116864,-0.386261,0.040281,-0.390636,-0.182731,0.406532,0.289882,-0.171974,-0.410971
0.127945,-0.176033,-0.469395,0.345685,0.188003,0.346238,-0.266110,-0.424608,-0.056687,-0.053304,0.441220,-0.075836
-0.264310,-0.399708,0.049892,-0.159436,-0.197890,-0.467610,-0.166981,0.383914,0.088923,-0.234007,0.447696,-0.215116
-0.430249,-0.030896,0.149439,-0.203694,0.044831,0.027379,-0.130652,-0.364250,-0.622531,0.304774,0.245605,-0.238425
0.310675,-0.040659,-0.426017,0.316245,0.294660,-0.363525,0.111379,0.424570,0.126981,-0.110998,-0.421258,0.052765
0.076752,-0.424464,-0.441878,-0.115647,0.382232,0.047760,0.176321,0.420913,0.130764,-0.436768,0.117675,-0.164188
-0.175362,-0.412811,0.279199,0.336898,0.441584,0.270468,0.295715,0.098855,0.001787,-0.155095,0.428382,0.185596
0.060632,-0.005956,0.076828,0.400432,0.370916,-0.084817,-0.413867,-0.533920,0.406955,-0.014024,0.030769,-0.249309
0.244612,-0.090163,0.073270,-0.060820,-0.395121,-0.445450,-0.421218,-0.347606,0.212886,0.293641,-0.064473,0.366694
-0.130348,0.159072,-0.327250,0.427951,-0.143739,-0.398738,0.485523,-0.158530,-0.416670,0.205740,0.101809,-0.025429
0.320112,-0.044852,0.070347,0.382125,-0.067013,-0.480332,-0.211563,0.096649,0.014431,-0.228417,-0.467980,-0.428779
-0.188449,0.454243,0.053316,0.014664,0.219274,0.372741,-0.186577,-0.513472,-0.200594,0.472013,0.014131,0.079861
-0.437598,-0.084584,-0.090834,-0.215219,0.412221,-0.409041,0.192338,-0.077133,0.097687,-0.434371,0.161318,0.377299
0.024280,0.304413,-0.420582,0.079033,-0.117768,0.175075,-0.378210,-0.301452,0.449767,-0.234596,0.080991,-0.425777
-0.114703,-0.404999,-0.352158,0.359266,0.175619,-0.323638,0.159764,0.145967,-0.269127,0.406515,-0.293119,0.252417
-0.203876,-0.049645,0.122135,0.058008,-0.281122,-0.330649,-0.481984,0.273430,-0.001445,-0.503918,-0.378136,0.212792
0.065261,-0.373225,0.402182,-0.090563,0.462488,-0.164923,0.024431,-0.338955,0.533325,-0.032058,0.141195,-0.030131
-0.413003,0.344037,-0.148759,0.147748,-0.077270,-0.229597,-0.320248,-0.206587,0.361100,-0.058089,-0.505078,0.153728
-0.473304,1.010372,-0.371868,-0.442055,-0.051895,-0.661104,0.122066,-0.202629,-0.007816,-0.430607,-1.020509,-0.013210
0.016411,-0.076708,-0.359042,-0.105173,0.156177,0.106137,0.244073,-0.436367,0.051559,-0.296000,-0.213539,-0.134614
0.093001,-0.383491,-0.241217,0.167808,0.285558,-0.358753,-0.154940,-0.399666,-0.192248,0.241737,-0.272088,-0.429475
0.279061,-0.257102,-0.055120,-0.105092,0.087876,0.374773,0.392358,-0.486522,-0.283140,0.233036,-0.269941,0.309309
-0.303170,0.366713,-0.061501,-0.330400,0.316629,-0.054343,0.300197,-0.344495,-0.367578,-0.283842,0.167850,-0.323740
0.370008,-0.090567,0.233973,0.220760,-0.057905,-0.460711,-0.243521,-0.268821,-0.385386,0.380600,0.288202,0.166730
-0.395519,0.021957,-0.164309,-0.112426,-0.213684,0.118322,-0.347630,0.407131,-0.249844,0.361057,0.424851,-0.289655
-0.041517,-0.051253,-0.329969,0.578183,-0.063180,-0.307932,-0.316681,0.186384,0.218916,-0.218618,0.469660,-0.048328
-0.408533,0.127174,-0.344916,-0.063184,0.412974,0.212748,0.417210,-0.096344,0.255855,-0.340837,-0.288035,-0.173833
-0.286279,-0.459140,0.337895,-0.045977,0.280007,0.339546,0.461512,-0.262842,-0.065929,-0.123496,-0.159945,-0.264559
0.331177,-0.330107,0.352660,0.326455,-0.357943,-0.073871,0.245335,0.371545,-0.130232,0.064649,0.309036,0.319297
0.257476,0.405671,0.184541,-0.319074,-0.378943,-0.208164,-0.338360,-0.256210,-0.016491,-0.103476,-0.242924,-0.442969
-0.238453,0.118581,-0.243958,-0.210091,-0.089493,-0.457720,-0.473618,-0.152395,0.303352,-0.424014,-0.199198,0.221088
0.351203,0.262206,-0.348192,0.325713,-0.389125,0.123387,0.404560,0.222262,-0.433255,0.001063,0.098409,0.058898
-0.303752,-0.433582,0.117465,-0.028377,0.335494,-0.004879,-0.436145,0.148262,-0.006817,0.431819,-0.151157,-0.413511
0.270295,0.247654,0.184694,0.437702,0.178545,-0.447306,0.422370,0.093784,-0.345338,-0.084343,-0.107044,-0.287977
0.353242,0.337072,0.411907,0.226401,-0.271088,0.357694,-0.130306,-0.165439,0.095139,-0.331851,0.206681,-0.364692
0.271972,-0.435336,-0.023874,0.118131,-0.085927,-0.368310,0.367434,-0.257980,-0.493979,0.342282,0.033507,-0.122871
0.227967,0.218338,0.209563,-0.447707,0.371825,-0.012911,-0.357708,-0.204473,-0.457945,0.028961,-0.270360,0.253318
-0.175980,0.303628,0.195565,-0.583272,0.345615,-0.295907,-0.506400,0.086297,-0.084690,-0.103114,0.084972,-0.049654
0.071716,0.273058,0.636486,-0.219999,0.061967,0.536671,-0.051663,0.121285,-0.060943,-0.086470,-0.353072,-0.147297
0.458980,0.277780,-0.298107,-0.024786,-0.147060,0.473864,0.319199,0.066302,0.030355,0.454597,0.250294,0.002920
-0.234200,0.149978,0.041628,0.440816,-0.302780,-0.468802,-0.162259,0.381679,0.362509,-0.176053,0.284030,-0.008154
-0.463788,0.024128,0.069208,-0.346341,0.027683,-0.171063,-0.390450,0.441366,-0.220230,-0.445903,0.042333,-0.182128
0.438773,-0.102620,0.393739,-0.253692,-0.364735,-0.194026,0.421347,-0.336560,0.154946,0.030188,0.253910,-0.163352
-0.434885,-0.022875,-0.166487,-0.386371,-0.301392,-0.404780,-0.334418,-0.258880,0.330374,-0.119263,0.241888,-0.133910
0.275250,-0.216197,-0.513035,-0.326475,0.053869,-0.028566,0.174274,0.143491,0.250450,0.245473,0.545760,-0.179417
-0.476407,-0.397740,-0.184015,-0.414067,0.228008,0.156733,0.002664,-0.171919,0.399177,0.335663,-0.159660,-0.076856
0.178219,0.275971,0.089100,-0.126749,-0.435686,0.395512,0.094985,0.220309,0.160883,0.269806,-0.380005,-0.470299
0.047734,-0.380020,0.288386,0.103282,-0.237581,0.252210,0.449507,-0.322245,0.071094,-0.444435,-0.240486,0.270387
0.234814,0.039480,0.313832,-0.007649,-0.025050,0.197795,-0.130096,0.406114,0.440304,-0.350898,-0.398621,-0.383738
0.027896,0.420977,-0.410354,0.406256,-0.355471,-0.311209,-0.244798,-0.240563,0.134122,-0.338272,-0.013167,-0.122349
-0.462822,-0.000488,0.315209,0.116618,0.063354,0.437158,-0.075969,0.457468,0.070430,-0.315661,0.246088,-0.312263
0.066412,0.294669,-0.302000,0.219082,0.338090,-0.326926,0.180299,-0.320050,-0.387394,0.383834,0.093079,0.327667
0.316589,-0.435843,0.326741,-0.040517,-0.344517,-0.227194,-0.369398,-0.425846,-0.264000,0.201800,0.051163,0.016266
0.370086,-0.289994,-0.378718,-0.288063,0.132102,0.363159,-0.192763,0.235528,-0.384178,-0.133835,-0.355018,0.137925
0.024241,0.276453,0.038686,0.391438,0.373715,0.185062,-0.374615,-0.375980,-0.406385,-0.376536,0.073710,-0.017223
0.426892,-0.142045,-0.407732,-0.386031,-0.273913,-0.154469,-0.338381,0.469215,-0.170235,-0.070160,0.000190,-0.121928
0.044009,-0.236279,0.192343,-0.120028,-0.353696,-0.103781,0.445210,0.462237,0.286522,0.006456,-0.293488,0.418108
0.406565,0.397714,-0.333795,0.437572,0.170659,0.223336,-0.351119,0.152445,-0.110467,0.300624,0.135610,0.164757
-0.304907,-0.075399,0.476938,0.034135,0.037407,0.003724,0.409731,-0.030663,-0.444924,-0.499248,-0.080154,-0.221016
0.075231,-0.428838,-0.333180,0.385870,-0.260926,0.204560,0.130063,0.253477,0.359453,-0.412698,0.244723,-0.004867
0.189232,-0.434106,-0.197217,0.034939,0.505446,0.279909,-0.067563,-0.020131,-0.246884,-0.093747,0.550878,-0.153707
0.256310,-0.356075,-0.156611,0.260070,-0.199151,-0.382544,0.283813,-0.397034,-0.418589,0.050337,-0.208921,0.264135
0.383414,0.171244,-0.488775,0.172040,0.162920,0.403605,0.078045,0.511477,-0.068378,0.023441,-0.304524,-0.008470
0.096203,-0.419872,0.316485,-0.407845,-0.259749,0.065239,-0.351380,-0.381986,0.072035,0.212894,0.348925,-0.185971
-0.472022,0.212332,-0.299568,-0.439067,-0.177046,0.156850,-0.094027,0.160748,0.309439,0.387055,-0.037942,-0.334600
0.208293,-0.191467,-0.233784,0.216641,-0.102440,-0.431297,-0.337999,-0.173855,-0.375620,0.335297,-0.265346,0.391744
0.055005,0.012285,-0.137671,-0.487921,0.514989,0.356130,-0.195876,-0.271304,0.403834,0.243268,0.108888,-0.040866
0.344008,0.090179,-0.281878,0.090909,-0.480428,0.079002,-0.120625,-0.061644,0.329693,-0.364367,0.497337,-0.203958
-0.144648,-0.290303,0.135022,-0.101344,0.043016,-0.186916,0.381079,0.513712,0.259146,0.329026,-0.493053,-0.043298
0.438444,0.114360,-0.438949,-0.079238,-0.127139,0.434169,0.408712,0.223767,0.198353,-0.260045,0.090094,0.242620
-0.160890,-0.169863,-0.271879,-0.468836,-0.443726,0.364890,0.064985,0.032993,0.233264,-0.103967,-0.348171,-0.360197
0.468714,0.434925,0.033607,0.019980,0.482295,-0.009186,0.386697,-0.065794,0.048339,0.387469,-0.149038,0.168466
0.202894,0.241913,-0.463257,-0.156153,-0.195114,-0.456428,-0.234803,0.298159,0.036327,0.228610,0.401424,0.236254
0.148654,-0.248860,-0.241006,0.402116,-0.197528,0.414537,-0.016337,0.309806,-0.397636,-0.229879,0.401333,0.081083
0.462924,0.125885,0.408455,0.005239,0.054132,-0.139389,0.420897,0.225602,0.008185,0.142128,0.034722,0.266718
0.696030,-0.390548,0.460275,0.701316,-0.336728,0.014697,0.825513,0.945979,0.380398,-0.277523,-0.611063,0.002397
0.560436,-0.342555,0.141803,0.489751,-0.207696,-0.389894,0.518112,0.342110,0.018055,-0.061009,-0.250612,-0.172020
0.041600,0.356218,0.186978,0.326335,-0.425427,-0.357503,0.279907,-0.413734,-0.251952,-0.246805,-0.081102,0.171745
0.396043,0.278622,-0.187617,-0.105671,-0.402190,-0.099369,0.132591,-0.128967,0.414995,-0.203563,0.413394,0.358630
-0.322175,-0.395850,0.121020,0.298189,-0.310718,0.020959,-0.201162,0.033514,0.267863,-0.422301,0.450388,0.210785
0.471437,0.163565,0.258965,-0.140089,-0.112622,-0.313125,-0.314572,0.206774,-0.496981,0.315763,0.155578,-0.202392
-0.205125,0.163119,-0.345577,0.382214,-0.265641,-0.269767,-0.069744,0.349052,0.344171,0.289136,-0.347979,0.269486
-0.238605,-0.393166,0.345704,-0.328603,-0.186170,0.233678,0.339448,0.092031,-0.251267,0.433109,0.279056,-0.139352
-0.476700,0.145002,-0.337153,-0.427563,-0.231073,-0.174558,0.249451,-0.337192,0.093595,0.312825,0.292912,-0.053189
0.419725,-0.342542,0.090655,0.283200,0.336666,0.173784,-0.232332,-0.023826,-0.349535,0.354626,-0.090092,-0.403758
0.232191,-0.256535,0.365683,0.230260,0.410935,-0.289503,-0.288397,0.056267,0.278197,-0.332879,-0.368038,-0.175387
-0.252842,0.282961,-0.175373,0.076963,0.014201,0.306301,-0.318596,0.492610,-0.491292,-0.327129,0.149818,-0.101499
0.148713,0.030545,-0.439966,-0.160957,0.427264,0.381066,-0.349293,-0.217422,-0.274050,-0.097125,-0.056939,-0.415514
0.329888,-0.607077,0.147531,0.108310,0.193885,-0.398898,-0.051836,-0.084860,-0.094986,0.383497,-0.023812,0.354791
-0.037605,-0.241729,-0.359762,0.038278,-0.230622,-0.005053,0.025107,0.398518,-0.471987,-0.354127,0.272435,-0.417375
-0.090251,-0.410776,0.302757,-0.008400,0.077752,-0.224100,-0.400467,-0.416088,0.046581,0.415669,-0.407992,-0.014423
0.020458,-0.250533,0.374365,-0.490638,-0.024103,-0.152137,-0.095363,0.572525,0.204586,0.353222,-0.080496,-0.149110
0.418004,0.139752,0.047515,0.480743,-0.271456,0.227960,-0.122013,-0.216032,0.379496,0.069761,0.090947,-0.476308
-0.222991,-0.184768,-0.093915,-0.405756,-0.264032,0.079667,0.330974,0.331741,-0.252429,0.384136,-0.468829,-0.035981
0.022685,-0.084516,-0.495697,-0.280426,0.128532,-0.364637,-0.264236,0.295529,0.474760,0.189737,-0.210591,-0.233906
0.035189,-0.248511,-0.079178,-0.341093,0.180045,0.255183,0.286876,-0.400445,0.119007,0.364792,-0.226626,0.524983
-0.197654,0.494560,0.256586,-0.066792,0.146311,0.179384,0.069361,-0.528085,0.250275,-0.479744,-0.048101,0.116920
-0.102125,-0.038045,0.347430,0.325899,0.198054,0.098787,0.381171,0.308792,0.465619,0.381675,0.314078,0.102253
0.314899,-0.456197,-0.287491,-0.240867,0.458008,0.296992,0.194806,-0.265275,0.184575,0.268822,0.046101,-0.193133
0.396119,0.483308,-0.079481,0.244036,0.076186,-0.247842,0.129357,-0.487517,0.253331,0.119382,0.185519,-0.330378
0.139844,-0.325992,0.023600,-0.426398,-0.266191,-0.091270,0.448285,0.187503,0.282453,-0.321287,0.067523,-0.434663
0.393552,-0.241279,-0.409658,0.416180,0.335375,0.425080,-0.243598,-0.280935,0.047869,-0.000528,0.027408,-0.106765
-0.365457,0.171074,0.090491,-0.288597,0.409333,0.132222,0.105981,0.335261,0.442353,0.167491,0.370654,0.275529
0.283834,0.230220,-0.231316,-0.170089,-0.342247,-0.067026,-0.329814,-0.356899,-0.362639,-0.054167,0.361915,0.400995
0.391354,0.299088,-0.272351,-0.354409,0.378996,0.087054,-0.204845,-0.224078,-0.306205,0.447026,0.142547,-0.017474
0.244234,-0.384712,0.288488,-0.230412,-0.274915,0.104571,-0.281458,-0.311644,0.256299,-0.385709,-0.201644,-0.371558
0.355646,-0.338812,-0.326318,0.048858,-0.291534,0.316454,0.224090,0.341069,-0.311592,0.344033,0.250928,0.138771
0.317868,0.236535,0.128795,0.412686,-0.261924,0.179215,-0.068495,0.417119,-0.402449,0.296679,-0.190722,0.250008
0.023160,0.038206,0.403060,-0.024224,0.401534,-0.332028,-0.212176,0.318077,0.134698,-0.382190,-0.260360,-0.376501
-0.175697,-0.166839,-0.373036,0.208587,-0.253666,0.215409,0.167070,0.119047,-0.492661,-0.129741,0.359822,0.423338
-0.075834,-0.048805,0.198045,-0.352369,-0.302657,0.528103,0.033690,0.423403,-0.342186,0.298657,0.087665,0.251156
-0.060521,0.271832,0.082934,-0.370145,-0.353473,0.467286,0.124787,0.500035,-0.201823,0.238429,0.006699,-0.268378
-0.306464,-0.378584,-0.125655,-0.139325,-0.446545,0.035827,0.019270,0.405912,-0.343262,0.142831,0.108755,0.460081
-0.080570,0.334856,0.187621,-0.272515,-0.275232,-0.393116,-0.260437,-0.369489,0.256140,0.376620,0.058073,-0.355596
-0.080428,0.228797,0.073298,0.335322,-0.384773,-0.442519,-0.214215,0.054541,0.436690,-0.153986,-0.163499,-0.435306
0.010313,0.451373,0.216429,0.288177,-0.318807,-0.109549,-0.052237,0.448231,-0.379778,-0.391975,0.204644,0.096103
-0.285633,-0.282723,0.084679,-0.312932,-0.147337,-0.496027,-0.177749,0.008514,0.113129,-0.343715,-0.409113,0.368312
0.169422,-0.251274,0.379809,0.217063,0.230298,0.574227,-0.128729,-0.023873,0.091353,0.349049,0.095098,-0.421482
-0.049196,-0.191729,-0.130069,0.308362,0.073695,0.043434,-0.036947,-0.467704,0.529551,-0.015993,-0.422557,-0.402680
0.340336,-0.437413,-0.267323,-0.024064,0.064625,-0.554529,-0.105154,-0.383421,-0.150073,-0.012885,-0.257346,-0.249275
0.100049,-0.198382,-0.066509,-0.251559,0.201408,0.250451,-0.186927,0.251116,-0.385295,0.427654,0.458478,-0.374292
0.453590,-0.338392,0.085044,-0.019700,0.434138,-0.070093,-0.169400,-0.245316,0.453756,-0.164260,-0.241603,0.314026
0.290905,-0.392831,0.238185,0.371664,0.250640,-0.342144,-0.096781,-0.004170,0.342003,-0.399789,-0.131907,0.287625
0.037549,0.205790,0.024743,-0.394017,-0.431269,-0.238116,-0.107521,-0.192003,0.362919,-0.420294,0.325081,-0.308588
-0.371064,0.118816,0.324691,-0.417339,-0.334420,-0.313140,-0.203918,-0.023508,0.354010,0.034673,-0.387676,-0.199380
0.105301,-0.132882,0.304140,0.258917,-0.398080,-0.494283,-0.071587,0.108610,-0.277205,-0.155475,-0.020875,-0.539036
-0.114937,0.011520,-0.345977,0.424410,-0.477854,0.208119,-0.102943,0.326468,0.266294,-0.057291,-0.471036,-0.043889
-0.108512,-0.445866,0.336303,-0.452838,0.204150,-0.065084,-0.222811,0.168432,-0.088860,-0.361560,0.456470,-0.018773
-0.140731,-0.119852,0.009145,-0.121216,-0.111931,0.021416,0.413168,-0.471059,0.473289,0.138172,0.269756,0.479165
-0.333261,-0.108307,-0.404527,-0.343805,0.242047,-0.081745,-0.114472,-0.405061,-0.250411,-0.049511,-0.335086,0.418898
-0.184048,-0.357890,-0.374936,-0.280656,-0.258618,-0.038893,0.301529,-0.006644,-0.172352,-0.280264,-0.335536,0.488364
-0.438324,-0.110443,-0.109944,0.272437,0.377680,0.220370,-0.281407,0.467145,-0.197103,-0.006335,0.403778,0.137178
-0.383416,-0.401937,0.162271,-0.389797,0.273961,-0.000906,-0.111219,0.374264,0.104964,-0.128438,0.372647,0.345381
-0.486539,-0.092621,-0.034075,-0.060818,0.248293,-0.185917,0.095892,-0.120119,0.340023,-0.257731,-0.522489,0.418291
0.280556,0.083106,0.461359,-0.064392,0.043605,0.386308,-0.422509,-0.072976,0.146485,-0.083498,-0.481286,0.319911
0.366973,-0.068154,0.267814,0.079240,-0.507724,0.000524,-0.349189,-0.075369,0.195293,-0.309441,-0.494476,0.137425
0.316045,0.099070,-0.071070,0.049143,-0.480460,-0.332299,-0.215036,-0.024619,-0.059186,0.041575,-0.348264,-0.606799
-0.406143,-0.048218,-0.047127,0.035122,-0.078638,-0.521030,0.087160,0.308463,-0.377858,-0.163171,-0.165200,0.502168
0.027365,-0.098805,0.147587,-0.262399,0.072721,-0.607045,-0.578356,-0.250060,-0.159285,0.012337,-0.230295,0.222432
-0.279692,0.299532,0.437091,-0.156394,0.346829,0.366666,-0.152059,0.180322,-0.082462,0.328327,-0.353889,-0.257561
-0.324311,-0.394940,0.034714,0.121764,-0.047208,0.184673,0.302495,0.074495,-0.403492,-0.102001,0.517620,-0.385082
0.008032,0.183820,-0.391661,0.462646,-0.325574,-0.050424,-0.030967,0.286128,0.153735,0.325621,0.489665,-0.194683
-0.328361,0.246047,0.325183,0.496064,0.158512,-0.120648,0.396773,0.125246,0.254436,-0.293698,0.240026,-0.241682
0.351445,0.354735,0.392802,0.331013,0.271862,0.278735,0.183414,-0.214027,-0.001140,-0.180958,-0.315928,0.350967
-0.374840,0.344682,0.235868,0.294608,0.294474,0.289989,-0.250805,-0.234004,0.252260,0.113870,-0.346908,-0.335926
-0.415838,-0.229849,-0.278713,-0.365473,0.328317,0.022051,0.286711,0.226605,-0.403693,0.380292,-0.036592,0.110619
0.300207,-0.040563,-0.201148,0.324324,-0.447351,-0.155107,-0.434744,0.102064,-0.458890,-0.127815,0.163371,-0.292193
-0.327279,-0.186880,0.360339,-0.214282,-0.263414,0.375280,0.038401,-0.304205,0.260302,0.084637,0.391767,0.386735
0.121213,0.287037,0.409661,0.269558,-0.224953,0.189633,0.186293,0.352998,0.227226,0.046937,-0.473087,0.372707
0.189312,-0.390314,0.223625,0.224677,-0.407986,-0.362988,0.186606,-0.327736,0.182541,0.097984,-0.368395,0.303718
-0.435468,-0.034772,0.230845,-0.375441,-0.330056,0.035215,0.233527,0.260814,-0.207288,-0.367680,-0.174890,-0.416454
-0.056473,-0.049106,0.164334,0.362022,0.124491,-0.057979,-0.488715,-0.475079,-0.097981,0.361316,0.264770,-0.377729
-0.143812,-0.285680,-0.527572,-0.197180,-0.285268,0.266893,0.240094,-0.336300,-0.385599,0.179507,-0.050590,-0.271425
-0.306949,-0.403728,0.423843,-0.012272,-0.365279,0.211614,-0.174885,0.374979,0.111389,-0.130523,-0.267001,0.335941
-0.352377,0.283494,0.299930,-0.189946,0.266001,0.283697,-0.444358,-0.178893,-0.130940,-0.457721,-0.247815,0.025709
-0.373975,0.327855,-0.463443,0.308045,0.202110,0.373120,0.177202,0.180865,0.388433,-0.180513,-0.012186,0.123247
0.391599,0.366244,-0.023722,-0.073395,-0.170729,0.448246,0.177794,-0.458621,0.042854,0.138283,-0.300884,0.350797
0.063421,0.454800,0.435342,0.230096,0.190468,-0.369008,0.188851,0.253957,0.343639,0.026912,0.002677,-0.394011
0.024165,-0.515430,-0.341478,-0.440886,0.031017,-0.263528,0.383996,0.030729,-0.344303,0.004973,-0.187875,0.223804
-0.109881,0.254512,0.090112,0.279474,-0.038744,-0.228757,-0.474048,0.452463,-0.065604,-0.499241,0.301723,0.095217
0.419012,0.391477,-0.197807,-0.111584,0.442779,0.250313,-0.094481,0.327450,-0.347757,-0.167069,-0.054225,0.304874
-0.467688,0.384100,0.369423,0.149628,0.071274,-0.146352,0.284943,-0.346660,-0.038107,0.417926,-0.079108,0.254238
0.016812,-0.149252,-0.229612,0.349422,-0.111403,0.306511,-0.101191,-0.253441,0.280729,0.563228,0.473784,-0.035872
0.293060,0.132082,0.295955,-0.417995,-0.306161,-0.318443,-0.342506,0.033682,-0.300222,0.331018,-0.046555,0.344822
-0.275727,0.436892,0.409102,-0.067038,0.034820,-0.285748,-0.281883,-0.073216,-0.406740,-0.227140,-0.200660,-0.369140
0.069287,0.292847,-0.151636,-0.411080,0.138755,0.001927,-0.423157,0.277862,0.211628,-0.467679,0.317182,-0.278904
0.306262,0.284268,0.228899,0.295258,-0.071138,0.290825,0.329646,0.232441,0.294835,-0.268706,-0.309987,-0.413318
0.214988,0.192606,-0.405845,0.269244,-0.145731,-0.320871,-0.379181,0.275846,0.357279,0.283172,-0.112876,-0.005777
-0.005325,0.147655,-0.314884,-0.220804,-0.273683,-0.537069,-0.319034,0.183359,0.134055,-0.426659,-0.409684,0.040519
0.140091,0.013784,0.182675,0.263099,0.042010,-0.248943,0.371092,0.281701,-0.283433,0.279442,0.337132,-0.325172
0.280919,0.007246,-0.087172,-0.099720,0.026097,-0.408024,0.514327,0.280008,-0.321007,-0.493333,0.187107,-0.092375
0.335593,-0.455533,0.432096,0.343453,0.424896,0.203244,-0.026232,-0.164162,0.109791,0.017206,-0.201877,0.269316
-0.163226,-0.018495,-0.216491,0.211755,0.214620,0.430480,-0.410633,-0.386771,0.446271,0.205429,0.022458,-0.299762
0.014986,0.470092,0.326385,0.319072,-0.469249,0.245646,0.224846,-0.004621,-0.204535,0.412558,-0.137100,0.092224
0.272411,-0.383431,0.227596,0.232743,0.282674,0.101429,-0.406628,0.043591,-0.306236,0.369235,0.390024,0.182022
0.296918,-0.239828,-0.075596,0.200200,0.304870,0.080099,0.054872,0.029751,0.357510,0.494279,-0.484919,-0.313048
0.031822,0.016301,0.508116,-0.357202,0.065161,-0.206853,0.377297,0.203990,-0.521804,-0.289335,0.142835,0.074510
-0.346033,0.252503,0.281356,-0.395328,-0.307189,-0.132161,0.003934,-0.329425,0.260334,0.171756,0.299119,-0.417066
-0.399515,0.341818,-0.291055,0.283374,-0.128786,0.221286,-0.315058,0.091250,0.207356,-0.381329,0.417180,-0.151476
0.034321,-0.111839,-0.307690,-0.252284,0.433226,-0.317820,0.439638,-0.204790,0.238895,-0.429355,-0.005964,-0.250253
0.072596,-0.340965,0.410003,-0.471699,-0.253952,0.085088,0.095709,-0.143855,-0.300869,0.239785,0.461970,-0.157636
0.028143,0.247857,-0.317895,-0.275305,-0.306377,-0.216194,0.359728,-0.172280,0.476213,-0.450779,-0.041595,-0.171824
0.197956,0.475853,0.141560,-0.454936,0.017781,-0.301764,-0.429390,-0.147929,-0.243753,0.023039,-0.276959,0.270337
-0.230855,-0.004426,-0.474465,0.083260,0.215262,-0.086377,0.235465,0.299588,0.333156,0.451940,0.373278,-0.247111
-0.010548,0.184145,0.232214,-0.262436,0.181951,0.289397,0.456422,0.434401,-0.288042,0.422417,0.259116,0.027492
0.125611,0.206206,0.336403,0.133648,0.381163,-0.399481,0.373268,0.130782,0.429134,-0.249798,-0.237265,0.215681
0.197659,0.239227,-0.388671,-0.374185,-0.334733,-0.178809,0.351175,0.309152,-0.194061,-0.317163,0.089258,0.321691
0.173161,0.382338,0.295361,-0.150620,-0.057949,-0.312979,0.420583,0.355256,-0.447176,-0.119466,-0.176008,0.253534
0.444388,0.030248,0.102640,-0.086989,-0.480161,0.023529,0.345996,0.452163,-0.269216,-0.254059,0.011667,-0.301779
-0.287277,-0.169647,0.396003,0.315172,-0.192539,0.289566,-0.118819,0.252841,-0.304809,0.242646,-0.494698,-0.192516
0.240825,-0.131419,0.315169,0.260995,0.441129,-0.357273,0.099334,0.200115,0.354069,-0.332877,0.063853,0.380633
0.295186,-0.310862,0.051573,0.354593,0.320759,0.375191,0.314048,0.232873,-0.198733,0.091872,0.318720,-0.376570
0.291257,-0.155725,-0.160864,0.101488,0.321468,-0.053886,-0.236234,0.241211,-0.085936,-0.425382,0.401705,0.533672
-0.037083,-0.226843,-0.058813,0.241548,0.407827,-0.287814,0.175891,-0.271863,-0.447902,-0.164183,-0.301637,-0.461302
0.140967,-0.330271,0.471649,0.237502,0.072498,0.455814,0.009849,0.333837,0.127982,0.199529,-0.459814,-0.001597
-0.340020,-0.350969,0.102866,-0.199800,-0.163583,-0.404370,-0.149436,-0.329953,0.415077,-0.069036,0.235172,0.396068
-0.192832,-0.325656,0.082982,0.227849,0.506358,-0.435227,-0.104702,-0.177040,-0.128262,-0.215002,-0.099232,0.487148
0.499485,0.250420,0.071666,-0.100626,0.407520,-0.179763,-0.423984,0.362562,0.246523,-0.156266,-0.236228,0.148144
0.218828,-0.341259,-0.316422,0.093948,-0.184846,0.417067,-0.291239,-0.382598,0.333237,0.206614,-0.234680,-0.280325
-0.419548,-0.469272,-0.124808,0.028353,0.248574,0.187596,0.421658,0.338965,0.324421,0.236918,0.101649,0.161234
-0.385574,0.204112,0.150381,-0.109149,0.234838,-0.259596,-0.358008,0.122641,-0.329457,-0.505391,-0.328726,-0.193314
0.221710,0.316913,-0.291681,0.353160,-0.297152,-0.186304,0.033139,0.429172,0.179363,-0.285008,-0.234132,0.405089
-0.133221,0.282902,-0.177874,0.287805,-0.259364,0.374194,0.397849,0.095881,0.019842,0.410181,-0.391787,-0.301397
-0.082562,0.222622,-0.439493,-0.301026,0.043977,-0.137846,0.309732,0.201283,-0.469150,0.434295,0.179048,0.248388
-0.055395,-0.340566,-0.409153,0.149260,-0.131641,-0.158807,-0.371455,-0.329071,0.087938,-0.451891,0.366115,-0.237628
-0.206009,0.061259,-0.474190,-0.026323,-0.429519,0.282173,-0.172276,0.140266,-0.037280,0.395403,-0.464280,0.203733
0.035913,0.188550,0.392534,-0.351146,0.342710,0.406270,-0.244069,0.391205,0.026675,0.257591,0.335169,0.106083
0.246113,0.511711,-0.043475,-0.137085,0.085961,-0.026348,-0.204241,0.441737,-0.342712,-0.244998,-0.045667,0.482086
0.161258,-0.152420,0.130940,0.512876,-0.197247,-0.187080,-0.479172,-0.355131,-0.186787,0.144785,0.413964,0.117170
-0.311244,0.388559,-0.507389,-0.023943,0.124368,-0.425402,0.242845,-0.248979,-0.182817,0.316366,0.064303,0.197713
0.209740,-0.302037,0.376182,-0.068106,-0.159927,0.367490,-0.444735,-0.230702,-0.462299,-0.096528,0.120987,-0.263283
0.010117,0.271818,-0.230464,-0.204182,0.160872,0.432996,-0.411575,-0.124245,-0.123542,-0.297781,-0.394041,-0.416904
0.378088,-0.030838,-0.408935,0.012807,-0.354331,-0.150106,0.032392,0.274582,0.256616,0.242910,-0.382808,-0.439068
-0.385898,0.120474,-0.356384,-0.157651,-0.298212,-0.433845,-0.402859,-0.031907,0.263101,0.106026,0.317332,0.251149
0.325206,-0.363117,-0.266773,0.084082,-0.416088,0.408257,0.274828,0.027493,0.204394,0.254406,-0.272158,-0.295788
-0.370743,-0.123375,0.279210,-0.228298,-0.401261,-0.035218,-0.264348,0.124428,0.408245,-0.135068,0.370440,0.384063
-0.369936,-0.091706,0.413271,0.359673,-0.293289,0.401928,-0.301669,-0.295041,0.247650,0.258524,-0.013268,-0.024908
-0.183262,-0.248024,0.455981,0.542990,0.416992,-0.429807,-0.007448,0.068457,0.007348,-0.013010,0.020346,-0.195310
-0.448114,0.335578,-0.273475,-0.139928,-0.016056,-0.454908,-0.139740,-0.258779,0.384551,0.221981,0.220377,0.229781
0.191337,0.212351,-0.404009,-0.189142,0.196636,0.102453,0.218765,0.317761,0.107954,0.214974,0.341854,0.588706
-0.257641,0.072189,0.105916,-0.135071,0.369168,0.419477,-0.132448,-0.123576,-0.397271,0.520158,-0.341732,-0.093378
-0.001548,0.307497,-0.412191,-0.131288,-0.164306,0.265465,-0.010722,0.438348,0.382852,-0.169432,0.393251,0.314077
-0.340566,-0.219248,-0.448074,0.179544,-0.124053,0.267264,0.098810,0.180025,0.153971,0.408678,0.485432,-0.218092
0.079794,-0.053346,-0.414884,0.316448,-0.370019,0.120995,0.023274,-0.487038,-0.317640,-0.388768,0.187905,-0.201608
0.425357,-0.303173,0.327144,0.401034,0.139368,-0.149210,-0.231139,-0.074063,0.169164,-0.119542,0.398067,-0.391943
0.445010,-0.048584,0.167456,-0.172535,0.400662,0.114036,0.146958,0.016758,0.176871,0.260931,0.566819,-0.200187
-0.250381,0.519911,-0.263418,-0.125824,0.439032,-0.145680,0.038049,-0.075716,0.294606,-0.317934,0.322533,-0.179930
0.277372,-0.032400,-0.400080,-0.016286,0.026736,-0.025479,-0.168765,-0.032416,-0.024160,0.478435,-0.389701,-0.590413
-0.351024,-0.108748,0.164242,-0.284907,0.341492,-0.355341,0.219185,0.341099,-0.365672,-0.220619,-0.380110,0.150425
-0.258506,-0.299699,-0.037959,0.469180,0.279508,0.143755,-0.328520,-0.280294,-0.173217,0.427639,0.349815,0.034579
0.240701,0.025612,0.354878,-0.091094,0.195040,0.053244,0.120845,0.278828,-0.456491,0.457039,0.299539,-0.408573
0.335005,-0.197773,-0.138825,0.353511,-0.128995,0.175558,-0.400001,-0.296245,0.350514,-0.214876,0.453153,-0.186531
-0.279815,0.246829,0.365296,-0.047611,-0.142693,-0.233677,0.291162,-0.128322,-0.337686,-0.499368,0.145088,-0.405004
0.444555,-0.098573,0.389632,-0.284345,-0.490766,-0.148987,0.092346,-0.148959,-0.092367,0.099733,0.330701,0.317970
-0.215645,-0.390882,-0.075851,-0.350502,0.228529,0.110592,0.368877,-0.399934,0.265805,-0.278607,0.206378,0.237464
0.440228,-0.379984,0.081551,0.049155,0.339208,0.350408,0.163525,0.175355,0.187193,-0.362818,0.273238,0.290450
0.177952,0.013969,-0.269723,0.026240,0.141286,0.301401,0.526682,0.026886,0.100403,-0.144675,-0.538636,-0.429452
-0.402747,-0.245935,0.391813,-0.257885,-0.403254,0.084675,-0.356732,0.021915,0.148416,-0.392759,-0.162925,0.238593
-0.148969,0.294660,-0.236950,0.373960,-0.225746,-0.400841,-0.203689,-0.404210,0.156021,0.353044,-0.350432,0.081809
0.040370,-0.081820,0.026920,0.426356,-0.051314,0.283841,0.429621,0.399489,-0.007684,-0.380473,0.376928,0.308066
-0.263004,-0.397062,0.035613,-0.017774,-0.268652,0.086791,-0.282734,0.268932,-0.415704,0.459763,0.384839,-0.085568
0.228142,-0.331324,-0.197855,-0.358621,-0.339349,-0.425039,0.301159,-0.253164,0.259794,-0.055569,0.114213,-0.369037
0.283162,-0.187850,-0.208069,-0.419260,-0.178827,0.123466,0.218625,0.187578,-0.381893,0.368190,-0.407571,-0.266049
-0.087624,-0.114770,-0.222159,0.435799,0.422091,-0.012398,0.527604,0.291163,-0.425621,-0.333392,-0.422295,-0.007347
-0.364019,-0.428429,-0.404779,-0.096150,-0.061960,-0.365338,0.279682,-0.222760,0.038524,-0.399975,0.255083,-0.080727
0.313110,0.106339,0.071460,-0.249350,-0.387957,0.441098,-0.237440,0.390764,0.220176,-0.376557,-0.058196,0.274882
-0.069596,0.113092,-0.192162,0.418283,0.050082,-0.206105,-0.340298,0.410005,-0.165209,-0.407205,0.405445,0.289982
-0.009008,0.330049,0.240412,-0.467054,-0.202658,-0.193720,-0.235808,-0.092575,0.161249,-0.286365,0.473293,-0.374517
0.478022,0.316819,-0.396392,-0.218739,0.409724,0.229075,-0.132639,0.054593,-0.271228,-0.318023,-0.070883,-0.213300
0.424021,0.414624,-0.205941,0.278846,0.302716,0.042805,0.344318,-0.133489,0.262428,0.038591,0.211991,-0.427768
-0.181260,-0.138690,0.422972,0.361716,-0.418774,0.137662,0.347958,0.142618,-0.231178,0.197131,-0.212248,0.406197
-0.024647,-0.342759,0.040402,-0.417285,0.177898,0.070428,0.311878,0.050092,0.388324,-0.173473,0.435826,0.445248
-0.387271,-0.096484,0.359054,0.043430,0.085923,-0.132741,-0.029776,-0.453617,-0.342108,0.158276,0.479591,-0.325803
0.285562,0.409879,-0.268030,-0.161748,0.341497,-0.330191,-0.113945,-0.440899,-0.291591,0.141733,0.238316,-0.239835
-0.370031,-0.179255,-0.387516,-0.470169,0.303924,-0.156918,0.272248,0.369611,-0.325368,0.025116,0.068250,-0.144356
0.293109,0.384979,0.174010,-0.426078,0.109387,-0.485521,-0.122504,-0.472534,-0.142598,0.175011,-0.069928,-0.110509
0.247418,0.229086,-0.138563,0.139481,-0.121961,0.432887,0.297812,0.094488,0.343802,-0.367689,0.384858,-0.382428
-0.037121,-0.411396,0.025206,-0.136279,-0.401878,0.329210,0.108438,0.309390,-0.379115,-0.453107,-0.246966,0.149748
-0.177604,-0.244920,0.340023,0.002257,-0.163489,-0.233487,-0.070984,0.428985,-0.334903,0.452693,0.144315,0.427513
0.205138,-0.421421,0.362441,-0.254849,-0.187516,-0.293683,0.168912,0.434566,-0.265586,-0.075861,-0.379046,-0.158028
-0.296858,-0.441635,0.054591,0.484119,-0.128116,0.256475,-0.191460,-0.504407,0.170714,0.064528,0.064891,0.261653
-0.380417,0.399539,-0.268437,-0.039809,-0.020088,0.304434,-0.322732,-0.280288,-0.321115,-0.092086,0.408711,-0.257348
-0.114997,0.085923,0.034338,0.207604,-0.100071,0.459249,0.269162,0.459020,0.484493,-0.274461,-0.117312,-0.327110
0.220566,0.454387,-0.025460,0.213694,0.421695,-0.045587,0.162261,0.180621,-0.226502,-0.433592,0.059838,-0.465646
0.052469,0.355931,0.505406,0.040014,0.210030,0.102499,-0.160020,-0.497936,0.005513,0.478946,-0.128036,0.198860
-0.342342,0.116050,0.078499,0.070713,0.365675,-0.365894,-0.410771,0.205916,-0.375289,-0.256473,0.346486,0.229712
0.105805,-0.202353,-0.409089,0.387394,0.013679,-0.000207,-0.365998,-0.265092,-0.289713,-0.300374,-0.355442,-0.354286
0.249378,-0.202199,0.480072,-0.159739,0.309928,0.302879,-0.072835,-0.392486,-0.203133,-0.245673,-0.136641,-0.416546
0.030549,0.331304,-0.118869,0.349064,-0.384213,-0.272574,-0.084789,-0.331888,-0.413092,-0.402729,0.212457,0.190000
0.084697,0.345177,0.388327,0.280303,0.193042,0.307898,0.401603,-0.255352,-0.100224,-0.341327,-0.337495,0.212845
-0.299648,-0.283364,0.396445,-0.236615,-0.395621,0.113439,0.122768,-0.348709,0.362920,0.342882,-0.162491,-0.187149
-0.352009,0.388919,0.344317,-0.228791,-0.020304,0.107297,0.405877,-0.029714,-0.012637,-0.156643,0.410193,0.428291
0.084801,0.342667,-0.079900,0.359734,0.149741,-0.068082,-0.464828,-0.306248,0.395304,-0.169386,-0.446362,0.135972
0.141584,0.060426,0.501907,-0.232051,0.430234,-0.009709,-0.055375,-0.385946,-0.378210,-0.408425,-0.044030,-0.146752
-0.252193,0.368403,-0.362137,-0.419662,0.089790,-0.076222,-0.303076,0.331627,-0.362088,-0.377954,0.051002,0.034021
-0.295257,0.174996,0.279925,0.344912,-0.292942,0.443089,-0.257443,0.004929,-0.096853,0.339238,0.005221,0.460373
-0.062214,-0.391783,-0.042050,-0.238611,0.393088,-0.385276,-0.281455,0.381755,-0.196125,-0.191329,-0.272210,-0.326884
0.095277,-0.136809,0.273476,-0.085611,-0.103174,0.168725,-0.210192,-0.384142,0.292550,-0.494861,0.173710,0.546425
-0.539256,0.377503,0.238237,-0.161307,-0.161171,-0.297191,-0.062601,0.377100,0.267303,-0.239119,-0.284357,-0.118356
0.323645,0.279497,-0.075813,-0.070404,-0.105871,0.446344,0.131866,-0.154277,-0.477652,-0.024114,-0.364365,0.439675
-0.329201,0.396710,-0.337596,0.331471,0.086826,0.033142,0.320596,0.383662,-0.228012,0.150689,-0.335840,-0.253579
0.113327,-0.126355,-0.138503,0.393172,-0.399707,-0.337543,-0.275792,0.384096,-0.297262,-0.303315,0.064665,0.339979
-0.371180,0.255157,0.101922,0.028892,-0.072323,0.138374,-0.363447,-0.248267,-0.534932,0.120262,0.122305,0.502211
-0.089962,0.120786,-0.275280,0.142374,0.025993,0.455416,-0.097397,0.112071,0.421472,-0.322971,-0.455032,-0.402665
-0.327409,0.293631,-0.253654,0.342331,-0.401160,0.368459,0.031276,-0.173906,0.203801,0.038361,0.400111,0.306669
0.234796,0.098964,-0.097713,-0.315842,0.542834,0.498901,-0.198472,-0.269177,-0.137390,-0.001082,0.388832,0.016956
0.080482,0.032258,0.460229,-0.424675,-0.102470,0.446357,0.030015,0.490343,-0.345330,0.124083,-0.096274,0.073025
-0.564365,-0.095834,0.201174,0.058447,0.302635,0.066232,-0.193222,0.359930,0.525588,-0.067969,-0.216344,-0.194665
0.356570,-0.023121,0.051919,-0.490723,0.230398,0.465266,-0.331926,-0.283252,0.103906,-0.172197,0.123641,0.336335
-0.014323,0.356827,0.497865,-0.385876,-0.112091,0.223185,0.177133,0.013273,0.230372,-0.496515,0.137319,-0.251627
0.433779,0.072206,-0.110751,0.165637,0.434725,-0.099593,-0.352189,-0.347784,-0.144190,-0.315797,-0.129816,0.430876
0.132052,0.239198,-0.378061,-0.274988,0.474967,0.187174,0.211323,-0.120980,-0.104683,0.441623,0.233556,-0.355442
-0.187820,0.260976,0.359147,0.155748,0.093631,-0.179501,-0.265330,-0.395120,0.421258,0.221153,0.414847,-0.278207
-0.164104,0.085099,-0.098970,-0.483440,-0.225349,-0.169204,-0.039960,-0.232004,-0.284021,0.503568,-0.430142,-0.261178
0.299107,0.042477,-0.123129,-0.517077,-0.082047,-0.115711,-0.221007,0.476916,-0.386378,0.370310,-0.023373,0.206939
0.435273,-0.488629,0.063643,0.495392,-0.108678,-0.140069,-0.015803,-0.307609,-0.014006,-0.401500,-0.002035,-0.186035
0.098075,-0.018699,0.548054,-0.143947,-0.392538,-0.049581,-0.273745,-0.359929,-0.154079,-0.340739,0.232818,0.337449
0.136993,-0.266580,-0.006955,-0.304275,0.018131,0.268135,-0.475363,0.235355,-0.268363,-0.323582,-0.302499,0.442402
0.319740,0.463385,-0.161055,-0.407035,0.368418,0.086737,-0.206640,-0.042789,-0.238382,0.492096,0.065417,-0.019365
0.451892,-0.121785,0.187145,0.218432,-0.059365,0.290631,-0.482589,-0.539500,-0.150171,-0.188052,-0.153153,0.070097
0.045827,-0.036872,0.288531,0.289941,0.356199,0.333477,0.278659,-0.007037,-0.395979,-0.547933,0.035573,0.234826
-0.102648,-0.447409,-0.148164,-0.113102,0.422285,-0.362915,-0.423692,0.219315,-0.190741,-0.394938,0.120317,-0.100320
-0.319251,0.057198,0.379626,0.189588,-0.453568,0.265653,0.204773,0.462696,-0.371075,-0.168305,0.126003,0.023090
0.242731,-0.117973,0.093152,-0.185450,0.492566,-0.080605,0.341784,0.089942,0.393890,0.393541,-0.429117,0.126119
0.155098,0.286206,0.013058,0.280618,-0.517190,-0.269838,-0.259328,-0.294901,0.230884,-0.089421,0.447405,0.243153
0.099829,0.541299,0.008588,0.268191,-0.177941,0.312593,-0.488999,-0.072009,0.426811,0.182737,-0.096742,-0.162564
0.270209,-0.488659,0.093161,-0.300879,0.097861,-0.468341,-0.349386,0.007228,0.360711,-0.042990,-0.009825,0.325412
0.114676,-0.122634,0.308581,0.443500,-0.307301,-0.477594,-0.116195,-0.439226,0.200011,0.144624,-0.032880,0.298235
-0.126719,-0.465672,0.314996,0.357422,0.015901,0.312366,-0.385109,0.128202,0.057236,0.288934,0.249663,0.358411
-0.320612,-0.018955,-0.341506,0.431764,0.362269,-0.248276,-0.148043,0.154351,-0.396172,0.132360,0.230216,0.357366
0.346678,0.277040,0.385793,-0.369355,-0.072752,-0.224039,-0.000178,0.314835,0.187180,0.191432,0.523260,0.133089
-0.055439,0.128616,-0.149710,0.375837,0.314457,0.420187,-0.172280,0.122794,-0.398357,-0.332900,-0.307744,-0.363732
-0.131169,-0.373598,-0.022146,-0.100942,-0.388448,-0.148039,0.233354,-0.317255,-0.416861,0.378441,0.310695,0.301835
-0.205614,-0.021250,-0.100934,0.086324,0.031617,0.504109,-0.074793,0.551277,0.525067,-0.071084,0.294731,0.085972
-0.207590,0.349479,-0.158863,0.558401,-0.164365,-0.398785,0.279698,-0.202022,0.368617,0.126300,-0.190190,-0.068044
0.130363,-0.183739,-0.087570,-0.421986,-0.046489,-0.431318,0.436783,-0.319581,-0.405116,-0.169963,-0.246422,0.169313
0.058382,0.445116,-0.296513,-0.096960,0.502532,0.195411,0.173008,0.331506,-0.364849,0.310813,-0.057992,0.193175
0.379054,-0.372764,-0.300966,0.163653,0.066769,-0.329124,0.337770,0.037840,-0.198124,0.359878,0.292315,0.331556
0.249611,0.399971,-0.358257,-0.077742,0.301853,-0.401330,0.035755,-0.084790,-0.102013,-0.327714,-0.377436,0.357699
-0.001957,0.285707,-0.129000,0.423799,0.300119,0.370838,0.261910,-0.123394,-0.417048,-0.381179,0.094749,0.273996
0.078902,0.248176,0.242822,-0.159575,0.384114,0.437340,0.112240,0.435736,-0.313915,0.178979,-0.413762,0.066436
0.578817,-0.108815,0.265515,0.025847,0.434909,-0.341163,-0.227308,-0.078601,0.211189,-0.219519,0.085568,0.344187
-0.491135,-0.215479,0.029775,0.214727,0.044591,0.218985,0.386849,0.449025,0.171979,0.444519,0.000364,0.192274
0.004951,-0.049088,0.027460,-0.208010,0.492586,0.409623,0.043266,0.393796,0.216706,0.094025,0.099961,0.566012
-0.438192,-0.185824,-0.375007,0.176221,-0.427570,0.190662,-0.317068,0.123446,0.227538,-0.360519,-0.200074,-0.212265
0.042107,-0.184942,0.303099,0.053851,0.469533,-0.116991,0.465988,-0.435574,0.443117,-0.004287,0.164762,0.068694
-0.395481,0.391768,0.073037,-0.366092,0.051912,0.387094,-0.398687,-0.291728,-0.267886,-0.253122,0.132230,-0.029065
0.322322,-0.061167,-0.086872,0.186115,0.451196,-0.508250,0.239818,0.210074,0.399691,-0.170531,-0.091329,0.299112
0.042460,-0.109094,0.151179,0.083110,0.274755,-0.361831,-0.066882,0.322040,-0.484080,0.480394,-0.154750,0.390997
0.436142,0.256466,-0.241013,-0.344979,-0.175516,-0.128614,-0.245021,-0.038230,0.324715,0.409731,0.250453,-0.349311
-0.249581,0.098145,-0.442655,-0.205787,0.239365,-0.014840,0.498607,0.141839,0.249198,-0.044539,-0.503448,-0.214476
0.346776,-0.240074,-0.161777,-0.242921,0.007212,-0.332610,-0.437599,-0.061071,0.541861,-0.173924,0.310424,0.103918
-0.259356,0.089795,-0.143284,-0.368781,-0.085779,0.398441,0.493695,-0.266741,-0.480917,0.161980,-0.169152,0.031818
-0.335015,-0.423621,0.236808,0.251127,0.060080,-0.262379,-0.267631,-0.342403,0.048641,0.264965,-0.418251,-0.283447
0.189779,0.142613,0.371074,-0.151410,-0.383587,-0.309941,-0.347233,0.084650,0.360869,-0.309171,0.191413,0.386824
-0.181656,-0.221051,-0.286331,0.324475,-0.268293,0.334953,0.395370,-0.436105,-0.034717,0.264134,-0.236390,0.270806
0.076421,0.396387,-0.223211,0.159017,-0.221849,0.283358,-0.268589,-0.026470,-0.007014,0.532418,-0.409499,0.329198
-0.427879,-0.491867,-0.179641,-0.358203,0.077053,-0.077897,0.051840,-0.460041,-0.096596,0.402939,-0.074481,-0.104108
-0.327202,0.228663,0.038430,0.147630,0.052481,-0.215886,0.365525,0.413856,0.529784,-0.303810,-0.155841,0.256664
0.500962,-0.133932,-0.092245,0.211549,-0.168907,0.476501,-0.124810,-0.104246,0.243993,0.345221,0.238754,0.400120
0.215563,-0.175143,0.450852,-0.036776,-0.408107,-0.096591,-0.257757,0.413997,-0.271326,-0.014792,-0.345931,0.333195
-0.494403,-0.024193,-0.232614,-0.084108,0.389608,0.387076,0.017084,-0.109204,0.177264,-0.358349,0.305777,0.355764
-0.253086,-0.018723,0.384651,-0.116581,0.131179,0.137779,0.162499,-0.294022,-0.395204,-0.436660,-0.460097,0.256678
0.214991,-0.185735,-0.389249,-0.208497,0.059432,0.262494,0.189861,0.351512,0.196948,-0.015637,0.495251,0.455798
0.057167,-0.140848,0.418675,-0.257617,-0.399098,0.196812,-0.196930,-0.291945,-0.222397,-0.517396,0.282388,0.127704
-0.460263,0.184092,-0.023943,0.478996,0.370928,0.194801,-0.409613,-0.098051,0.046021,-0.038963,-0.346299,0.218558
-0.167795,0.172548,-0.093457,0.348303,0.349936,0.086344,-0.467153,0.478050,0.126609,-0.303966,0.063263,-0.350603
0.397972,-0.042273,-0.035075,-0.243133,-0.268720,0.322004,-0.130918,0.319319,0.255970,-0.411006,-0.368612,-0.337882
0.413925,0.149572,0.373099,-0.199505,-0.112910,0.450465,0.275161,-0.129394,0.314880,-0.030306,0.304668,0.355352
0.174072,0.369101,0.306430,0.368288,-0.072080,0.287670,0.291769,0.237892,-0.344033,-0.286290,-0.173832,-0.379103
0.232015,-0.165972,0.401940,0.382822,0.249506,-0.114620,0.014020,0.430574,0.211189,0.221784,0.389447,-0.322605
0.200764,-0.146208,-0.460981,-0.323573,-0.414299,0.369187,0.148895,-0.089756,-0.423163,-0.188158,0.210454,-0.155513
0.438970,-0.434364,0.062987,0.143037,0.091913,-0.127917,-0.030737,-0.487392,-0.409475,-0.213912,-0.121804,-0.320367
-0.424511,0.172061,0.085840,-0.450788,-0.185420,-0.189808,-0.214886,-0.452145,-0.078639,0.086105,-0.464055,0.172171
0.162916,0.287530,0.038846,0.049381,0.339384,-0.258399,0.316129,0.294309,0.474125,-0.399876,-0.031456,-0.364205
-0.005521,-0.278299,0.422912,-0.025652,-0.069098,-0.451605,-0.327946,0.321822,0.372312,0.239951,0.284300,-0.214821
-0.137384,-0.257301,-0.444109,-0.326444,0.193328,-0.142428,-0.227340,0.171918,0.394022,0.401877,-0.038839,-0.392371
0.273147,-0.350997,0.267861,-0.315327,-0.366371,0.116472,0.191561,0.437463,0.146682,0.295982,0.232130,-0.303549
0.269930,-0.281703,-0.078257,0.407785,0.465049,-0.359510,0.115937,-0.068413,0.021004,-0.297227,-0.382545,0.276772
0.156024,-0.354764,-0.318035,-0.052991,-0.194980,-0.207054,-0.342302,-0.089504,0.062863,-0.466350,0.389485,0.408219
-0.517004,-0.247410,0.201931,-0.220779,-0.326556,-0.091090,0.059228,0.131353,0.125652,-0.217727,0.135142,0.604004
-0.080123,-0.238003,-0.410809,0.188505,0.351224,0.014038,-0.170874,0.460580,0.418340,0.058791,-0.398069,-0.175572
-0.028276,-0.031281,0.106727,-0.403674,-0.284226,0.087887,-0.201444,-0.418979,0.372927,-0.198077,0.435728,-0.388689
-0.232795,-0.299861,0.263107,-0.118140,-0.382176,-0.400674,-0.170109,0.135069,-0.402339,0.242806,-0.328847,-0.299929
-0.322879,-0.046999,0.104455,0.404860,-0.335465,0.328227,0.429869,0.073900,-0.345309,-0.007472,0.406712,0.153265
0.050579,-0.460336,0.399188,-0.239120,0.107358,0.191169,0.072672,0.064968,-0.155828,0.440080,0.310031,0.444250
-0.272487,0.321947,0.235876,0.302957,0.117726,0.160205,0.046937,-0.068103,0.500790,0.493746,0.360798,0.059693
0.355252,0.184089,0.009231,0.003742,-0.318139,0.397286,-0.360735,0.250295,0.298015,-0.411046,0.053180,0.356907
0.138580,0.268872,0.020017,-0.319939,-0.110882,0.402401,0.242796,0.363759,-0.454869,-0.425295,0.217964,-0.070429
-0.279632,-0.307213,-0.340150,0.044178,0.034903,-0.283694,-0.041981,-0.021770,-0.287442,-0.415119,0.608775,0.016797
0.324243,-0.140285,0.289485,0.283682,0.366807,-0.356751,-0.361020,0.025731,-0.371920,0.421047,-0.026999,-0.041951
-0.445507,-0.480371,0.377332,0.265786,0.043223,0.166989,0.142009,0.006594,-0.234877,0.145815,0.478177,-0.051958
0.281632,0.180981,-0.167016,0.268903,-0.319281,0.303151,-0.219288,-0.449285,-0.375033,-0.012999,0.250452,0.374694
-0.330411,0.342594,-0.415429,-0.352223,0.355216,-0.262573,-0.202549,-0.238586,0.420382,-0.029778,-0.067823,-0.038915
-0.455384,0.262235,0.412232,0.201410,0.212680,0.072286,0.397806,-0.188231,-0.358276,0.269159,0.130855,0.226055
-0.437960,0.349658,-0.203664,0.353077,0.392855,-0.146109,-0.003297,-0.233303,-0.175261,-0.170924,0.383400,0.286540
0.388196,-0.180655,-0.278355,-0.475156,0.091750,0.472653,-0.111834,0.009942,0.500971,-0.087785,-0.042477,-0.091112
-0.370748,0.291704,0.335473,0.380199,-0.351295,0.278384,0.326240,-0.045956,-0.219827,-0.248754,0.212098,-0.236019
-0.355382,-0.289026,0.401405,-0.325368,-0.302339,-0.217361,-0.071890,-0.362321,-0.350526,-0.174499,-0.256819,-0.110549
0.247140,0.169632,-0.336708,-0.182377,-0.251626,0.214761,-0.137345,0.259554,-0.041656,0.354982,0.338931,-0.402516
-0.465707,0.457421,-0.145698,-0.076932,0.002228,0.452217,0.169251,0.293986,0.291498,-0.035540,0.069684,0.347493
-0.388132,-0.248780,0.298985,-0.378453,-0.336741,0.365255,-0.386223,-0.222603,0.077417,0.055123,0.171674,-0.265526
-0.331565,0.352187,0.524335,-0.388513,0.053258,0.115738,-0.119962,-0.337691,-0.189832,0.355285,-0.021915,0.122543
-0.237332,0.533687,-0.395991,0.118651,-0.332688,0.278786,-0.015669,-0.286737,-0.139446,-0.034679,0.013799,0.084201
-0.129871,0.330312,0.038775,-0.067964,-0.043235,0.213060,0.307340,0.103924,-0.286626,-0.590332,-0.443851,0.057584
-0.225673,0.054025,-0.000610,0.166165,0.186171,-0.190511,-0.381201,-0.414738,-0.165239,-0.043668,0.151530,-0.112432
0.006631,-0.389364,0.182734,0.348947,-0.193233,0.380014,0.341115,-0.116834,0.383898,0.068990,-0.388502,0.235275
0.118011,0.518975,-0.085828,0.138914,-0.061655,-0.082782,-0.393449,0.065954,0.354486,0.546532,-0.122020,-0.284770
-0.415742,-0.003865,0.055393,0.335828,0.268231,0.300540,-0.066908,-0.291006,-0.470761,0.399902,0.252639,0.115036
-0.298514,-0.089952,-0.606427,-0.198655,-0.120981,-0.379424,-0.355217,0.045037,0.077160,-0.118643,0.116313,-0.416465
0.312840,0.205949,0.402194,0.088606,0.061037,0.340743,-0.186565,-0.340416,-0.273885,-0.405463,0.422502,0.040721
0.293543,0.269603,0.422237,-0.173065,-0.314924,-0.111632,0.165821,-0.192556,-0.463118,-0.307932,0.304257,-0.234111
-0.128946,0.378071,0.421783,-0.484281,0.020234,0.000716,0.382125,-0.424184,-0.118635,0.091794,0.002579,-0.279697
0.391476,0.012148,0.357581,-0.086668,0.249687,-0.286293,-0.356515,-0.314029,0.304935,0.063186,-0.376494,-0.260015
0.440101,-0.286744,-0.246839,-0.243157,-0.335424,-0.103501,-0.329696,0.463958,-0.045291,-0.208934,0.266405,-0.197946
0.077636,-0.070791,-0.010077,-0.224739,-0.578001,0.122861,-0.222786,0.048868,-0.511031,0.400206,0.003702,-0.340321
0.168580,-0.058160,-0.441038,0.396169,0.350229,0.003439,-0.145601,0.175410,-0.214029,0.437271,-0.183557,-0.413987
0.322616,-0.094458,-0.020358,-0.338487,-0.257638,-0.405754,-0.375911,-0.191394,0.405302,-0.123978,-0.367505,-0.219894
-0.360473,0.239747,0.242676,-0.176708,0.406569,0.238989,-0.205780,0.378492,-0.227823,0.303375,-0.332489,-0.244864
-0.081753,0.379989,0.393702,-0.095781,-0.083238,0.314007,0.092194,0.424383,0.393512,-0.434867,0.030342,0.213627
-0.209399,0.328528,-0.343878,-0.357465,0.342776,0.150998,-0.240666,0.219733,0.024061,0.185321,0.316734,-0.424366
-0.078145,0.125325,0.203988,0.009111,-0.288630,-0.393240,-0.529733,-0.053800,-0.036027,0.137067,-0.249487,0.369042
-0.203680,-0.288593,-0.369165,-0.181680,-0.082291,-0.027912,-0.233218,-0.495872,0.158774,0.445597,0.350163,-0.203262
0.247591,-0.169946,-0.565137,0.168828,0.491755,-0.203930,0.106598,-0.310034,0.355313,-0.197839,-0.035875,-0.065261
0.156955,0.145547,-0.353921,0.420369,0.176313,0.062193,0.000406,-0.179072,0.304926,0.526082,-0.383320,0.261751
0.190076,0.290497,0.168694,0.224312,-0.045164,-0.709550,-0.160161,-0.139217,-0.105670,-0.303020,0.256049,0.285704
0.511387,0.543147,0.170925,-0.051302,-0.264397,-0.299828,0.028155,0.218623,0.401763,-0.027350,0.181057,0.091069
0.054884,0.290609,0.382118,-0.185433,0.257850,-0.220766,-0.288729,-0.362513,0.397312,0.037188,0.395962,-0.293435
0.485334,0.401517,0.007561,0.442592,0.266231,0.259700,-0.373020,-0.253850,-0.110820,0.046055,-0.221641,-0.043095
-0.469117,-0.167373,-0.284974,-0.050881,0.018934,-0.513087,0.428704,0.172640,-0.361750,0.110580,0.215269,0.036695
-0.516860,0.320049,-0.440031,-0.034019,0.201858,0.144602,0.073317,0.136939,-0.433327,-0.349250,-0.144282,0.028023
0.391809,-0.076293,-0.302710,-0.081078,0.347713,0.375783,0.061959,-0.350085,-0.043629,0.222435,-0.045369,0.302573
0.019381,-0.230940,-0.414237,-0.400907,0.416398,-0.100314,-0.122861,-0.142546,-0.392376,0.419914,0.182421,-0.028052
0.017664,0.102409,-0.266808,0.199041,0.460464,0.046179,0.238305,0.412365,0.371609,-0.360368,-0.218489,0.348586
-0.245294,0.406281,-0.413265,-0.065954,-0.341939,0.104412,0.018186,0.070446,0.409183,-0.167798,-0.337395,0.396345
-0.107607,-0.390807,0.450509,-0.095588,-0.127144,0.388128,0.227353,-0.243464,0.154407,-0.002638,-0.433332,-0.366330
-0.028018,-0.141538,-0.144381,-0.125922,0.566622,-0.028468,0.158855,0.108006,0.327288,-0.532680,-0.155452,-0.410705
0.219723,-0.366814,0.109181,-0.435859,0.153623,0.046190,-0.483201,-0.085660,0.358264,-0.195248,0.426619,-0.015578
0.161481,0.373681,0.198182,-0.045080,-0.236040,-0.349389,-0.057928,-0.093967,-0.085358,-0.358982,-0.601602,0.323923
0.475812,-0.129262,0.045407,0.022853,0.062905,0.039161,-0.123327,0.569711,-0.170307,0.486517,0.207411,-0.316727
-0.457259,-0.550462,0.078695,0.205029,-0.223425,0.082734,-0.317554,-0.260706,0.103200,-0.021730,0.227647,0.388790
-0.376547,-0.223695,0.298427,-0.067688,0.206882,0.448649,0.294343,-0.419996,-0.388456,-0.189723,0.080023,-0.118812
-0.306555,0.274727,0.208700,-0.130105,0.473037,-0.384153,-0.203744,-0.263942,0.404803,0.287119,-0.197401,-0.047772
-0.365940,0.077104,0.127513,0.338075,0.386971,-0.349679,0.330234,-0.474151,-0.131316,-0.307824,0.106000,0.021411
0.097572,0.129045,0.249288,0.179440,-0.479636,-0.278281,-0.104825,0.371595,0.206285,0.554573,-0.267082,-0.038513
0.371401,0.079542,-0.132898,0.169893,0.497941,0.341758,0.054928,0.491304,-0.321095,-0.049177,0.306734,0.021494
-0.412670,-0.331952,-0.206721,0.370314,0.235353,-0.388099,0.392139,-0.376551,-0.162228,-0.057853,0.087861,-0.026120
-0.135533,-0.413188,-0.362325,0.031666,-0.107988,0.182610,0.072535,-0.257188,0.335687,0.398633,-0.170049,-0.511566
-0.202333,0.225367,0.195072,0.195831,-0.403743,0.447135,0.171822,0.310240,-0.224181,-0.119619,-0.319877,-0.419846
0.286927,-0.104492,0.517501,0.371176,-0.476624,-0.061139,0.158767,0.038000,-0.086850,0.321276,0.199540,0.305024
-0.129535,-0.393012,0.008598,-0.457904,0.194100,0.369412,0.058737,0.160564,-0.398558,-0.357267,-0.281108,-0.223901
0.065949,0.053289,-0.503994,0.071227,0.203245,-0.328987,0.072329,-0.489963,-0.185532,-0.228710,0.376243,-0.332570
0.365438,-0.294957,0.148865,0.319329,0.089263,0.091975,0.331794,0.291285,0.087137,-0.306074,0.431621,0.395464
-0.243036,0.405471,0.046490,0.332164,0.305421,-0.113920,0.415700,0.480416,0.252192,-0.104499,-0.254864,-0.121203
-0.143577,-0.237288,-0.293584,0.111275,-0.448345,-0.372754,-0.398645,-0.271122,-0.336816,0.281984,0.109793,0.217046
0.088023,0.330573,-0.354875,-0.255734,-0.043726,-0.316233,0.139931,0.249144,0.384977,-0.385730,0.368025,-0.275012
0.015638,-0.342813,0.238838,-0.428737,-0.156779,-0.217080,0.146684,0.414162,0.386155,-0.035261,0.451519,0.149659
0.235341,0.020316,0.326817,0.372587,0.380540,-0.376494,-0.196757,-0.220066,0.371437,-0.251962,-0.258377,0.238034
-0.022912,-0.368952,0.194249,-0.078888,0.058777,0.360344,-0.408747,0.354510,-0.000351,0.357486,-0.465110,0.221846
-0.207041,0.004407,-0.385784,0.486164,0.181546,0.110627,0.522373,-0.280559,0.184096,-0.119150,0.082117,-0.346862
0.203242,0.178687,0.038315,0.188872,-0.419408,0.196422,-0.319989,-0.378919,-0.334243,-0.307066,0.302885,0.362517
0.103797,0.256579,0.026896,0.286625,-0.069175,0.361032,0.219578,0.563495,0.441989,0.155776,-0.144404,-0.314918
0.038355,-0.365166,0.399716,0.353397,-0.408311,-0.161392,0.247027,0.293994,-0.125074,-0.436876,-0.092191,-0.159050
0.489071,0.390958,0.205216,0.223316,0.014737,-0.414375,0.140126,0.130850,0.212172,0.064818,-0.449585,-0.236544
-0.000529,0.262364,-0.268873,0.056692,-0.441246,0.073749,-0.118579,0.299748,-0.215283,-0.421373,0.381161,-0.427113
-0.301199,-0.073103,0.000777,0.376441,0.387888,-0.534247,-0.290836,0.331870,0.008428,-0.259260,0.232342,-0.101765
0.462561,-0.244993,-0.243042,0.168569,0.102739,-0.460575,-0.289851,-0.280790,0.402703,0.289056,-0.032434,0.078831
-0.068896,0.456430,0.443436,-0.057760,-0.507582,0.096173,-0.409786,-0.045196,0.052819,0.079351,-0.136526,-0.349816
-0.140604,0.469439,0.116577,-0.213959,-0.364415,0.226705,0.252350,-0.328792,-0.264630,0.023982,-0.499092,0.157529
0.120937,-0.413636,0.307653,-0.057336,0.343941,-0.313407,0.166138,-0.330713,-0.125331,-0.473246,-0.193475,0.292826
0.128139,-0.152815,-0.346759,0.237572,-0.276026,-0.071999,0.499663,0.032703,0.234127,-0.491566,0.392663,0.028320
0.170940,-0.016934,0.209871,0.484998,0.256346,0.142218,-0.045788,-0.051906,0.281375,0.563871,-0.405859,0.196596
-0.445018,-0.104675,-0.344582,0.318515,0.134626,-0.150637,0.213691,0.149924,-0.348248,0.226290,-0.386369,0.374290
0.408660,0.060915,0.529031,-0.080770,0.541544,-0.206472,-0.020762,0.246615,0.352027,-0.037490,-0.012957,-0.142276
0.144008,0.032129,-0.012184,-0.047175,-0.306465,0.422039,0.267756,-0.356028,0.313945,0.421827,0.242227,0.412547
-0.324542,-0.253248,0.377240,0.332116,0.072850,0.345195,0.336012,-0.127465,0.002338,-0.323388,-0.305930,-0.355148
0.195889,0.298332,0.192690,-0.027514,-0.273875,-0.103719,-0.195482,-0.275486,-0.050064,0.517055,0.071441,-0.599927
0.333038,0.362128,-0.419599,0.091867,0.046734,0.269556,-0.284000,-0.121571,0.187052,0.311971,0.307691,-0.419736
0.200856,0.412756,-0.197225,0.381280,0.192366,0.147366,0.345367,0.273262,0.221146,0.346450,0.251828,-0.346402
0.426728,0.285190,-0.128153,0.291168,-0.371611,0.347488,0.004334,-0.401081,0.122425,-0.206159,0.075727,0.390404
0.179957,0.147544,0.367076,-0.352047,-0.353729,-0.451729,-0.353066,-0.095882,-0.074272,-0.322029,-0.299805,-0.158207
-0.444898,0.344468,-0.302616,-0.014671,0.115498,-0.349004,0.146062,0.307446,0.169975,-0.330971,0.171174,-0.415790
-0.003877,-0.050031,0.372094,0.050655,-0.241513,0.277696,-0.513948,0.193896,-0.012776,0.540863,0.084270,-0.345662
0.349848,-0.171819,-0.367082,-0.250188,0.439610,0.248275,-0.124634,0.294323,0.063928,0.229238,-0.197581,-0.444982
0.347805,-0.127632,0.031452,-0.273138,-0.060679,0.427258,-0.214208,0.258323,-0.090908,-0.401916,0.470970,0.310945
0.256231,-0.314323,0.261710,0.412033,0.292638,-0.379952,0.443203,0.018543,0.255094,-0.102101,-0.207465,0.227972
0.354077,0.163884,0.081268,0.195348,0.098699,-0.289468,0.350140,0.395450,0.078260,0.422899,0.417069,-0.267538
0.007256,0.011816,0.422543,0.452395,0.225362,-0.191389,-0.331913,0.407144,-0.431391,0.216089,-0.118714,0.079423
0.405040,-0.111306,-0.047016,-0.296529,0.287039,-0.378532,0.374854,-0.238000,0.258714,-0.407516,-0.211487,0.181169
-0.001167,0.213371,0.373452,0.398276,-0.430329,-0.165281,-0.160960,0.261578,-0.257695,-0.300862,-0.389544,0.202111
-0.118189,-0.374757,0.041379,0.152466,0.555916,0.273542,0.064635,-0.347879,0.036449,-0.555060,-0.003308,-0.046160
-0.303660,0.182992,0.222768,-0.309502,-0.377036,-0.401597,0.059464,-0.328011,0.082979,-0.086376,0.388385,-0.386179
0.315955,0.264688,-0.295886,-0.391232,-0.399900,0.008187,0.375846,0.194825,0.409530,-0.038301,-0.077264,-0.274128
0.228025,0.005798,-0.121496,-0.434122,-0.037129,-0.352567,0.230075,0.311140,-0.117603,0.128371,0.479320,-0.457457
-0.119520,-0.112676,-0.343332,-0.386982,-0.423994,0.208884,-0.034659,0.272244,0.032007,0.278067,-0.440983,0.365860
0.007574,0.215737,-0.239377,-0.289167,-0.362480,-0.518755,-0.479610,0.073930,0.256037,-0.050455,0.088428,-0.317128
0.333446,0.065303,0.145542,0.282473,-0.551283,-0.245724,0.040380,0.106305,0.120157,0.470852,-0.207278,0.356717
0.343290,-0.152043,-0.472100,-0.286052,-0.257277,0.225465,-0.220276,-0.249391,0.322701,0.280631,-0.164477,-0.341532
-0.161435,0.537475,-0.008041,0.199607,0.335309,0.120730,0.126478,0.106550,0.050176,0.227213,0.455470,0.478747
0.085100,-0.459032,0.042644,-0.116740,0.176086,0.463464,0.177016,0.058923,-0.063264,-0.475092,-0.502956,-0.057526
-0.017318,0.075295,0.430980,0.317348,-0.255509,0.407442,0.011276,-0.127515,-0.459342,0.223184,-0.439907,0.074648
-0.248887,-0.302967,0.139524,0.085358,0.441479,-0.036131,0.437338,-0.024513,-0.322403,-0.330025,0.360383,-0.297830
0.292022,0.264234,0.155414,-0.134677,0.236516,-0.354121,-0.575865,-0.345554,0.101107,-0.341585,-0.119033,0.170794
0.407239,0.483697,-0.096176,-0.235152,0.482490,-0.086993,0.188381,-0.116488,-0.105450,0.183610,0.289875,0.342588
-0.007577,0.264209,-0.116063,-0.222355,-0.414815,-0.183440,0.079129,-0.482850,0.395614,0.313315,-0.356505,-0.200810
0.015300,0.463194,-0.294843,-0.298831,0.126382,-0.375321,0.332420,-0.030980,-0.379825,0.144325,-0.333923,-0.253145
0.021410,-0.275377,-0.403968,0.398681,-0.213395,0.097428,-0.231690,-0.336049,0.080653,0.406155,0.232314,0.393061
0.223533,-0.007053,0.274698,-0.193644,0.098343,0.456132,-0.189302,0.052766,-0.125290,-0.575558,-0.448363,0.180790
0.210019,-0.362781,0.205558,0.364543,0.191147,-0.272813,-0.039615,-0.368474,0.270407,-0.424163,-0.339116,-0.181095
0.085697,-0.038240,-0.398129,0.524611,0.006900,0.063224,0.417904,-0.076734,-0.229465,-0.308425,-0.074922,-0.468509
-0.335184,-0.371218,0.362086,-0.227074,0.153132,0.096218,0.295801,0.104255,0.346294,0.380022,0.265473,0.317945
0.324057,-0.375297,0.046591,-0.063022,0.247503,0.012811,-0.384930,0.387981,0.062854,-0.310326,0.399561,0.292571
0.067935,0.149898,0.329804,0.214189,0.003038,0.245088,0.262997,-0.151322,-0.191020,-0.269156,0.442118,0.024758
-0.141504,-0.439170,-0.120326,0.286877,-0.284459,-0.436890,0.003108,0.169937,0.305315,0.180658,0.390071,0.280659
-0.528048,-0.022134,-0.414353,-0.218485,0.305413,0.208100,-0.020946,-0.075916,-0.076235,-0.509993,0.122289,0.278556
-0.341569,-0.384351,-0.276470,0.127402,0.240540,-0.197844,-0.218435,-0.024906,0.425730,-0.411003,0.317336,0.216172
0.132515,0.261669,-0.332783,0.278794,-0.275628,0.357319,0.398405,0.237169,0.090157,0.324506,0.151260,0.412992
0.457430,0.116495,-0.030460,-0.015264,0.025649,-0.446093,0.005682,-0.439926,0.183502,0.062646,-0.407327,0.423425
-0.428594,0.252782,-0.218791,0.006710,0.057874,0.483552,0.088587,0.414519,-0.033733,0.504603,0.150149,0.096654
0.427333,0.127445,-0.217155,0.096397,-0.388399,-0.166097,-0.276166,-0.417788,-0.282216,-0.374373,0.308141,-0.026198
-0.231457,-0.296988,0.342237,-0.167845,0.077685,0.043811,-0.299502,-0.483636,-0.121069,-0.330380,-0.407214,-0.302880
0.260904,0.084810,-0.335106,-0.130593,0.244250,0.190366,0.318314,-0.361448,-0.167874,0.355547,-0.350337,0.436107
0.254301,-0.381755,-0.375140,0.011122,0.251495,-0.163286,-0.329475,0.454934,-0.159867,-0.426641,-0.142666,-0.123697
-0.005633,0.019894,-0.463619,-0.449370,-0.426691,0.373118,0.114095,0.251386,-0.112944,-0.139516,0.334475,0.201973
-0.400900,0.161324,0.395782,-0.379171,0.470718,0.147783,-0.071200,-0.023432,0.170595,-0.339129,-0.267689,0.218898
0.038869,0.187018,0.220232,0.331427,-0.468681,-0.010620,-0.018820,-0.452070,-0.338641,-0.310898,0.101769,0.398721
-0.173858,0.170049,-0.442217,-0.415836,-0.244409,-0.201341,-0.397375,0.201738,0.293505,0.304259,-0.296088,0.084354
-0.366748,-0.007153,0.450171,-0.409725,-0.377147,-0.390556,-0.240021,0.075422,-0.097427,0.296041,-0.013693,0.198808
-0.282626,-0.317722,0.356433,-0.425104,0.111549,-0.277042,0.382876,0.283026,0.029251,0.385865,-0.157028,0.145329
-0.243847,0.235790,0.345126,0.198443,-0.380877,-0.245943,0.419810,-0.322205,-0.038760,-0.278518,-0.295613,-0.272722
-0.147027,-0.212784,-0.488764,0.324630,0.321358,-0.164401,-0.128246,-0.084769,-0.145801,-0.340403,0.497330,0.224569
0.032984,0.224178,-0.279052,0.436194,-0.480407,-0.291296,-0.220405,0.064337,0.031792,0.331106,-0.310133,-0.324549
0.234634,-0.051114,0.385474,0.011453,0.306603,0.387746,0.497379,0.004399,-0.171285,0.270164,-0.270560,0.355423
-0.532176,0.132470,0.452909,0.130732,-0.510814,-0.104777,-0.019131,0.067626,-0.061598,0.314370,-0.079233,0.302116
-0.429313,-0.081303,0.228522,0.269401,-0.428625,-0.279704,-0.069563,0.182277,0.427954,0.243192,-0.138655,-0.350359
-0.391297,-0.354948,-0.022795,0.201127,-0.023040,-0.461650,-0.471858,0.102092,0.012682,0.208613,-0.395461,-0.182022
0.279169,-0.444979,-0.153664,-0.317789,-0.189170,0.392082,-0.188087,-0.236629,0.130534,0.313490,0.399863,-0.208247
-0.266615,0.362255,0.416761,0.060292,0.513254,0.305009,0.127792,0.019407,0.199219,-0.115803,0.439477,-0.030939
-0.051437,0.211672,0.198602,-0.279500,0.115780,0.407971,-0.579395,0.161223,-0.479304,-0.097759,-0.157474,0.171353
0.415193,-0.291956,0.221757,-0.091459,-0.180022,-0.297188,0.289755,-0.155722,-0.225206,-0.404539,0.383608,-0.307204
0.422939,-0.190839,0.407306,0.230767,-0.181479,-0.239322,-0.410184,-0.104302,-0.434219,0.000904,0.263483,0.195553
0.433460,0.411242,0.110411,0.122965,-0.402758,-0.195906,0.054174,0.370180,0.315357,-0.044858,-0.388760,-0.150080
0.059298,0.513239,0.241969,-0.506619,-0.315111,-0.103212,0.039501,0.372961,0.065587,-0.325430,-0.027232,-0.237281
0.410331,0.002976,-0.393566,0.069527,-0.139348,0.388357,0.162638,-0.264694,0.515264,-0.239544,-0.152699,0.242783
-0.333082,-0.141499,-0.068783,-0.387091,0.406906,0.098460,-0.421392,-0.297903,-0.146538,-0.168501,-0.391366,-0.264282
0.364882,0.366274,-0.000976,0.314884,0.332476,-0.042286,0.339370,0.440875,-0.292067,-0.087540,-0.280026,-0.200749
-0.067350,0.377876,0.103888,0.324361,-0.117547,-0.121858,0.469364,-0.342995,-0.396953,-0.424957,0.178115,0.013069
-0.104860,0.178431,-0.510918,0.012162,-0.350975,-0.249157,-0.250936,0.264820,-0.021236,0.565484,0.218590,-0.097234
-0.364741,-0.396628,-0.321026,-0.195346,-0.282496,-0.177398,-0.301024,-0.278405,0.142964,-0.365949,-0.064518,-0.089293
-0.338976,-0.341214,0.104862,0.617525,-0.154548,0.111785,-0.176013,-0.163867,0.271337,0.041398,0.447568,-0.080106
-0.176966,0.462047,-0.185895,-0.057365,-0.096581,-0.429611,-0.265034,-0.013383,-0.397511,0.140631,-0.278658,-0.002609
0.147245,-0.164422,0.031378,-0.396357,0.158517,-0.407134,-0.096738,0.305073,-0.360306,0.302198,-0.380665,-0.365597
0.164341,0.384221,-0.280353,0.026097,-0.045616,-0.420685,0.376534,-0.378911,-0.349293,-0.316860,-0.166220,0.114316
0.202727,0.384216,-0.004706,-0.046417,-0.014551,-0.484259,0.327102,0.013896,-0.023655,-0.123318,-0.457655,0.166049
-0.032594,0.927535,-0.173925,0.090483,-0.154138,-0.617793,0.707310,0.077060,-0.285642,-0.802564,-0.791612,-0.000412
0.047240,0.557169,-0.085800,0.133170,0.236588,-0.034848,0.033457,0.348635,-0.110094,-0.405450,-0.575892,0.160560
0.284567,-0.138928,0.382221,-0.154493,-0.316344,0.346236,-0.249329,-0.225998,-0.351051,0.298702,-0.124100,0.297559
0.118701,0.337215,-0.376137,-0.147037,-0.094828,-0.328041,0.315520,-0.014536,0.308089,-0.433809,-0.318638,0.273274
-0.074898,0.498853,0.037416,-0.080371,-0.205217,0.207251,-0.438088,0.468658,0.151563,0.419166,0.077493,-0.190539
-0.108478,0.334680,-0.329734,-0.338024,0.020148,-0.264115,0.002750,0.313205,0.078107,0.457243,0.437789,-0.232878
0.378503,0.343468,-0.455628,0.336131,0.214782,-0.099582,-0.339768,0.079246,-0.334696,-0.004516,-0.274168,0.268683
0.089626,-0.243018,-0.322752,0.317180,0.274863,-0.220830,-0.489726,0.202093,0.199736,-0.458764,-0.253487,-0.083565
0.309087,0.255929,0.308476,-0.058029,0.350479,-0.378821,-0.355405,0.213782,0.376015,0.090638,0.189241,-0.341677
-0.340543,0.267035,0.480246,0.056490,0.187469,0.441296,0.095984,-0.267267,-0.413278,0.211422,0.154308,-0.170450
-0.398387,-0.049241,-0.339921,0.436439,0.216293,0.082004,0.307245,-0.133740,0.180767,0.119234,-0.496656,-0.271080
0.319145,0.260295,-0.496323,0.367656,-0.404770,0.292696,0.283004,-0.114335,-0.096657,0.197714,-0.142179,0.193814
0.347432,0.319154,-0.285488,-0.081018,0.325668,0.068671,0.410788,-0.397918,0.252750,0.144274,-0.384597,0.137447
0.133688,0.022871,0.185060,-0.210196,0.160146,-0.206623,-0.441069,-0.370884,0.465668,-0.202352,-0.234196,0.436002
-0.487836,-0.280965,-0.106704,0.493438,-0.118518,0.162788,0.043877,0.246723,0.013852,0.248844,0.477901,-0.185363
0.047187,0.120981,0.143959,0.557393,0.043118,0.235361,-0.499812,-0.107571,0.324492,0.220700,0.303145,0.294694
-0.176158,-0.324391,-0.206329,0.365404,-0.415118,0.201771,-0.043337,0.234257,0.273810,0.199921,0.412533,0.037758
-0.966543,-0.039601,0.001869,0.357997,-0.457228,-0.141689,-0.295933,-0.612061,0.248030,-0.273449,0.498779,-0.032809
-0.239831,-0.303413,-0.146975,0.414443,0.309293,-0.100750,-0.413006,-0.165607,-0.180843,-0.286346,-0.217017,0.217050
-0.572005,-0.406297,0.048010,-0.211132,-0.031282,-0.142411,-0.033449,-0.253826,-0.241289,-0.378242,-0.298311,0.289197
0.184724,0.154044,-0.095357,-0.302948,-0.044425,-0.265188,-0.278550,0.379670,0.297338,-0.433770,0.314690,-0.414298
-0.154481,-0.081509,-0.375498,-0.389627,-0.420738,-0.042919,0.376059,0.022098,0.425197,-0.075686,-0.410888,-0.023738
-0.342327,0.130059,-0.082380,-0.148403,0.279051,-0.373221,-0.383640,0.151303,0.238894,-0.215139,-0.432687,-0.399095
0.145859,0.075547,0.449364,-0.436533,-0.012399,0.389285,0.395961,-0.087202,-0.246075,0.337638,0.190467,-0.231543
0.236070,0.189340,0.065229,-0.324234,-0.109323,-0.339984,-0.189619,-0.369729,0.537543,-0.149194,0.323039,-0.288578
-0.165295,-0.267648,-0.329740,-0.226919,-0.313910,-0.128299,-0.095734,-0.452974,0.483853,-0.413113,-0.053163,0.058665
-0.260772,0.166021,0.156849,0.159538,-0.165804,0.025024,0.499915,-0.049745,-0.492944,-0.431628,-0.119242,0.029881
-0.146213,-0.344728,-0.437236,-0.458706,-0.323767,-0.248511,0.109304,-0.059690,-0.238491,-0.238355,-0.669565,0.098167
-0.147956,0.058260,0.051049,-0.471598,-0.195110,-0.339562,0.164322,0.223453,0.159047,0.429490,0.227481,0.257716
-0.249638,-0.052495,0.524429,0.159594,-0.396206,0.183543,0.449092,-0.023753,0.115474,-0.463919,-0.102671,0.038350
0.262141,0.200912,0.293123,-0.353718,0.026650,-0.209713,-0.481120,0.422454,0.199658,-0.039957,0.235790,-0.358034
-0.325081,0.264882,0.416465,-0.218798,0.211944,-0.158498,-0.054187,-0.275682,-0.390104,0.407427,0.022519,0.367669
0.363548,0.431861,0.127223,-0.329448,-0.138031,0.421546,-0.186312,-0.130407,-0.197003,-0.357437,-0.372100,-0.055731
-0.347378,0.169047,-0.200053,0.413231,-0.015909,-0.437089,-0.282657,-0.175822,0.363276,-0.379416,-0.183633,-0.167973
0.100494,-0.289910,0.103950,0.398712,-0.272231,0.421400,0.305010,0.015276,0.398421,0.156392,0.128511,0.437506
-0.100241,0.040606,-0.525491,0.370243,-0.381909,0.118779,-0.343702,0.062016,-0.060701,0.019055,-0.518731,0.141466
-0.162678,0.397065,-0.291715,-0.400970,-0.004867,0.360198,-0.218851,-0.197937,0.144064,0.386800,0.426178,0.034104
-0.318246,-0.352724,0.377390,-0.224429,-0.002818,-0.495413,0.419510,0.095392,0.229805,0.027821,-0.312086,0.000943
0.061117,0.288073,-0.093305,0.112741,-0.365508,0.361623,-0.285233,-0.358744,-0.115109,0.384752,0.424666,0.275343
0.247754,-0.279469,0.216549,-0.237954,-0.346725,0.340882,-0.371838,0.153770,0.360453,-0.318630,0.286833,0.212006
-0.448664,0.141219,0.401252,-0.443878,0.334913,-0.135784,-0.357790,-0.066675,-0.014356,-0.083994,-0.340423,0.185781
0.040569,0.277379,0.282501,0.136557,0.403785,0.373016,-0.214285,-0.439899,0.376906,0.130706,0.262663,0.230681
0.186133,0.224718,-0.224037,-0.303786,-0.306079,0.048498,0.397156,0.237328,-0.415823,-0.486520,0.142476,-0.172806
-0.282222,-0.219111,0.306680,-0.259339,0.397736,-0.342905,-0.374515,-0.373915,-0.179267,-0.041237,-0.007057,0.345472
0.187769,0.378024,-0.377069,0.361209,0.109950,0.163978,-0.147547,-0.013806,0.439184,0.490661,-0.181703,-0.146942
0.101561,0.088068,0.371185,0.161608,0.442565,0.041721,0.661423,0.189894,-0.083130,0.065239,-0.367895,-0.019404
-0.079895,0.239271,0.286788,-0.480655,-0.343388,0.160770,-0.313648,0.429287,0.179142,0.070216,-0.064857,0.394253
-0.333933,0.235398,-0.124469,-0.323612,-0.120224,0.173475,0.389151,-0.346094,-0.116962,-0.404060,0.263879,-0.387963
-0.201455,-0.161234,-0.154911,-0.129106,0.438211,-0.082934,0.215589,-0.006187,0.409431,-0.400688,0.507516,0.248139
0.452872,0.353048,0.498131,0.229838,-0.372996,0.291228,-0.137767,0.038942,-0.333036,-0.017811,-0.114776,-0.021536
0.016315,-0.043803,0.052249,0.282773,-0.368131,0.467253,-0.023335,0.222867,0.260221,-0.300276,-0.502893,0.316674
-0.222610,-0.200131,-0.406281,-0.165741,-0.426748,0.018314,0.233456,0.304179,-0.429534,0.224799,-0.117219,0.373641
0.225959,0.459596,0.026303,-0.473386,-0.094777,0.128604,0.354245,-0.055963,-0.084360,-0.373874,0.041419,0.458444
-0.480543,-0.103715,-0.122528,-0.528495,0.085319,0.289670,-0.454656,-0.127185,0.102117,-0.250203,-0.180864,-0.210200
-0.050346,-0.083684,-0.263275,-0.338846,-0.481962,0.220905,-0.214462,-0.187922,0.247003,0.020537,0.510727,0.348802
-0.069907,-0.062433,-0.246355,-0.068220,0.283192,-0.378227,0.331533,-0.519332,0.130380,0.376521,-0.397330,-0.079746
-0.299327,0.177572,-0.026345,0.412486,0.052277,-0.059546,0.499722,0.150771,0.169255,0.284051,-0.561255,0.070425
-0.067206,0.522533,0.214084,-0.407748,-0.266641,-0.058691,-0.083899,-0.469225,0.157679,-0.251725,0.050622,-0.343233
0.136119,0.296442,0.246077,0.182183,-0.301706,-0.050859,-0.311159,-0.151973,0.062150,0.617355,-0.447978,0.025450
0.343683,-0.168392,-0.110674,0.461361,-0.473629,0.145087,0.152910,-0.291187,-0.020905,0.096911,-0.360705,0.367342
0.295690,0.100191,-0.259127,0.487404,0.370398,-0.258972,0.048387,0.391657,-0.298465,-0.179596,-0.212675,-0.266938
0.304454,-0.066100,-0.463064,0.226468,0.234078,-0.348432,-0.011224,-0.314694,0.284838,-0.252696,0.043806,-0.463638
-0.066089,-0.329281,0.041046,0.261872,-0.401047,0.345651,0.099924,-0.353701,-0.242478,-0.491712,0.037444,-0.315536
-0.073499,0.212798,-0.224349,-0.066871,0.337558,-0.331950,0.169284,-0.364534,0.404097,-0.392231,-0.252339,0.357797
0.449594,-0.062423,-0.298217,-0.012410,-0.331866,0.188142,0.313702,-0.465772,0.115082,0.152065,0.310683,0.333324
-0.011196,0.012162,0.444340,-0.009359,0.346624,-0.114480,-0.407695,-0.438521,-0.296331,-0.001967,-0.444926,-0.157022
-0.374219,0.131565,0.042681,-0.344130,-0.348708,-0.420081,-0.425314,0.065587,0.084871,0.327349,-0.250835,0.248729
0.063449,-0.324080,-0.142740,0.281325,-0.165457,-0.068424,-0.033218,-0.461283,0.502544,-0.213569,0.398107,0.298049
-0.274646,0.365475,-0.399272,-0.006793,0.349224,-0.288605,-0.179463,-0.101943,0.105046,0.425351,0.125360,-0.419536
-0.444724,0.334127,-0.438848,-0.298258,-0.308448,0.028362,-0.396103,0.026802,-0.109877,-0.312670,0.188343,0.100825
0.150115,-0.414955,-0.394075,0.411564,-0.123248,0.091655,0.259851,-0.256004,-0.399658,0.108050,0.381930,0.081696
0.031929,-0.289672,0.026636,0.112877,-0.243604,-0.410881,0.478216,0.146323,-0.202958,-0.364694,-0.285656,0.409340
0.255821,-0.409343,-0.428890,-0.020082,-0.134709,0.275572,-0.014211,0.090416,-0.448442,0.253732,-0.442623,-0.137057
-0.053366,0.078464,-0.102453,-0.438988,0.298175,0.467594,0.464947,-0.196796,0.324866,0.342540,0.026334,-0.042035
0.083420,0.401953,0.444758,0.290926,-0.218823,-0.356602,0.391016,-0.023254,0.066726,0.303893,0.342197,-0.081498
-0.423118,0.267813,-0.296029,0.501073,0.218056,0.331290,-0.134430,0.432007,-0.048295,0.036558,-0.138633,-0.160153
-0.383990,0.420212,-0.328930,0.389210,-0.046631,-0.189654,-0.086801,0.110753,-0.370008,0.022858,-0.454484,0.119858
0.431232,0.102894,0.258135,0.229906,0.175714,0.279441,-0.413826,-0.289092,0.130518,-0.311450,0.218339,-0.398076
-0.021401,0.411193,0.527914,0.186869,0.194018,-0.141159,-0.424216,0.250935,-0.032208,-0.140808,-0.424528,0.123548
0.211527,-0.296334,0.309454,-0.223406,-0.025443,-0.502125,0.345623,-0.023943,-0.145207,0.238576,-0.507319,0.116573
0.280280,-0.545809,0.011128,0.177293,-0.353730,0.148422,-0.239819,-0.009348,0.067276,0.393784,-0.406264,0.250163
0.297680,-0.336675,0.342203,-0.315821,0.370952,0.330637,-0.063360,0.292565,-0.379185,-0.041818,0.306673,-0.071252
0.282787,0.439335,0.336546,-0.275285,-0.209565,0.155533,-0.050804,0.083029,-0.072880,-0.393216,0.450472,-0.312303
-0.147048,0.044097,0.156188,-0.390914,-0.166134,0.468764,0.070006,0.414295,-0.386107,-0.074967,-0.469712,-0.003740
-0.265649,0.416664,-0.010254,-0.246855,-0.204813,-0.530756,-0.357512,0.253855,0.401767,0.086706,0.058676,0.080577
-0.039994,-0.252691,-0.494301,0.056547,-0.320011,-0.230586,0.494009,-0.302636,-0.224038,0.373557,-0.041845,0.065707
0.366116,0.112633,0.327305,-0.140049,0.129267,0.236516,-0.321304,0.497791,0.431618,-0.252457,-0.150684,0.173533
0.318808,-0.366706,0.037627,-0.236083,0.225125,0.339638,0.126360,0.051609,0.343546,-0.177398,-0.433433,-0.429784
0.440805,0.150770,0.312784,0.361475,-0.119903,-0.222906,-0.296275,-0.270999,0.202956,-0.172007,-0.398090,-0.316109
0.013885,0.130562,-0.235132,-0.404865,0.273142,0.336382,-0.461308,-0.236243,-0.399776,0.143815,0.280573,-0.218993
0.099325,0.283972,-0.166689,0.269298,-0.012397,-0.107569,0.456740,0.373035,0.026878,0.461523,-0.408856,0.262312
0.323975,0.453764,-0.161703,-0.109726,-0.481900,-0.158276,0.338044,-0.067633,-0.261640,0.280768,0.266200,-0.238068
0.296115,0.418396,0.240841,-0.285521,-0.378744,-0.128376,-0.215311,-0.254271,-0.412720,0.256413,-0.203391,0.222128
-0.076776,0.046571,0.445970,0.210598,0.384030,-0.371612,-0.435443,-0.254290,0.032287,-0.360227,-0.055064,0.273879
0.518624,-0.438326,0.417497,-0.057566,0.048965,-0.014723,-0.153152,0.225771,-0.460375,0.085064,-0.135594,-0.216038
0.587110,-0.171186,0.062401,0.121227,0.074742,0.452853,-0.435171,-0.348297,0.006356,-0.288761,-0.043241,0.027709
0.145849,0.298577,-0.215602,-0.388273,-0.180975,0.132811,0.205646,0.365594,-0.421498,0.157256,0.512676,0.027808
-0.420638,-0.184588,0.336300,-0.008434,0.383705,-0.399870,0.090936,0.274522,-0.264578,0.343911,0.290511,0.111318
-0.421975,-0.140318,0.048812,0.202770,-0.095752,0.331881,0.018665,0.164607,0.119640,-0.580624,-0.486243,0.155313
0.126264,-0.237776,0.284755,-0.111594,0.478181,0.295959,-0.452857,0.289446,0.172350,-0.215665,0.364067,0.141820
-0.203783,-0.434200,0.366815,-0.225472,-0.157997,-0.422166,-0.292466,-0.050591,0.430824,0.155287,-0.288960,-0.006888
0.448202,0.188134,0.548919,-0.108137,0.073032,-0.081454,0.066406,-0.201396,0.211766,-0.286027,0.047416,-0.514657
-0.338364,0.318028,-0.086047,-0.303532,0.415210,-0.362743,-0.139116,0.110222,0.224323,-0.467897,-0.281288,-0.031271
-0.350032,0.540505,-0.073021,-0.139931,-0.274098,0.032532,-0.253736,-0.296340,-0.090356,-0.340908,-0.449386,-0.075511
0.040810,0.534738,0.144081,-0.416852,0.362793,-0.200744,-0.253612,-0.249959,0.338837,0.084811,0.056230,-0.306569
-0.231083,-0.397565,0.355845,-0.091787,0.001152,0.409139,0.300098,0.202313,0.344016,0.059666,-0.351067,0.331589
-0.209804,0.325895,-0.442578,0.251283,-0.223923,-0.274602,-0.166092,-0.061850,0.304770,0.394960,0.379852,-0.198404
0.179522,-0.190248,0.069092,0.081285,-0.232103,-0.098198,-0.396545,0.212424,0.046033,0.116927,0.430589,0.229713
-0.763281,-0.744412,-0.307690,0.232304,-0.179464,-0.281765,-0.341376,-0.605248,-0.402397,-0.709850,0.426887,0.046034
0.275698,-0.034112,0.128980,0.001530,-0.041671,0.212420,0.322773,-0.383389,0.034571,-0.241703,0.426988,-0.123350
0.464036,0.508557,0.058224,0.433137,0.027635,0.109699,0.394734,0.105028,0.287372,-0.251730,0.086530,-0.003878
0.324803,0.121504,-0.134021,0.355807,-0.400738,0.290802,0.098931,-0.311408,-0.110155,0.435936,0.000787,0.425542
0.353587,0.309096,0.404348,-0.160150,-0.101857,-0.265550,0.462057,-0.139004,0.239800,-0.160319,-0.368712,-0.239635
-0.169603,0.434392,0.401393,0.090627,-0.317598,-0.301096,-0.004440,-0.189481,0.223672,-0.253147,-0.293920,0.430416
-0.212104,-0.244619,-0.317259,0.399712,-0.324049,-0.024722,0.111860,-0.472344,-0.100639,-0.377090,-0.363136,0.096526
0.147149,0.212937,0.306185,-0.305429,0.292040,-0.240750,0.354504,-0.332389,-0.368421,0.083256,-0.383850,-0.276694
0.375204,-0.405832,0.382117,-0.396287,-0.125353,-0.100704,0.029216,-0.259685,0.016796,0.274855,0.398105,0.251011
-0.533116,0.168953,-0.038699,-0.432942,-0.484943,0.175664,-0.080827,0.040665,-0.109587,-0.160793,0.040387,0.429552
-0.285436,0.110087,-0.261856,0.097315,-0.177995,-0.131755,-0.542416,-0.411350,0.214308,0.188529,-0.439582,-0.009262
0.424511,-0.408780,-0.224830,-0.308125,0.230627,0.175252,-0.253233,-0.084459,-0.337600,0.268925,-0.022430,-0.266407
0.388941,-0.356549,-0.156115,-0.393991,-0.098625,-0.117245,-0.398090,-0.368036,0.045856,-0.047216,0.151825,0.413409
0.135229,0.435008,-0.447813,0.042735,0.275851,0.405528,-0.065535,0.051850,-0.331421,-0.185962,0.103750,0.432838
-0.105213,-0.310922,0.364608,-0.300226,-0.221869,-0.328650,0.372340,0.015701,0.369873,0.417436,0.232994,0.087852
0.253205,-0.474311,0.359333,0.310232,-0.226711,-0.125493,0.379366,0.186433,0.338573,0.272769,-0.193723,-0.114744
0.130390,-0.360004,-0.232018,-0.015004,0.243551,-0.408142,0.268803,-0.052988,-0.229564,0.598762,-0.130500,-0.264825
-0.226819,-0.060530,0.233317,-0.270126,-0.228711,0.439390,0.576717,0.204209,-0.103427,-0.140889,0.329118,-0.242779
-0.445251,-0.249482,-0.080750,-0.373266,0.096164,0.168402,-0.526748,-0.224020,0.227277,-0.416012,0.027945,0.051796
0.026478,-0.117631,0.505678,0.315949,0.015896,0.239233,-0.236206,0.201066,0.445146,-0.289452,0.413100,-0.149207
-0.186462,0.310429,-0.366285,-0.198709,-0.384683,0.302583,0.359011,-0.356201,0.109272,-0.059710,-0.297782,0.308704
0.303395,-0.411843,0.018562,0.336155,-0.289997,-0.425190,0.300483,0.366633,-0.121206,0.333391,-0.068952,0.069268
0.412152,-0.047425,0.275891,0.463728,-0.073669,-0.123858,0.306878,-0.143108,0.420798,0.434954,0.136150,0.128478
0.183040,-0.113589,0.145456,0.301168,0.469430,-0.462407,0.090992,0.420138,0.304495,0.179399,-0.312796,-0.003484
0.189550,-0.271917,-0.470176,0.197659,-0.208543,0.171373,0.188910,0.353391,-0.169494,0.285135,-0.135833,-0.517770
0.430271,0.382226,0.483420,0.417291,0.079596,0.405931,0.034410,0.057831,-0.097399,0.166280,0.034930,0.216666
-0.250410,0.269777,0.288129,0.216802,0.097089,0.369631,0.477248,-0.243565,0.371292,0.144949,0.377443,0.004450
-0.058571,-0.189902,0.456215,0.238968,-0.426695,0.153471,0.284820,-0.328117,0.297939,-0.216960,0.392577,0.104441
-0.394057,-0.164219,-0.318187,-0.345608,0.103344,0.317581,-0.401254,0.414737,-0.275106,-0.190500,-0.129378,-0.154278
-0.231256,-0.370313,-0.206252,0.381792,-0.417565,-0.225019,-0.291681,0.350581,0.345903,0.216370,-0.146395,-0.014449
-0.151219,-0.231989,-0.079437,-0.284297,0.178991,0.024508,0.234827,0.438025,0.373117,0.031120,0.425093,0.485429
-0.007616,0.268132,-0.406214,-0.121702,-0.050113,0.069318,-0.410060,0.011100,-0.361287,-0.429145,-0.393432,-0.321177
-0.222212,0.328283,-0.276116,0.476397,0.212111,-0.497331,-0.051205,-0.173824,-0.063075,0.007321,-0.191457,-0.416898
0.396739,0.546897,-0.029747,-0.172082,-0.173663,-0.038052,0.192870,0.449505,-0.283336,0.156742,-0.185651,0.320673
-0.270044,-0.355199,-0.411853,-0.398604,-0.042829,0.309243,-0.222728,0.063024,-0.283184,0.339559,0.327478,-0.136461
0.083194,0.068945,0.131845,-0.380937,0.241738,0.107781,-0.300011,0.439258,0.440276,-0.224406,-0.420372,-0.227774
-0.345901,0.205800,-0.286073,-0.203381,0.437443,0.049248,0.144219,0.343415,-0.171659,0.150875,-0.415675,0.366317
0.024685,-0.280460,0.474425,0.014656,0.031217,0.017679,0.476728,0.089119,0.076221,-0.408679,0.409438,-0.115197
0.238367,0.308923,-0.081418,-0.451222,-0.357363,-0.155557,0.181976,0.241464,0.472973,0.268647,-0.035412,0.271445
-0.114518,0.229580,0.327741,-0.425114,0.048913,-0.155575,0.418119,0.089787,-0.330614,0.451624,-0.086473,-0.297838
0.556461,-0.153674,0.603651,-0.390936,0.021394,-0.385901,0.031370,0.000640,-0.485522,0.444666,-0.326947,0.209417
1.551115,-0.300615,0.877776,-0.194259,-0.150916,-0.015913,0.360841,0.565999,-0.688798,0.303175,-0.484137,-0.038673
1.294770,0.019377,0.273953,0.068067,-0.576886,-0.450285,0.651288,0.068452,-0.719374,-0.249319,-0.056307,0.001261
0.634889,0.030930,0.200987,-0.196181,0.188472,-0.491608,-0.084549,0.230425,-0.356175,-0.035093,-0.115561,0.009213
1.434150,0.464260,0.484785,0.127151,-0.108798,-0.056690,-0.215905,0.775746,0.066560,0.357496,0.500264,0.242972
1.356435,0.511213,0.494751,-0.462614,0.202447,-0.376348,-0.509207,0.868974,-0.152210,0.565640,0.393811,0.126358
0.841701,0.209663,0.042610,-0.395594,0.336138,-0.497709,-0.494515,0.729376,0.027423,0.214209,0.377497,0.107486
0.988434,-0.025772,0.376578,-0.209186,0.178213,-0.252279,-0.729708,0.343354,0.170298,0.489795,0.172519,0.661512
0.213025,0.265269,0.316018,-0.499465,0.159340,0.032132,-0.551876,0.350326,0.205127,0.119329,0.236577,-0.211755
0.334216,-0.304111,-0.344559,-0.305787,-0.252210,-0.219130,-0.306291,-0.179408,0.113299,-0.244216,-0.380462,0.368829
0.277761,0.302847,0.101614,-0.267733,0.457511,-0.036485,-0.301639,0.133512,0.497843,0.053085,0.395089,0.157891
0.307050,0.383163,0.066527,0.041755,-0.224208,-0.200565,-0.305899,-0.040529,-0.461561,0.472732,0.186632,-0.309339
-0.267608,0.357134,-0.003001,0.282238,0.184556,0.051726,-0.117535,0.442305,-0.298143,0.365562,0.310732,-0.394855
0.489427,0.244021,-0.099453,-0.152664,0.258300,0.344671,-0.226585,-0.042336,-0.126377,0.213126,0.212400,-0.567944
0.152459,0.459240,0.243442,0.127325,0.313047,0.428947,-0.256396,-0.434383,0.037895,-0.176446,-0.121999,-0.326350
0.481871,0.368334,0.432673,-0.116412,0.262193,-0.059017,-0.480235,-0.141991,0.130904,-0.105332,0.122583,0.255148
-0.254158,-0.106126,-0.268188,0.294706,0.335820,0.166877,-0.519076,0.009725,-0.421096,0.369896,-0.183300,0.086391
0.331182,0.189459,-0.439690,0.073581,-0.251194,0.381635,0.131533,0.000296,-0.233914,-0.025307,-0.441694,0.423123
-0.215761,-0.406468,0.197363,-0.072207,-0.233332,-0.377886,0.284639,-0.284039,-0.070029,-0.471194,-0.307899,0.214450
0.160761,0.352460,0.334131,-0.195492,-0.285782,0.283541,-0.062859,0.175139,0.025041,0.035755,-0.273665,0.090581
0.022445,-0.196753,0.350325,-0.403458,-0.001150,0.436679,-0.403775,0.312153,-0.400423,-0.067233,-0.045719,-0.063685
