0.169388,-0.332781,0.164722,0.191754,0.071693,-0.372680,0.108834,0.361124,-0.198195,0.329843,0.135111,-0.338327,0.138379,0.068511,0.161374,0.195158,-0.304708,0.220819
-0.163754,-0.188354,0.376474,0.374485,-0.282910,0.261462,-0.146800,-0.003424,-0.165066,-0.339348,-0.054874,-0.197600,0.276883,0.075103,-0.034592,-0.240899,-0.183065,-0.355339
-0.169684,-0.048634,0.103057,0.099474,-0.116936,-0.059557,-0.301009,-0.249693,0.224600,0.353766,-0.342655,0.092579,-0.315994,-0.192349,0.109920,-0.309585,-0.340638,0.340232
0.379599,0.259148,0.038483,0.069749,-0.338690,-0.312509,-0.355628,-0.004664,-0.281137,0.265873,0.009569,0.065659,-0.303043,0.088991,0.311727,0.159418,-0.163647,0.200697
-0.082386,0.379012,0.203513,0.259011,-0.162748,-0.239391,0.174966,-0.441637,-0.463495,0.112435,-0.112206,-0.088292,0.083112,-0.048046,0.150288,-0.219627,-0.195993,-0.255537
0.357435,-0.253403,-0.115821,-0.001027,-0.267557,-0.378193,-0.144016,-0.307275,0.430902,0.021398,0.131893,0.003008,-0.107421,0.198551,-0.363305,-0.157972,0.093793,-0.211166
-0.100160,-0.067834,0.261352,0.318124,-0.395704,-0.008985,-0.248407,0.328118,0.211766,-0.291101,-0.002725,0.117539,0.016306,-0.015368,-0.007608,0.272660,0.360805,0.375948
0.106068,-0.186988,0.200635,0.143564,-0.283665,-0.265865,0.194569,0.059657,-0.079011,0.254484,-0.148107,-0.127583,-0.152573,-0.417484,0.268300,0.239162,0.324031,-0.399232
0.182407,0.080986,-0.113042,0.232662,-0.139864,-0.391031,0.350709,-0.134289,-0.255708,-0.059355,-0.337788,0.138861,-0.212433,0.305692,-0.180221,-0.265101,-0.367438,-0.033519
0.252093,0.213538,0.160901,-0.364525,-0.156661,0.123294,-0.227922,-0.117253,-0.109078,-0.268676,-0.276993,-0.264487,0.125496,0.268468,-0.133146,0.275996,0.305914,0.347232
0.081410,-0.337497,0.178216,-0.160228,-0.285415,0.309721,-0.012792,0.217830,-0.355529,-0.019713,0.317659,0.136431,-0.003616,0.300967,-0.265952,0.274134,0.055456,0.333425
0.131447,0.091485,0.365329,0.026384,-0.175011,0.342339,0.008770,-0.232855,0.353712,-0.145239,0.308672,-0.181768,-0.363057,-0.152637,-0.285460,0.236574,0.087092,-0.251784
-0.155014,0.225866,0.380636,-0.192104,0.013064,-0.181989,0.227063,0.041157,-0.242089,0.006180,-0.385535,-0.138355,-0.249486,0.223461,-0.229858,-0.258202,-0.261110,0.361028
-0.389672,0.179320,-0.197081,0.425783,-0.407922,-0.007571,-0.037746,-0.081012,-0.344403,0.073742,-0.353996,-0.223350,-0.074553,-0.029740,-0.096566,-0.220332,0.237079,0.040662
0.041093,0.329820,0.234980,0.210524,-0.379717,0.052429,-0.204441,0.162866,0.393642,-0.141299,0.303548,-0.241641,0.086037,0.271888,-0.121677,-0.109631,0.307439,0.215916
0.309689,0.215284,0.282197,0.305790,0.009713,0.140420,0.086241,0.027476,0.325269,0.257165,-0.345199,0.356885,0.284456,0.119005,0.021993,-0.208822,-0.295947,0.106693
-0.131174,-0.168044,0.394624,0.184798,-0.392461,-0.259381,-0.269228,0.338127,0.105107,-0.121861,0.233800,-0.015692,0.175605,0.024523,-0.047843,-0.429917,-0.102793,0.215941
0.255384,-0.096036,-0.090906,-0.403764,0.071870,0.306730,0.235780,-0.186211,-0.044698,-0.338655,-0.179049,0.274753,-0.069796,-0.133879,0.168811,-0.369327,0.379128,-0.095322
-0.198124,0.179551,0.286345,0.175220,-0.322536,0.111427,-0.148614,0.178365,-0.350169,-0.295753,0.337002,0.305406,0.208324,0.021759,0.111258,-0.221400,-0.027565,0.350010
0.153332,-0.117018,0.210346,0.194336,-0.257101,-0.191198,-0.138367,-0.252037,0.030694,0.342847,-0.347321,0.336454,-0.036039,-0.214806,0.321613,-0.074385,0.349598,-0.253990
0.281567,0.098271,-0.162961,-0.266857,0.285304,-0.259475,0.013930,-0.337199,-0.177149,-0.347561,0.306613,0.147623,0.001610,0.092373,-0.176172,0.404729,0.218655,0.177480
-0.261679,0.281751,0.203376,-0.030910,-0.363757,0.003230,0.218955,0.131701,0.360666,0.147728,-0.315765,-0.358867,0.000195,-0.217909,0.082978,0.099579,0.409283,-0.003568
-0.294144,0.290705,0.132855,-0.189126,-0.213745,0.219199,-0.120444,0.011148,0.082461,-0.080188,-0.188309,-0.359923,-0.388350,-0.299268,-0.072836,0.080376,-0.260608,-0.410964
0.117348,-0.138119,-0.342526,-0.022598,-0.337791,0.352824,-0.081399,-0.352545,0.221059,-0.090793,-0.034027,0.198961,-0.382028,0.083023,-0.173070,0.157567,-0.202933,-0.364915
-0.101106,-0.195418,0.382502,0.058473,0.177690,-0.131795,-0.256412,0.259108,0.376677,-0.256770,0.277096,0.047099,0.301354,0.352396,-0.118885,-0.216724,-0.225143,-0.080176
0.258651,0.332697,0.238857,0.170848,-0.019227,0.326937,-0.031955,-0.242677,0.010755,0.053145,-0.296578,0.332778,0.064099,-0.194955,0.385795,0.242096,0.186997,0.287799
0.053840,0.406406,0.399580,0.124430,-0.211027,-0.088398,-0.150515,0.087384,0.077597,0.174558,0.112874,-0.093336,-0.407867,-0.313475,0.312931,0.334236,0.152682,0.136504
-0.257053,-0.299539,0.268255,-0.371814,0.183270,0.160731,0.009916,-0.021744,0.148449,0.363214,0.051723,-0.086220,0.353404,0.076467,0.085469,0.283564,0.371803,-0.230731
0.228976,0.055499,0.082408,-0.047956,0.290550,0.348144,-0.260623,-0.350990,0.106440,0.114245,-0.242078,0.346603,0.319471,0.224011,0.297369,-0.160367,-0.133220,-0.226724
0.268201,0.177304,-0.134796,0.372783,0.273062,-0.012898,0.477010,0.341290,-0.123576,0.132318,0.220979,0.234860,-0.243732,-0.021173,0.127273,-0.290808,0.097292,0.117857
-0.018865,-0.242840,0.021748,-0.319248,0.002286,0.417110,-0.048138,-0.319090,0.320426,-0.307539,-0.052404,0.027198,0.289857,0.266062,0.071287,0.399626,0.064106,-0.189000
-0.312781,-0.214948,0.376435,-0.204578,0.154016,0.113707,-0.418648,0.017929,0.048219,0.075031,-0.202552,-0.134461,0.075474,0.409684,0.302676,0.341085,0.038122,-0.100834
0.134952,-0.246128,0.054074,0.427986,0.131010,0.406657,-0.144969,-0.352367,-0.150078,-0.180319,0.187824,-0.060897,-0.259855,-0.286582,0.184431,0.090614,-0.046974,0.345384
-0.342313,-0.205730,-0.345388,0.092928,0.163544,0.022923,0.327424,0.276335,-0.297019,-0.081750,0.016609,0.251203,0.278640,-0.258133,-0.114920,-0.190677,0.184493,0.339959
-0.057994,0.267873,0.367557,0.011464,0.218933,-0.167806,0.070340,0.070176,0.361869,0.279377,0.375341,0.001694,-0.334142,-0.168117,0.352724,0.193428,0.227119,-0.021859
-0.079395,-0.339489,-0.086703,-0.317346,0.383267,-0.147658,0.053485,0.246509,0.340545,0.054744,-0.071635,0.204182,0.021931,-0.080585,0.344690,0.141139,0.357953,0.313475
-0.032839,-0.220374,-0.118583,0.270803,0.069412,0.317579,0.257126,-0.294623,0.307458,0.165740,-0.102137,-0.311639,-0.235220,-0.073574,-0.146400,-0.294151,0.342991,0.297449
0.095198,-0.256607,-0.258589,0.048840,-0.321386,-0.244789,0.123134,-0.153737,-0.028104,0.192916,0.278660,-0.187257,-0.180230,-0.384337,-0.287999,0.349364,-0.023242,-0.342592
0.083678,-0.068129,-0.167529,-0.159663,0.441181,-0.115120,-0.224993,0.094894,0.191896,0.435646,0.259273,0.126576,-0.161337,-0.360451,-0.122155,-0.141311,-0.337392,0.229662
0.180518,-0.253747,-0.345678,-0.078304,-0.134523,0.093710,0.338968,0.086635,-0.021381,-0.327172,0.288181,0.036495,-0.341069,-0.216323,-0.321887,0.341720,-0.140896,-0.181331
0.179720,0.280855,0.081517,0.223381,0.157420,-0.116899,-0.316352,0.213862,-0.035878,-0.130096,0.232703,-0.074918,-0.410796,0.307428,0.404421,0.117654,0.332865,-0.136093
0.189957,0.031699,0.327345,-0.172763,0.144969,-0.345426,0.333833,0.100680,0.001987,0.270699,-0.223086,0.042554,0.339765,-0.122214,0.351463,-0.344686,-0.228633,0.119581
-0.305472,-0.320095,-0.290090,-0.342148,0.185235,0.259414,-0.375753,-0.191752,-0.190871,0.295608,-0.053853,0.126060,0.124049,0.208955,-0.203430,0.269939,0.039630,-0.060183
0.303893,0.110956,-0.163559,-0.343239,-0.073865,0.052349,0.313655,-0.374041,0.001702,-0.348132,0.112759,0.294394,0.247809,0.138053,-0.218125,0.326792,0.060924,-0.208651
0.243757,0.208970,-0.218521,0.420619,0.249237,0.133790,0.195764,0.017818,0.244862,-0.028958,0.146752,0.256987,-0.200844,-0.166046,-0.133711,-0.198150,-0.358363,0.389661
0.273687,0.098197,0.301192,-0.398965,-0.118318,-0.307472,0.279482,0.257478,0.078697,-0.167544,0.116771,-0.199735,0.054210,-0.242968,0.317748,0.084880,0.070071,-0.387014
-0.261024,-0.215865,0.316820,0.338656,0.027465,-0.353149,-0.281077,-0.068882,0.060542,-0.065045,-0.270201,-0.067712,-0.310324,-0.028355,-0.150139,0.147419,-0.278435,-0.395715
-0.220365,-0.250060,0.065456,-0.179025,-0.103872,0.198147,0.286763,-0.337433,-0.019826,-0.121532,-0.292111,-0.341129,-0.193954,-0.045683,-0.021814,0.296066,-0.338339,-0.383743
0.207632,-0.287813,0.097037,0.286127,-0.231824,-0.164599,-0.083497,-0.223117,-0.349090,0.402082,-0.028455,0.047365,-0.109522,-0.397300,-0.331895,0.148994,-0.204943,-0.119979
0.308770,0.104255,0.365618,0.355349,0.278561,0.073615,0.078482,-0.108532,-0.010937,0.336380,0.135479,-0.304197,-0.286394,-0.119751,-0.307473,0.163341,-0.079791,-0.291166
0.346792,0.118210,-0.234361,0.254708,0.351962,-0.355911,-0.110970,-0.277370,0.298336,0.027067,-0.229003,0.010353,0.077736,-0.171929,0.351976,0.273644,-0.056889,-0.162073
0.298611,0.304550,-0.264446,0.077937,0.185321,-0.304381,0.239376,0.339647,-0.239209,-0.234085,0.146278,-0.027686,-0.188795,-0.230861,-0.136714,-0.128069,-0.210336,-0.374123
-0.051723,0.076799,0.407691,-0.161687,0.401900,0.364789,-0.057656,0.337222,-0.048547,-0.002507,-0.044062,-0.031507,0.226279,0.362711,0.329580,0.229723,-0.089974,-0.172873
0.244971,0.174777,-0.209302,-0.128296,-0.076103,0.377372,-0.031696,0.014931,-0.279363,-0.192548,0.346200,0.248187,-0.235332,-0.082932,0.309470,-0.269400,0.374030,0.180754
0.165619,0.257871,0.351853,-0.212364,0.028379,0.241819,0.179183,0.141215,-0.098216,-0.138636,0.262822,0.411621,-0.348577,0.023992,0.149671,0.204275,0.414150,0.027197
-0.287092,0.269780,-0.193932,0.291613,-0.168238,0.293726,-0.293555,0.005992,-0.339303,0.108754,0.350183,0.188970,0.303605,0.303655,0.180701,-0.086427,0.019063,0.105830
0.290204,-0.227061,-0.393467,0.229620,-0.377350,-0.305905,-0.156464,0.115244,-0.233928,-0.260973,0.203703,-0.117251,-0.340084,0.017765,-0.060739,-0.188594,-0.115943,-0.190278
-0.415841,0.294635,0.243729,-0.221446,0.230789,-0.062488,-0.155279,0.001720,-0.193768,-0.161951,-0.388445,-0.182897,-0.152184,0.075783,0.325989,0.296028,0.268041,-0.088185
-0.365193,0.247738,0.138542,0.007508,0.134771,0.109663,0.078036,0.262185,-0.244367,0.254753,0.307261,0.157409,0.280922,-0.265744,0.347815,-0.225920,0.331038,-0.077780
-0.151567,0.143409,-0.150972,0.325773,-0.138654,0.007357,-0.265418,-0.408745,-0.380648,0.392992,0.306146,0.151430,0.006730,0.243322,0.152421,0.018855,0.169419,-0.207868
-0.104832,-0.227567,-0.121746,-0.047438,-0.341931,0.282538,0.591267,-0.052104,0.007394,-0.339208,-0.302658,0.099435,0.159587,-0.297620,0.105636,0.038794,0.165978,-0.015193
0.022245,-0.332125,-0.027892,0.289114,-0.046396,0.299144,-0.135106,-0.096148,-0.310143,-0.253543,-0.221838,-0.169331,0.336130,-0.362773,-0.296340,-0.006193,0.180417,-0.286957
0.193682,0.170219,0.038557,-0.032947,-0.270001,0.293174,0.246125,-0.363034,-0.339014,-0.080250,0.237406,0.100726,-0.378789,-0.209912,0.325260,-0.065707,0.069694,0.298877
-0.062753,-0.227629,0.220110,-0.315203,0.290406,0.156307,0.218542,-0.098074,0.253148,0.069383,-0.127748,0.065252,0.246847,-0.420129,0.036007,0.418490,0.163080,0.316790
0.030393,0.298828,0.151203,-0.112678,0.306790,-0.063512,-0.326608,0.187581,-0.249085,0.148014,0.275797,0.333111,-0.353045,-0.242905,-0.089457,-0.278191,-0.011654,-0.306686
0.359982,-0.273415,-0.250890,-0.046497,0.189086,0.015541,0.367517,0.003366,-0.340060,0.234413,0.218378,0.156249,-0.183202,-0.175639,-0.045058,-0.350640,0.290824,-0.206910
-0.077509,0.238752,-0.261322,-0.362361,-0.331921,-0.293140,-0.212787,0.078493,0.307914,-0.127564,0.188102,0.011812,-0.269210,0.016388,-0.007480,-0.157500,-0.337968,0.362518
0.265814,0.241929,-0.135388,-0.209035,0.401175,0.165790,0.351083,-0.037795,-0.307318,0.295702,0.115458,-0.056919,-0.387191,-0.155924,-0.137832,0.269105,0.113627,0.136610
0.058269,-0.276702,-0.287907,-0.181568,0.246300,-0.221272,0.280282,0.077969,0.250414,0.270299,-0.379571,0.117352,0.145404,-0.224717,-0.062185,-0.307066,0.382135,0.021976
-0.323349,0.399925,-0.219572,-0.245513,-0.148772,0.312549,-0.045291,-0.235921,0.134665,-0.171735,-0.360490,-0.336587,0.080514,0.155953,0.079954,-0.185037,0.170428,0.241111
-0.096010,0.251536,0.203827,0.156905,0.212513,-0.296828,0.298588,-0.094426,0.126852,0.368046,0.287043,0.085235,-0.138904,-0.309640,-0.145496,-0.334077,0.137642,-0.349151
-0.374961,0.142057,0.037159,-0.437334,-0.042624,0.052966,-0.334485,-0.151005,0.099431,-0.085600,0.145320,0.014364,0.364710,-0.356330,-0.039081,-0.001693,-0.329017,-0.314599
-0.175575,0.233059,0.077458,-0.261744,-0.183349,-0.183919,-0.281206,0.236000,-0.169322,-0.344962,-0.278255,-0.199278,-0.287179,-0.152921,-0.142497,-0.133582,-0.355520,0.320819
0.020260,-0.215464,0.207526,-0.318548,-0.264212,0.130820,-0.131928,-0.256473,0.260635,-0.095654,0.277954,-0.057253,-0.241780,-0.277347,0.179935,0.379545,0.159123,-0.379174
0.056876,-0.193168,0.318996,-0.269250,0.065085,-0.028946,0.262701,-0.245964,0.275205,0.180863,-0.073789,0.355744,-0.171273,0.136963,0.203287,0.344110,-0.343579,0.290326
0.229102,0.267901,-0.170878,-0.322029,-0.160568,0.332663,-0.279903,-0.079436,-0.291042,-0.279158,0.188078,-0.247611,0.344268,-0.221674,-0.223160,-0.010054,0.193481,0.086152
0.100388,-0.360637,0.382276,0.384969,0.221685,-0.227356,-0.113604,0.300851,0.025145,0.100435,0.044829,-0.373365,-0.015616,-0.200759,0.105013,-0.060164,-0.392357,-0.002326
-0.320487,-0.336175,0.213945,0.291290,-0.118112,-0.283841,-0.125274,-0.081328,-0.328926,0.221445,0.246742,-0.299864,0.034949,0.036154,-0.342174,-0.182032,-0.275715,-0.005732
0.380386,0.143806,-0.059796,0.085788,0.195161,-0.056192,0.006383,-0.471536,-0.100549,-0.039096,-0.309102,-0.173205,-0.339326,0.137198,0.264984,0.320592,0.188057,0.283814
0.024907,-0.312802,0.259312,0.129957,0.326765,-0.334458,-0.181290,0.282568,0.070516,-0.305858,0.169936,-0.057477,-0.052481,-0.287575,0.274667,-0.357710,0.257400,-0.015654
0.152162,0.112775,-0.400909,-0.308799,0.195147,0.265502,0.357479,-0.113633,-0.071619,0.130900,0.346369,0.133785,0.128568,-0.256770,-0.371905,-0.250987,0.055694,-0.095510
-0.346171,-0.316766,-0.267480,-0.080812,0.321058,-0.216311,0.106361,0.185191,-0.055352,-0.350017,-0.009857,-0.353586,-0.070182,-0.239093,-0.313170,-0.223668,0.037861,-0.172601
0.151905,-0.041642,0.286099,-0.082720,-0.269550,0.093180,0.284028,-0.125375,-0.000272,-0.127746,0.535534,0.035267,0.095203,-0.428967,0.092703,0.260752,-0.218110,0.309007
0.206651,0.152869,-0.100394,0.258812,-0.351007,-0.106382,0.327952,-0.209131,-0.197824,0.259469,0.156256,0.336672,0.316936,-0.309595,0.328485,-0.025853,0.113906,0.079559
-0.215278,0.089042,-0.041024,-0.002137,0.113334,-0.050001,0.129626,0.457958,-0.181343,-0.048038,0.343395,-0.333692,0.442958,-0.164712,0.174872,-0.134665,0.373027,0.174398
-0.040912,-0.191022,-0.334633,-0.301554,-0.353119,0.072058,0.214841,-0.375886,0.048373,0.263141,-0.035385,-0.202088,-0.097061,0.054152,-0.383992,0.069778,0.379975,0.090874
-0.082621,-0.270297,-0.298725,0.271539,-0.227170,-0.162635,-0.242024,0.141430,-0.233903,-0.253730,0.115921,-0.353836,0.260326,-0.389126,0.335446,-0.037568,-0.078970,-0.058299
0.261635,-0.333873,-0.137128,-0.309947,-0.310391,0.000640,-0.225794,-0.326959,-0.272356,-0.312040,0.067598,-0.055870,-0.189468,-0.097319,0.145798,0.163632,0.320261,0.275223
-0.178344,0.041386,0.207802,0.045730,-0.000908,-0.105048,0.442983,0.020425,-0.317507,-0.177723,0.116400,-0.386495,0.349243,-0.042116,-0.232257,-0.105358,0.259680,0.402460
0.358705,-0.139214,0.267639,-0.063317,0.001687,-0.302459,-0.013808,0.239533,0.083966,0.213995,-0.144028,0.445121,0.034687,-0.302531,-0.140125,0.075009,-0.413376,-0.258202
0.033176,0.361494,0.153204,0.181704,0.258832,-0.351239,-0.211571,0.049296,-0.278326,0.316210,-0.345607,-0.305306,-0.094251,0.259346,0.159656,0.058681,0.080826,-0.269179
-0.159758,0.175868,-0.296723,0.309163,0.143211,-0.196597,0.065127,0.291851,0.057154,-0.357064,0.338338,0.158300,0.153217,-0.184179,-0.226037,-0.223200,-0.241865,-0.352481
-0.298144,-0.262050,0.334560,-0.044643,-0.242451,0.418473,0.261505,0.127006,-0.176414,-0.244794,-0.021344,-0.102891,-0.100301,-0.050661,-0.358380,-0.085860,0.017069,0.399105
0.228368,-0.219058,-0.310651,0.340938,-0.271734,0.347065,0.084517,0.133278,0.025033,0.318240,-0.122527,0.223946,0.130555,0.090494,0.168111,0.288786,-0.255577,-0.314069
0.228135,-0.355913,-0.256250,0.087412,-0.229962,0.136174,-0.282708,-0.112952,0.160916,-0.103673,0.348339,0.323404,0.027283,-0.149352,-0.180719,0.339912,0.261906,-0.285396
0.328018,0.297899,-0.348895,0.132369,0.085955,-0.361855,-0.149611,0.087859,-0.164003,-0.345088,0.298096,-0.044694,-0.272003,0.048828,-0.113864,-0.342127,-0.218179,0.071775
-0.181411,0.323143,-0.331377,0.360771,-0.199273,-0.142187,-0.005127,-0.290224,-0.200885,-0.058999,0.324530,0.013335,-0.017992,0.378587,-0.310815,-0.273102,0.095764,-0.071928
0.012168,0.339922,0.310430,0.330718,0.213807,0.093398,-0.346438,-0.212962,-0.137750,-0.124206,0.308138,-0.213196,0.197157,-0.297886,-0.055559,-0.021784,-0.305172,-0.244239
0.335734,-0.133253,-0.129241,-0.045916,-0.345389,0.199827,-0.218038,-0.103497,-0.067465,0.124285,-0.409024,0.047879,-0.202222,0.249227,-0.356830,-0.371252,0.195422,0.193116
0.174880,0.382629,-0.107260,0.376692,0.048180,0.012734,-0.033745,0.393073,-0.063858,0.152022,-0.143418,-0.038885,0.232887,0.405347,0.426997,-0.222273,0.070588,0.083400
-0.285675,-0.081415,-0.076551,0.307326,0.012968,0.483963,0.028295,0.256255,-0.175366,0.003523,-0.387650,0.187530,0.078221,0.384654,-0.061805,0.066743,0.236231,0.276104
0.247071,0.006409,-0.288762,-0.042857,0.088335,-0.147528,0.368731,-0.032569,0.140789,0.109646,-0.486584,-0.480660,-0.005460,-0.143438,0.143116,-0.175663,0.333903,0.063455
-0.242831,0.230066,0.233084,0.129394,0.239453,0.024432,-0.337901,-0.093304,0.311515,-0.015167,0.353464,0.311585,0.129137,-0.213118,-0.103467,-0.278837,0.291251,0.285556
-0.051077,-0.156721,0.036922,-0.018064,0.020166,0.378297,0.163347,0.325292,0.124179,0.208664,-0.364232,0.070796,-0.256599,-0.335538,0.242282,0.327536,-0.270691,-0.284267
0.084345,0.198428,0.046991,-0.072193,0.389280,-0.059157,-0.299323,-0.215503,-0.125910,0.268254,-0.250117,-0.149136,0.246023,0.049068,-0.284376,-0.256933,-0.322564,-0.410533
0.205136,0.241303,-0.284457,0.286566,-0.314393,0.285239,0.019692,-0.198636,0.067810,0.066422,0.331966,-0.227694,0.224728,-0.298161,0.101523,-0.285829,-0.119366,0.316063
0.271910,0.177543,0.035042,-0.036181,-0.295210,0.005613,-0.347612,-0.250331,0.371679,-0.319528,-0.154715,-0.182356,0.156100,-0.049224,0.247814,0.239805,0.354619,-0.228976
-0.110827,0.263610,0.225256,0.298342,-0.248364,-0.041928,-0.224730,0.287696,-0.238081,0.198169,0.312299,0.176910,0.145215,0.238936,-0.326534,0.302148,-0.228950,0.168730
0.008241,0.329360,0.155125,-0.154705,0.324332,0.169127,-0.003763,-0.418303,0.354220,0.270576,-0.005161,0.212890,-0.183587,0.077645,0.270173,0.383382,-0.115277,0.132816
-0.154164,-0.129554,-0.205915,-0.204368,-0.173896,0.077788,-0.311144,0.448572,0.271853,-0.125575,-0.260425,-0.219624,-0.394766,-0.170086,0.346683,-0.050074,0.005046,-0.166564
-0.175587,0.305276,0.148025,-0.436904,-0.109803,0.139411,-0.013132,-0.428182,0.237907,0.284569,-0.015797,0.182909,-0.138130,-0.360392,-0.079553,0.348356,0.010534,-0.011726
-0.312360,-0.131129,0.415580,-0.381013,0.079460,-0.157408,-0.029417,-0.066151,-0.454370,0.274075,0.106779,-0.314268,0.064925,-0.114660,-0.267059,0.158146,0.037554,-0.155525
-0.266796,0.247700,0.304715,0.174801,-0.327220,-0.090907,-0.356627,0.270247,-0.180439,-0.257273,0.302401,-0.314865,-0.196210,-0.088325,-0.179401,-0.139261,0.118947,-0.164757
-0.041824,0.314975,-0.001818,-0.124393,-0.153636,0.368919,-0.376411,-0.135992,-0.311077,0.247715,0.202908,-0.132795,-0.295193,-0.174139,0.310521,-0.181206,0.105050,-0.298303
-0.290506,0.231083,0.293937,-0.078289,-0.004139,0.352470,0.337890,0.050234,0.010142,-0.344610,0.056286,0.260430,0.297679,-0.099985,-0.102552,-0.280553,0.172311,0.348360
0.112714,0.387160,-0.400569,-0.251386,-0.248978,0.027453,-0.000619,0.284446,0.256769,0.241848,0.143859,0.144048,-0.124730,-0.076315,-0.320183,-0.166230,0.219353,0.323398
0.295934,-0.184807,-0.116455,0.201819,0.353121,0.290166,0.265867,-0.335587,-0.319207,-0.270722,-0.009618,-0.105303,-0.096082,-0.039442,0.338542,0.221659,-0.255432,0.075105
-0.329731,0.051052,-0.101005,-0.113214,-0.242511,0.354584,-0.274979,-0.183991,0.250379,0.101538,0.287621,-0.074332,-0.286860,-0.223721,0.282829,0.369275,0.196105,-0.152450
0.306923,0.005687,-0.343366,0.059395,-0.396879,0.255144,0.024283,0.258752,0.000808,0.314747,-0.204313,0.312366,-0.159858,0.247429,0.063548,0.046479,-0.304745,0.264496
0.345216,-0.180678,-0.165942,0.285326,-0.222375,-0.398403,-0.040222,0.185166,0.134039,-0.141401,0.148792,0.340490,0.341254,0.046277,0.083502,0.217236,0.373739,-0.081729
-0.069450,-0.163423,0.404534,0.279748,-0.113801,0.201294,0.186203,0.249880,-0.080382,-0.127040,-0.402780,-0.091644,-0.366197,0.243626,-0.330710,0.129024,-0.247663,-0.032649
-0.108874,0.087827,0.177552,-0.100396,0.197034,0.318573,0.381786,0.109869,-0.214409,-0.131158,0.195281,0.055312,-0.216076,0.029491,0.173351,0.268995,-0.055432,0.340169
0.487303,0.286224,0.533992,0.426554,-0.118823,0.208413,-0.047937,0.412862,0.100249,-0.304483,0.218660,-0.282207,0.114979,-0.503925,-0.035070,0.160724,-0.223748,0.355943
0.468069,-0.087964,0.257541,0.698675,0.127536,0.164222,0.126004,0.527527,-0.009132,-0.373893,-0.077431,-0.227325,0.525733,-0.309193,-0.038673,-0.188033,-0.346230,0.043141
-0.032547,0.349082,0.307703,0.411097,0.018175,-0.177640,-0.112664,0.370374,0.194721,0.150161,0.255370,-0.276102,0.477198,-0.106467,-0.222149,0.278692,-0.180882,-0.004951
0.167904,-0.245178,-0.252143,-0.180794,0.268019,0.204376,-0.179906,-0.226120,-0.226127,-0.266201,0.076676,0.303622,0.293377,-0.266027,-0.239489,-0.145742,-0.249762,-0.019598
0.122104,-0.015816,0.320194,-0.304348,0.088636,-0.368940,-0.165722,-0.056670,-0.298811,-0.350951,0.093085,0.207945,-0.394856,-0.250596,-0.182747,0.266661,-0.026422,0.139099
-0.065392,-0.304555,-0.141840,0.391701,-0.367838,0.303427,-0.166541,0.218403,0.015402,0.103294,0.068793,0.122151,-0.242748,-0.344292,-0.311975,-0.221174,0.265014,0.028465
0.110890,-0.279179,-0.245583,-0.340420,0.132067,0.094279,-0.142759,-0.071751,-0.275442,-0.360147,-0.397908,-0.335565,-0.027688,0.095643,0.098272,-0.139576,0.372013,0.151317
0.359596,-0.192943,0.048251,0.179109,0.427173,-0.233518,-0.170894,-0.042759,-0.387845,-0.010096,-0.115288,-0.066110,-0.044058,-0.180656,0.229600,0.443370,0.055452,0.269245
0.109914,0.328847,0.142787,-0.027032,-0.234042,0.389152,-0.132683,-0.216602,-0.082140,-0.010886,-0.140385,0.370979,0.395786,0.013051,0.221875,-0.378216,-0.244554,0.119613
-0.000884,0.070197,0.059038,-0.256821,0.012284,-0.100531,-0.228712,0.054776,0.369167,0.325886,-0.147003,-0.306568,-0.394609,-0.398610,-0.152436,-0.112153,-0.321944,-0.218728
0.195828,0.110110,0.211370,0.330453,-0.188927,0.173700,-0.347528,0.261277,-0.183356,0.232273,-0.300134,-0.247905,-0.314369,-0.044579,-0.006485,0.155085,0.272169,-0.320394
-0.146086,-0.123118,-0.397279,0.091564,-0.317390,0.156428,0.229878,-0.044458,-0.311393,-0.089140,-0.141404,0.243951,-0.355907,0.292166,-0.333873,0.195262,0.099222,0.247723
-0.145186,-0.264449,0.243939,-0.283794,0.320354,-0.024468,0.365184,0.223843,-0.102804,-0.126853,0.278580,-0.275580,-0.045644,0.311275,-0.205095,-0.382050,0.111138,0.051835
0.381656,-0.313942,-0.399406,-0.363814,0.063295,0.052443,-0.297968,-0.169037,0.207951,0.285570,-0.170133,-0.017262,-0.008286,-0.217893,0.299213,-0.067062,0.091119,-0.189383
0.159512,-0.138903,0.177138,-0.281811,0.315256,-0.092601,0.248084,0.140408,-0.295153,-0.176564,-0.191224,-0.278877,-0.315663,-0.346664,-0.060948,-0.220358,0.304423,0.240523
0.054687,-0.353808,0.148405,-0.293579,0.273133,-0.078329,-0.280840,-0.032014,0.018622,0.269458,0.409256,-0.194556,-0.107725,-0.098859,0.212943,0.481450,-0.100925,0.126433
-0.294144,-0.230941,-0.211323,0.327582,0.104692,-0.338878,-0.230300,0.151032,-0.021888,0.265422,-0.337746,0.252219,0.338840,0.289843,-0.105649,0.063762,-0.117847,0.173145
-0.301467,0.121777,0.246101,-0.322368,0.121337,-0.329731,-0.009287,0.117453,-0.021468,0.255103,-0.050746,-0.307723,-0.038341,-0.355796,-0.300535,0.306462,-0.006980,-0.342518
-0.149561,-0.260951,0.217751,0.028332,0.004666,-0.258894,0.335226,-0.086844,-0.236086,0.316763,0.045680,0.320380,-0.321941,-0.240221,0.128629,0.256940,0.369792,-0.181341
0.408436,0.226039,0.287045,-0.406833,-0.385857,0.109668,-0.286216,-0.170977,-0.087840,0.133176,0.187201,-0.080484,-0.017550,0.012749,0.137768,-0.010286,0.367129,0.201991
0.094315,0.338449,-0.267294,-0.364003,0.051486,0.334515,-0.265057,0.146031,-0.173180,-0.281601,0.288485,-0.291653,0.230918,-0.216057,-0.108421,0.219059,-0.166153,-0.039411
0.229757,-0.159155,-0.078814,0.002149,-0.267190,-0.212869,0.019220,-0.347919,0.112268,-0.250787,-0.289565,0.241650,-0.017647,0.023567,0.260270,0.356218,-0.347031,-0.379307
0.123968,-0.261876,-0.118630,0.000520,0.180363,0.262860,-0.234806,0.297689,-0.306673,0.336850,0.362270,0.100647,0.035066,0.321143,0.193633,0.339071,-0.013280,0.225197
-0.245950,0.349606,-0.162838,0.229223,0.276445,0.119229,-0.069665,0.180325,-0.230763,0.310482,-0.370569,-0.203092,0.003314,0.346349,0.263188,0.092356,0.177812,0.229380
-0.379086,-0.143832,-0.021788,0.027900,-0.329731,0.183873,-0.345316,0.412134,-0.179581,0.152620,-0.180523,-0.010883,0.267318,0.323619,0.177449,-0.306335,-0.101864,-0.050804
0.383880,0.308186,0.213548,0.118642,0.145879,-0.412992,0.272195,-0.163823,-0.010700,0.235191,-0.262049,0.227691,-0.107278,0.398267,-0.105793,0.178017,-0.116174,0.052551
0.193695,0.317600,-0.415207,-0.114818,0.144549,-0.288406,0.242276,0.262485,-0.096825,0.025783,0.113923,0.001379,-0.330592,0.152760,0.397791,0.107355,-0.310423,-0.150308
-0.206258,0.217217,0.252211,-0.229673,-0.232407,-0.171071,0.097347,0.428143,0.249948,0.250917,-0.288906,-0.215999,0.240560,0.190424,0.012347,-0.031685,0.407735,-0.027623
0.346577,-0.041117,-0.158461,0.136252,0.226697,0.222197,-0.341158,-0.007260,0.285524,0.287966,0.149904,-0.180670,-0.325459,-0.214996,0.314879,-0.341717,0.148882,-0.086726
0.387284,0.160160,0.338204,0.328744,-0.051859,-0.172963,-0.202783,0.338960,-0.063233,-0.131109,0.153508,0.070032,0.338328,0.167674,0.181987,-0.111222,-0.167245,-0.384172
0.344151,0.341651,0.118764,0.323073,-0.071899,0.076084,-0.154367,0.372544,-0.005350,-0.053491,0.243172,-0.231329,0.237372,-0.248914,-0.307129,-0.013021,0.100584,0.366501
0.148738,-0.189507,0.104089,-0.300654,-0.129042,0.167271,0.226171,-0.127775,-0.147443,0.362336,0.055976,0.422099,0.257088,-0.419639,-0.029291,-0.154446,0.355571,0.031057
0.331606,0.021801,0.195807,-0.142345,0.159367,-0.319251,0.323776,0.317502,-0.088826,0.084820,-0.215975,0.271289,-0.303126,-0.333494,-0.268969,-0.078396,0.045939,-0.281017
0.122978,-0.157356,-0.014889,-0.412552,-0.319109,-0.243956,-0.361166,-0.079522,-0.186477,0.309779,-0.415207,0.037034,-0.205238,-0.095050,0.010760,0.251814,0.218477,0.157047
0.344246,0.206033,0.225902,-0.045530,0.356243,0.334614,0.362268,0.073459,-0.312135,-0.216408,-0.011614,0.253517,0.072227,0.143733,-0.121556,0.130175,-0.341578,-0.165806
-0.083314,0.403728,-0.346484,-0.136378,-0.256380,-0.340792,0.445008,0.166550,-0.053768,0.048970,0.183769,0.228166,0.032538,0.156075,0.271744,-0.195257,0.220114,-0.082542
-0.214132,-0.237786,0.096457,-0.091915,-0.337066,0.310988,-0.210885,0.138481,-0.292561,-0.314033,0.029566,0.176440,0.134306,0.202023,-0.234689,-0.340258,0.250347,-0.311903
0.364557,0.316806,0.332268,-0.110761,0.000521,-0.171163,0.353050,-0.349391,0.283771,-0.186249,-0.225322,-0.130735,-0.046593,0.075886,-0.323513,0.159895,-0.103302,-0.190110
0.497265,0.065562,0.098495,0.368398,0.039682,0.272114,-0.010636,0.254426,0.182942,-0.199231,0.245744,0.122178,-0.024279,-0.251393,0.115101,-0.297887,0.190532,0.077587
0.792187,0.252369,0.863436,1.036171,-0.278778,0.023866,0.595254,1.242061,-0.080889,-0.233322,-0.101971,-0.184316,0.579751,-1.125495,-0.279981,-0.108110,-0.476001,0.146199
1.003380,0.537861,1.404108,1.451915,-0.240615,-0.134172,0.693457,1.678310,-0.259994,-0.202692,-0.210487,-0.270966,0.899547,-1.513840,-0.305345,-0.297767,-0.716083,0.360324
0.934396,0.550407,1.389763,1.485359,-0.227515,-0.130928,0.687436,1.711265,-0.272490,-0.242040,-0.165977,-0.324090,0.862379,-1.473317,-0.293240,-0.230509,-0.670990,0.402165
0.633493,0.400553,1.193584,1.179529,-0.060129,-0.166279,0.562276,1.182301,-0.160051,-0.147012,-0.157108,-0.207978,0.786046,-1.173751,-0.269988,-0.230081,-0.610002,0.330013
0.622129,0.676574,0.401287,0.750290,0.147105,0.131629,0.056091,0.833970,0.129711,0.059238,-0.124308,-0.120300,0.120539,-0.365839,-0.188801,-0.064631,-0.029498,0.307967
1.023927,1.724105,0.729882,1.105101,-0.191630,-0.102608,0.376878,1.337760,-0.199572,-0.108913,-0.001593,-0.061426,0.567649,-0.911763,-0.118366,-0.113553,-0.419100,0.110481
0.453504,0.630664,0.299710,0.351134,0.197643,0.164745,-0.044583,0.653841,-0.306534,0.124141,-0.043779,-0.178451,-0.143644,-0.280202,0.036765,-0.317650,-0.123523,0.237008
0.052832,0.348826,-0.249469,0.393980,0.314641,0.210415,0.236002,0.472703,0.153675,0.265328,0.144933,0.066366,-0.112230,-0.018095,-0.258457,0.107961,-0.105994,0.221671
-0.061391,0.275935,-0.069172,0.070004,0.072098,-0.281677,0.322941,0.061292,0.160253,0.225358,-0.195899,-0.171955,-0.269283,0.007560,0.017156,-0.262106,0.150829,-0.014566
0.029857,0.143013,-0.136995,0.325304,-0.165415,-0.240591,-0.339676,0.456379,0.197506,0.232477,-0.091680,0.099597,0.038882,-0.119491,-0.289504,-0.376246,0.224270,-0.118798
-0.190971,-0.357284,-0.082636,-0.214041,0.265953,-0.343993,0.166788,-0.179744,0.270384,0.241359,-0.237557,0.185516,0.106534,-0.396884,-0.176130,0.295710,-0.002519,0.007935
-0.132147,0.295770,-0.058543,0.230820,0.070118,0.176796,0.373225,-0.016870,-0.299026,-0.257482,-0.037062,0.106083,0.248409,0.346590,0.020354,-0.363606,0.265976,-0.330076
-0.294284,-0.288824,0.207055,-0.281290,0.087216,0.307563,-0.038452,-0.388937,-0.353618,-0.154856,0.211905,0.156274,-0.200715,-0.007658,-0.026802,-0.400500,-0.136644,0.120466
-0.249083,-0.106322,-0.191727,-0.384880,0.172722,0.346603,-0.072408,0.231331,-0.356552,0.350242,0.182869,-0.092459,0.030662,0.011276,0.269958,0.129354,0.380398,-0.076546
0.254549,0.009689,-0.280919,0.238266,-0.001067,-0.321389,-0.271337,-0.301706,-0.314086,-0.331797,0.294059,0.090590,0.310042,-0.064409,0.033832,0.124601,0.201807,-0.265311
-0.309429,-0.349391,-0.328635,-0.198150,-0.093577,-0.168492,0.269978,-0.125170,-0.095754,0.229529,-0.050291,0.295014,-0.292662,0.016216,0.279367,-0.266283,-0.174232,-0.304260
-0.183680,0.149271,0.253951,-0.174586,0.172532,-0.338539,-0.034364,0.242583,0.289852,-0.299783,-0.026081,0.230189,-0.262699,0.176577,-0.187306,0.340740,0.231755,0.334613
0.177486,0.022354,-0.244544,0.307019,-0.009682,-0.305176,-0.032071,-0.285867,0.271077,-0.209182,-0.243643,-0.260546,0.182166,0.133978,-0.326672,0.280569,-0.213347,0.333754
-0.411029,-0.118753,0.052272,0.013904,0.154805,0.176637,0.261823,0.373313,0.230300,0.308576,0.037265,0.042930,0.145255,-0.373467,0.132089,0.288632,-0.124592,0.350149
0.114731,-0.062185,0.255670,-0.004377,-0.387186,-0.342166,0.329912,0.253179,0.256522,0.123899,-0.096263,0.254655,0.227790,-0.210860,-0.258587,0.352834,-0.119836,0.142516
0.202046,0.181888,-0.274821,-0.096402,-0.031971,-0.024143,-0.236680,-0.338074,0.239644,-0.368311,0.199318,0.307344,-0.283329,-0.332884,0.079764,-0.048457,-0.133947,0.352630
0.237779,0.013037,0.287729,-0.301533,-0.303255,-0.208473,0.361058,-0.120973,-0.235437,0.057608,-0.142043,0.359956,0.312784,-0.325794,0.119999,0.037112,-0.088045,-0.230564
0.014970,-0.221185,0.405146,-0.327900,0.221384,-0.126469,-0.045506,0.229639,-0.073971,0.062046,0.405503,0.420040,-0.261108,0.093225,-0.171652,-0.067433,0.058312,-0.308078
0.301541,-0.273011,0.254910,-0.311503,0.210106,-0.117163,-0.051280,0.069654,-0.302744,-0.002808,-0.360240,-0.034719,-0.394297,-0.105970,0.276144,0.117559,-0.203519,0.293831
0.272592,-0.314836,0.153234,0.186883,0.114523,0.150896,-0.055713,0.037758,0.228004,0.334247,-0.389831,-0.330604,-0.052229,-0.085760,0.346233,-0.358252,-0.158423,-0.139194
0.097710,-0.310370,0.185857,-0.237002,0.239686,-0.293721,-0.123290,-0.016364,0.032971,0.329526,-0.248451,-0.245877,-0.280979,0.354262,0.076409,0.303490,-0.170369,0.284503
-0.037240,0.210115,0.315379,0.128652,0.173073,-0.232442,0.278585,0.311695,-0.000575,0.281729,0.220230,-0.216948,0.049968,0.418494,0.227985,-0.208545,-0.359139,-0.051775
-0.157020,0.145772,0.161157,0.081840,-0.074990,0.206095,-0.242087,0.366814,-0.362599,0.180571,0.310423,-0.369224,-0.182193,0.319391,-0.185344,-0.078048,0.021898,-0.327518
0.186221,0.265785,-0.282012,-0.300184,0.076763,0.154306,-0.302350,0.212923,0.300471,0.172956,-0.151091,0.012373,-0.084493,0.232087,-0.324223,0.331181,0.344560,0.144495
0.297571,0.349103,0.111916,-0.250822,-0.142809,-0.011829,-0.324602,-0.055471,-0.219847,0.380794,-0.189306,0.330264,-0.057489,0.027069,0.259506,-0.403457,-0.058019,0.096906
0.282812,0.049922,0.299706,0.293416,0.202965,0.326621,-0.252054,0.148731,-0.369137,0.078647,0.352196,0.036619,-0.282821,0.130768,0.187095,0.171412,0.276317,-0.049236
0.348672,-0.286582,-0.072955,0.075122,-0.260376,-0.032040,-0.237777,-0.315384,0.165135,-0.250879,-0.109893,-0.084213,-0.299691,0.299069,-0.321146,-0.271768,0.305840,0.036602
-0.343148,0.269331,0.331624,-0.030810,-0.153723,0.033239,-0.037108,0.343405,-0.458682,0.292364,0.173063,0.434354,0.078604,0.002197,0.052021,-0.066761,-0.075555,0.145642
-0.308319,-0.307002,0.166602,-0.302124,0.329545,0.357172,-0.130151,-0.139419,-0.126352,0.126154,0.001363,-0.331464,0.096015,-0.237500,0.364995,-0.090278,-0.086298,0.250821
-0.001159,-0.355942,-0.105784,-0.046510,-0.002650,-0.183865,0.286431,0.252905,-0.129218,-0.335996,0.364054,0.045950,0.393143,0.122270,0.388695,-0.056251,0.128992,0.274768
-0.056869,-0.351418,0.047507,-0.212340,-0.078317,0.278894,-0.303206,0.063797,0.146075,-0.045369,-0.082622,0.265221,0.249537,-0.404200,-0.085587,-0.380842,-0.078922,0.401498
0.326446,-0.005378,0.252251,0.056522,0.274912,-0.139536,-0.397408,0.288138,0.094100,0.177001,-0.383328,-0.012754,-0.056371,0.356623,0.053514,0.094759,0.035092,0.399819
0.073967,0.137862,0.166041,0.300559,-0.018583,-0.354131,-0.108013,0.134618,0.069183,-0.265831,-0.426107,0.011251,-0.182605,0.328958,-0.212161,-0.293948,0.381239,-0.163124
-0.176683,0.200823,-0.010467,-0.365012,-0.304638,0.369555,-0.127547,0.255289,-0.024122,-0.351490,-0.168176,-0.278429,-0.283990,0.222335,-0.135129,0.300381,-0.033412,-0.121133
0.742683,0.510104,1.067900,1.154242,-0.258462,-0.042933,0.668509,1.386123,-0.117717,-0.225082,-0.097220,-0.215295,0.571954,-1.745407,-0.129880,-0.282694,-0.444868,0.251361
1.040208,0.572786,1.494527,1.622398,-0.226255,-0.143098,0.775095,1.836653,-0.299222,-0.255751,-0.226913,-0.346291,0.820953,-2.354391,-0.313423,-0.292359,-0.737187,0.452547
1.074097,0.598260,1.523055,1.651355,-0.229280,-0.142921,0.768511,1.838732,-0.296176,-0.224245,-0.211832,-0.325063,0.925475,-1.755286,-0.314683,-0.293996,-0.740471,0.450072
1.123023,0.877062,1.454839,1.627495,-0.012609,-0.131335,0.693794,1.742473,-0.013611,-0.195401,-0.188237,-0.294220,0.821012,-1.567965,-0.278077,-0.284148,-0.717565,0.452120
1.212112,1.574284,1.244989,1.564126,0.350576,-0.118821,0.520715,1.545887,0.274470,-0.080792,-0.087707,-0.159220,0.530340,-1.096316,-0.213474,-0.264672,-0.654682,0.446713
1.150359,2.295042,1.079167,1.467522,-0.110188,-0.180855,0.452770,1.571384,0.639776,0.276755,0.485667,0.553921,0.391493,-0.630076,-0.294322,-0.293148,-0.597562,0.399800
1.146611,2.363435,1.078139,1.487888,-0.240074,-0.188353,0.513497,1.692996,-0.077435,-0.014128,0.028352,-0.103244,0.370198,-1.974152,-0.085730,-0.294014,-0.602469,0.386576
1.027519,2.286337,1.036199,1.391170,-0.263056,-0.202264,0.443774,1.561938,-0.259371,-0.164028,-0.193085,-0.320711,0.324875,-0.212433,-0.312185,-0.293291,-0.601386,0.405653
0.853549,1.891563,0.953483,1.248495,-0.140099,-0.238978,0.233157,1.121090,-0.242997,-0.162939,-0.175699,-0.293558,0.064257,-0.583577,-0.286597,-0.286187,-0.520014,0.431178
0.826601,2.043395,1.001791,1.296080,-0.300969,-0.236972,0.261862,1.127823,-0.308724,-0.210243,-0.241275,-0.306215,-0.062829,-0.958598,-0.285755,-0.285692,-0.569580,0.430292
0.490426,1.505477,0.816252,0.943001,-0.119721,-0.188546,0.113446,0.728092,-0.297633,-0.041789,-0.132228,-0.194104,0.037006,-0.783024,-0.170670,-0.289137,-0.362358,0.316381
0.007357,-0.156723,0.330984,-0.312465,-0.114192,-0.006489,-0.092226,0.241212,-0.229982,-0.120115,-0.103320,-0.204638,0.133934,0.319467,0.214507,-0.049708,-0.034877,-0.317007
-0.353049,-0.313758,0.273537,-0.301342,-0.170000,0.030796,-0.064842,0.354934,-0.010988,0.183187,0.288625,0.054588,0.043908,0.094500,0.249586,-0.076056,0.358635,0.336126
0.202181,-0.053344,0.298746,0.185553,-0.131852,0.314116,-0.310960,0.377247,0.198170,0.070899,-0.080604,-0.281539,0.025352,-0.344541,0.281182,-0.056411,-0.377671,0.020791
-0.089154,-0.153776,-0.352272,0.341188,-0.343829,-0.279859,-0.172364,0.036174,0.023558,-0.205056,0.138321,-0.231412,-0.322257,0.111012,-0.184069,-0.245529,-0.359923,0.202563
-0.240653,0.285887,-0.126467,-0.133568,0.281833,-0.379280,0.015767,-0.233103,-0.132628,-0.114087,-0.037622,0.243205,0.263778,0.197098,-0.353543,0.362651,-0.302060,0.020427
-0.132393,-0.403310,0.240537,0.117262,0.049103,-0.032217,0.257810,0.210930,0.321591,-0.159466,-0.001216,0.034310,-0.409629,0.015670,0.158911,-0.220441,-0.356455,-0.367217
0.094751,-0.315760,0.088641,0.000049,-0.018271,-0.321686,0.091902,-0.289998,-0.339945,-0.209730,-0.392417,-0.310700,-0.235224,0.163376,-0.176322,-0.033035,-0.255667,0.312179
-0.126241,0.286546,0.163251,-0.060669,0.198557,-0.309325,0.196735,0.172928,0.315282,-0.243994,0.296124,-0.354319,-0.281589,0.376773,-0.005425,0.152783,-0.165320,0.154234
-0.212616,-0.061430,-0.221101,0.384000,0.204140,0.162888,-0.030716,0.422411,-0.017942,-0.348617,-0.296928,-0.287457,-0.191721,-0.014612,0.191803,-0.197863,-0.079855,-0.308481
0.080564,0.332620,0.446444,0.122295,0.071614,0.326537,-0.365413,-0.120655,0.131560,0.251355,-0.403040,-0.067737,0.010144,0.305080,0.181315,-0.071924,-0.057087,-0.163598
-0.317346,-0.110721,0.225338,-0.227678,-0.259504,-0.144023,-0.096888,0.187425,-0.314866,-0.064366,-0.129778,0.238831,0.155803,0.217478,0.347945,-0.292759,-0.319793,-0.306659
-0.392331,0.077655,-0.310632,0.403581,0.006205,-0.141912,-0.005148,0.357834,0.263136,0.099067,0.032765,0.171475,-0.145829,-0.325355,0.323160,0.177693,0.214814,0.116705
-0.405212,0.323089,0.094686,0.066252,0.381529,0.118474,0.334271,-0.097524,0.174068,-0.092924,0.226959,-0.221740,0.109320,-0.046207,0.414750,0.248213,-0.211012,0.073213
0.093082,0.371723,0.371073,0.066812,-0.222558,-0.069470,-0.225882,-0.328256,0.069170,0.011139,-0.166559,0.192630,0.290018,-0.259120,0.365224,0.152854,0.332335,-0.098263
0.244988,0.043963,-0.111518,0.450101,-0.425477,0.252268,0.179823,-0.166261,0.001343,-0.129973,0.251168,-0.001894,0.203223,0.270427,-0.232920,-0.223965,-0.188695,0.289726
0.079564,0.362408,-0.023420,-0.285238,0.158557,0.316247,0.290524,0.272643,-0.137283,-0.256614,-0.280864,0.081967,0.042425,-0.375594,-0.241335,0.305632,-0.170390,0.051696
-0.192145,-0.154326,-0.362591,0.047660,-0.259748,0.165249,-0.398424,0.299111,-0.360421,-0.367054,-0.077256,-0.006284,-0.078731,-0.090863,0.220310,0.310690,-0.092790,0.154162
-0.078972,-0.027257,0.108209,0.074095,0.204004,-0.396064,0.004758,0.160979,-0.228723,-0.176845,-0.074940,0.079575,0.389765,0.375463,0.107254,-0.340972,0.299319,-0.381599
0.105032,0.217451,-0.124885,-0.137584,-0.248920,-0.182099,0.021132,-0.283958,-0.306718,0.332792,-0.409342,0.169354,-0.263409,0.308209,-0.217892,-0.252272,-0.155538,0.173792
0.208782,0.089783,-0.169119,-0.344604,0.227086,0.382059,-0.385008,0.246895,-0.363602,0.201702,0.132652,-0.169001,-0.133043,0.135571,-0.070848,-0.213846,-0.297256,0.005617
-0.215771,0.169114,-0.417555,-0.044563,0.120730,0.299223,-0.051189,0.298637,0.377084,0.129454,-0.119749,0.253062,-0.260181,-0.200627,0.253756,-0.007933,0.076079,0.370231
0.327886,0.335459,0.048731,0.348213,0.019353,0.303566,0.224764,-0.285326,-0.226869,0.261747,0.052045,-0.347066,0.215180,0.011664,-0.234373,-0.126592,0.230021,0.135741
0.148164,-0.103763,0.303318,-0.325449,0.089995,0.422787,0.127537,0.326551,0.308613,-0.325437,-0.215760,0.038527,-0.033908,-0.337822,-0.235163,-0.001553,0.040478,0.195474
-0.373887,0.015116,0.150187,0.299398,-0.081766,0.077115,-0.017041,0.305434,-0.283590,-0.279618,0.287558,-0.280763,0.154352,0.252527,0.256175,-0.238697,-0.282664,-0.177058
0.386952,0.321881,-0.322790,0.324819,-0.116761,0.135128,-0.083486,0.252319,0.126035,0.111251,-0.311833,-0.255756,-0.024000,-0.007420,-0.133172,-0.444452,0.165186,0.018168
-0.294311,0.050730,-0.249247,0.216335,-0.347496,-0.112145,0.303053,0.094280,0.264762,-0.212690,-0.157314,0.175731,0.345450,-0.357747,0.009721,0.047232,0.168715,0.344599
-0.111711,0.146373,0.170176,0.184038,0.168801,0.306604,-0.220348,-0.242811,-0.364057,0.154872,0.068657,0.033287,-0.333965,0.193663,0.345446,0.327303,0.114249,0.349800
0.072381,-0.090934,-0.108168,-0.097981,0.046035,0.013254,0.181053,-0.317246,0.222316,0.038721,-0.467249,0.386907,-0.265708,-0.003124,0.473816,-0.294729,0.055024,0.159763
0.042300,-0.092527,-0.324625,-0.092016,0.147965,0.384889,-0.435496,0.196106,-0.220570,-0.090649,0.301562,0.353497,0.203537,-0.061441,-0.332142,-0.066439,0.091481,-0.191263
1.204853,0.537385,1.406230,1.551516,0.559013,-0.062331,0.638513,1.569050,-0.197551,-0.225884,-0.202557,-0.310255,0.689177,-1.884444,0.247100,-0.292677,-0.729260,0.480390
1.610575,0.395696,1.265470,1.564150,1.605228,0.014839,0.317809,0.948113,-0.172889,-0.219241,-0.194897,-0.303448,0.709715,0.036696,-0.301982,-0.294010,-0.740856,0.559061
1.333515,0.780571,1.353980,1.577152,0.775797,-0.063109,0.512543,1.373271,0.340869,-0.171791,-0.165430,-0.208239,0.662685,-1.150342,-0.300605,-0.290515,-0.718265,0.503041
1.375434,2.075746,1.057498,1.550184,1.642902,-0.042666,0.158773,0.914852,2.120547,-0.065356,-0.123904,-0.140660,0.023810,-0.072558,-0.258435,-0.278646,-0.608733,0.527385
1.522688,2.153938,1.067184,1.553426,1.821495,-0.039629,0.057682,0.729166,1.308601,0.025968,-0.133506,-0.058914,0.015850,1.025294,-0.309289,-0.292473,-0.602477,0.553145
1.657320,2.166366,1.097807,1.607812,1.694184,-0.067402,-0.033998,0.530737,0.282245,-0.089046,-0.170827,-0.226299,0.190728,0.942433,-0.312354,-0.294001,-0.602469,0.571209
1.502430,2.313170,1.080932,1.565041,0.670341,-0.130477,0.271324,1.159468,-0.173479,-0.146537,-0.168320,-0.278254,0.495309,-0.312916,-0.238226,-0.294014,-0.602469,0.466854
1.563646,2.191895,1.052196,1.580115,1.274031,-0.110925,-0.008227,0.526516,-0.223935,-0.180295,-0.199985,-0.287299,0.345861,0.450330,-0.309754,-0.294013,-0.602468,0.565431
1.269882,2.149905,1.043158,1.485307,0.708601,-0.162530,0.062774,0.689818,-0.267873,-0.205589,-0.227084,-0.309629,0.116257,-0.188133,-0.314730,-0.294013,-0.602468,0.540102
0.850112,2.155523,1.037228,1.407491,-0.301571,-0.240823,0.254550,1.121390,-0.305819,-0.227237,-0.239679,-0.350298,-0.113844,-1.007398,-0.314733,-0.294013,-0.602468,0.470224
0.832434,2.124622,1.025374,1.262261,-0.304168,-0.233839,0.267298,1.141563,-0.301894,-0.218354,-0.230429,-0.307185,-0.070960,-0.957847,-0.312960,-0.289487,-0.592142,0.457371
0.455527,0.289861,0.340408,0.431850,0.208888,-0.081326,-0.167516,0.242907,-0.177238,0.068759,-0.163409,-0.200064,-0.263517,-0.110410,0.044972,-0.243759,0.053098,0.358015
0.000357,-0.355184,0.288401,0.325681,0.364848,-0.076090,0.194836,0.584768,0.136605,0.016042,-0.067607,-0.246193,0.011406,-0.073356,0.140392,-0.207374,-0.010362,-0.164216
0.321953,-0.219156,-0.149892,0.346914,0.822344,-0.091907,0.257744,0.679131,0.499652,0.010176,-0.156429,0.068239,-0.001263,0.250894,-0.052069,-0.081215,-0.056241,0.064844
0.002594,-0.043989,-0.035531,-0.016049,0.401117,0.324610,0.071683,0.719940,0.459984,0.142819,0.278175,0.163057,-0.179190,0.114530,-0.396817,0.135624,-0.133761,-0.271970
0.030690,-0.263992,0.474929,0.152476,-0.128211,0.214779,0.246702,-0.123111,0.180802,0.100621,-0.324308,-0.010265,-0.094043,0.363133,-0.289194,0.071135,-0.178652,0.283353
0.246978,-0.393593,-0.242635,0.005955,0.224383,-0.357719,0.086689,-0.085438,-0.034571,-0.364558,0.165925,-0.105677,0.044398,-0.245077,0.239313,0.098030,0.393149,-0.267855
-0.120079,0.320923,0.236381,0.218940,-0.160031,-0.088782,0.341527,0.259061,-0.316403,-0.019948,0.252537,0.157505,-0.048881,0.366998,0.284953,0.363873,0.028455,0.144594
-0.029829,0.085860,0.027127,0.344728,0.061305,-0.336945,0.222734,-0.405665,-0.049585,-0.143188,-0.269034,0.074712,-0.407051,-0.291594,-0.076706,0.381500,-0.081091,0.176232
-0.361381,0.286588,-0.162047,0.056776,0.365303,0.263497,0.272375,0.170242,-0.112602,0.158170,-0.220191,0.071553,0.001578,0.385736,0.326231,0.139782,-0.292660,0.005495
0.299936,0.015402,0.350990,0.218079,0.252868,-0.300016,-0.299140,-0.059240,-0.089046,0.120240,-0.223036,0.038245,0.172545,-0.358805,0.369106,0.176638,0.164905,-0.255656
-0.127264,0.073501,0.313677,-0.176664,-0.199101,0.193388,0.280894,-0.236133,-0.132714,0.340295,0.167279,-0.246255,0.350581,0.075478,0.124383,0.370236,-0.365000,-0.026176
-0.042072,0.204299,0.066876,0.086557,0.133362,0.106295,0.164433,0.285763,0.295321,0.220807,0.095804,0.073029,0.216091,-0.327009,0.396021,0.390970,0.195221,-0.393486
-0.107319,0.086469,-0.207814,-0.193850,0.130412,0.433975,-0.078125,0.427405,0.046720,-0.167012,-0.132769,0.362924,-0.041818,-0.414609,0.246202,-0.047763,0.291576,-0.071699
-0.083657,-0.034944,-0.040573,0.086616,-0.299449,0.144777,0.431567,0.388823,-0.467269,0.171191,-0.466877,0.139839,-0.179602,0.037717,0.078013,-0.056138,0.031746,0.073946
-0.298809,-0.175214,-0.198886,0.365150,0.330912,-0.359612,0.096942,-0.035191,0.207512,0.181017,-0.221031,-0.079719,-0.261580,-0.001918,-0.174805,0.160685,-0.348163,0.283908
0.242313,-0.222603,0.036689,-0.290000,-0.262652,-0.320443,-0.340885,0.320666,0.243129,0.132689,0.094011,-0.329124,0.133054,-0.004529,-0.178149,0.222990,-0.235981,0.258524
-0.409936,0.336493,-0.033768,-0.258862,-0.119351,-0.172943,-0.009334,-0.130646,0.282528,0.088157,0.308413,0.095893,0.094005,0.440033,0.092802,-0.419701,-0.067128,-0.074998
-0.443722,-0.083231,-0.282272,-0.034548,0.242891,0.202697,-0.024242,-0.059282,-0.109615,0.221832,-0.362839,0.087779,-0.117302,-0.330358,-0.068733,-0.376131,-0.311847,0.210243
0.261136,-0.133179,-0.063930,-0.301262,0.245192,0.082804,0.319877,-0.292638,0.234760,0.080381,-0.021053,0.303136,-0.333622,-0.197554,-0.215167,0.292345,-0.130308,-0.333630
0.116148,0.286058,-0.296666,-0.189433,-0.153394,-0.304243,0.395737,-0.193974,-0.034449,-0.010220,-0.023026,0.325568,-0.176779,0.384092,-0.313068,0.205717,-0.066623,-0.197724
-0.170997,0.099051,-0.072373,0.356890,-0.246627,0.148427,0.178942,0.237130,-0.278202,-0.257145,-0.046903,-0.329709,0.171835,0.342340,-0.008448,-0.191021,0.285229,-0.371707
-0.180176,-0.370561,0.280204,0.085100,0.053392,-0.194802,0.049406,0.145239,-0.254286,-0.052130,-0.128020,-0.338991,-0.375477,-0.208001,0.127128,0.004392,0.318067,-0.424091
0.100856,-0.439272,-0.385801,-0.262176,-0.088258,0.009596,0.362002,-0.313106,0.239432,-0.000697,-0.152246,0.137157,0.049486,0.372560,0.078038,0.297722,-0.028737,0.078759
-0.362260,-0.354924,0.104723,-0.087728,-0.320606,-0.077590,0.145941,-0.212285,-0.170683,-0.367511,0.058490,-0.400294,-0.136994,-0.067863,0.151569,0.143587,0.323853,0.221954
0.342298,-0.120013,0.081972,0.115457,0.242509,-0.106363,0.559019,0.155658,-0.254355,0.008965,-0.070151,-0.426258,-0.389671,0.156718,0.024727,0.034421,0.103769,0.034075
-0.153838,0.170946,0.076742,0.032241,0.310978,-0.203976,0.276201,0.265845,-0.318876,-0.317632,-0.167196,-0.308770,-0.172477,-0.139791,-0.319241,-0.249663,0.276405,0.197753
-0.410788,-0.078604,0.093753,0.358508,-0.087540,0.056709,-0.273286,-0.234460,0.282408,-0.213037,-0.319082,-0.110590,0.181693,0.045532,-0.085081,-0.351736,0.235293,-0.294335
0.344445,-0.287119,0.173870,-0.181631,0.269339,0.277948,-0.038125,-0.199763,-0.004159,0.339187,-0.156368,-0.309898,0.280981,-0.201126,-0.319001,0.226920,0.174097,0.077608
-0.076973,-0.199027,0.386278,0.348845,0.079335,-0.266172,0.378024,-0.068026,-0.020241,-0.339750,-0.314442,0.236996,0.052816,-0.109547,0.082428,-0.183185,0.194543,-0.308253
1.658930,0.393889,1.259847,1.561005,1.789764,0.035316,0.288558,0.896915,-0.098494,-0.219374,-0.193262,-0.310818,0.696518,0.292414,0.287505,-0.293753,-0.739945,0.564851
1.787968,0.415738,1.189259,1.600056,1.767438,-0.011517,0.094674,0.490765,-0.238362,-0.239122,-0.217976,-0.315310,0.752019,0.393380,-0.314535,-0.294014,-0.735141,0.603438
1.602303,1.304369,1.129689,1.562450,1.807272,-0.013114,0.134013,0.727602,0.379320,-0.107251,-0.182539,-0.098173,0.328971,0.334358,-0.313908,-0.293945,-0.666243,0.563005
1.701713,2.096568,1.103912,1.614206,1.800648,-0.068061,-0.097698,0.353871,2.743940,-0.012837,-0.132043,0.016608,0.258338,1.021559,-0.313949,-0.293807,-0.606656,0.597720
1.692810,2.152608,1.084260,1.642583,1.798444,-0.072754,-0.125050,0.283614,1.036401,0.073931,-0.045821,0.059740,0.274050,0.965899,-0.314728,-0.294013,-0.602498,0.605562
1.724162,2.142943,1.100552,1.620116,1.794566,-0.075884,-0.150792,0.276893,-0.028871,-0.152622,-0.214927,-0.313518,0.307356,1.146496,-0.314733,-0.294014,-0.602496,0.608770
1.724681,2.132774,1.059632,1.594579,1.767937,-0.088711,-0.174994,0.128844,-0.150428,-0.178635,-0.208402,-0.315218,0.355997,0.766368,-0.314729,-0.294014,-0.602542,0.625519
1.724612,2.153310,1.039761,1.689874,1.765848,-0.089324,-0.217175,0.055841,-0.276307,-0.222333,-0.221149,-0.283612,0.370129,0.540355,-0.314733,-0.294014,-0.602488,0.633555
1.517266,2.148032,1.045016,1.572183,1.286759,-0.121796,-0.070159,0.386750,-0.254555,-0.206634,-0.222909,-0.304924,0.253439,0.189806,-0.314721,-0.294014,-0.602470,0.587439
0.860422,2.158235,1.019866,1.327887,-0.286220,-0.239350,0.299060,1.246601,-0.305219,-0.232493,-0.238813,-0.355451,-0.057967,-1.186901,-0.314710,-0.294014,-0.602470,0.463104
0.808595,2.021106,0.957439,1.266159,-0.242127,-0.183859,0.269724,1.155993,-0.274147,-0.194260,-0.218151,-0.318792,-0.013581,-1.034835,-0.275409,-0.267997,-0.588818,0.427765
0.254212,0.183438,0.299116,0.415477,1.121888,0.129173,0.469417,1.040977,0.038346,-0.187317,-0.035738,-0.242966,-0.101775,-0.137842,-0.182511,-0.179574,-0.557708,0.228545
0.144497,-0.397807,0.059296,0.434356,1.915081,0.167925,0.596085,1.848601,0.297627,-0.009293,-0.030299,-0.064162,-0.464226,0.158930,-0.314480,-0.292200,-0.601737,0.033056
0.616707,-0.295495,0.268298,0.659364,1.925078,0.189517,0.637828,1.951333,1.491427,0.387504,0.073857,0.359867,-0.414317,0.217221,-0.314690,-0.293440,-0.602377,0.089054
0.019792,-0.421472,0.003647,0.372310,1.866092,0.149565,0.554227,1.763362,0.983142,0.123799,0.058196,0.167607,-0.460785,0.124842,-0.301789,0.737774,-0.582405,0.010385
0.032176,-0.285388,0.017513,0.129601,1.221483,0.197440,0.311475,1.070691,1.211207,0.201268,0.067815,0.182726,-0.305471,0.305510,-0.178264,-0.222766,-0.529934,-0.030615
-0.357390,0.317831,0.336361,0.308445,0.007903,0.085858,0.209349,-0.209544,0.048890,-0.070752,-0.298661,0.166549,0.082387,-0.035712,-0.008229,0.004637,-0.190841,0.054635
-0.305483,0.239792,0.381617,0.038212,0.119817,-0.379566,0.350224,-0.124775,-0.153814,0.313435,0.089045,-0.204964,-0.373398,-0.122808,-0.110761,0.164656,0.140775,0.136467
-0.384237,0.137282,-0.253745,0.290865,0.134999,-0.350903,0.200185,0.400260,0.160978,-0.103317,-0.178764,0.105993,-0.093256,0.208379,-0.100533,0.075180,-0.334757,-0.288389
-0.373752,0.105902,-0.136489,-0.028596,0.071776,-0.246999,-0.063774,0.094491,0.365004,-0.366983,0.309565,-0.058856,0.376056,-0.234765,-0.343759,-0.246310,0.079498,-0.040015
0.002797,-0.333379,-0.311096,-0.243879,-0.199404,0.177214,0.079888,-0.189251,0.122308,0.163547,0.316371,-0.177545,0.339973,-0.298875,-0.341223,0.136140,-0.325011,0.020016
0.096655,0.189190,0.057252,0.049795,-0.133473,0.268955,0.347659,0.096845,-0.220337,-0.347104,0.268425,0.269335,0.356042,0.240798,-0.323879,-0.283470,-0.005969,-0.212249
-0.340349,0.255569,-0.125515,-0.208134,-0.196252,-0.308059,0.211813,-0.278949,-0.138330,-0.339555,0.012458,-0.348302,-0.287036,0.123047,-0.087949,-0.273672,-0.166485,-0.199750
0.175521,0.365483,0.094125,0.051256,-0.396434,0.176280,-0.115828,0.050732,-0.233388,0.210431,-0.363326,-0.088822,-0.365882,0.117669,-0.086054,0.081471,0.344642,-0.317364
-0.174628,-0.115318,-0.442729,0.164532,0.072800,-0.155483,0.419380,-0.209691,-0.302126,-0.269184,0.072183,0.295830,0.210429,-0.331335,-0.094309,-0.244516,0.052001,0.043427
0.368877,0.116188,0.290135,0.291642,-0.257051,0.298212,0.129394,-0.350043,-0.285943,-0.024494,0.120587,-0.026728,-0.104158,-0.044053,-0.383104,0.070547,0.052107,0.349355
0.156558,0.355011,0.089669,-0.084172,-0.002171,-0.135326,-0.205240,0.312198,-0.282415,0.425763,-0.293993,0.357832,0.282512,0.324193,0.046675,0.102945,0.056729,0.002312
0.232591,-0.284779,-0.326740,-0.313668,0.231718,0.273879,0.274543,-0.115308,0.375800,0.149002,-0.116779,0.087624,-0.104094,0.358560,-0.306542,-0.155389,0.001489,0.004888
-0.058038,0.099103,-0.349675,-0.120720,0.029179,-0.076079,0.360171,-0.298521,-0.085848,0.199190,0.343461,0.385786,0.091685,0.319597,0.302578,-0.268501,-0.190806,-0.006516
0.372288,-0.200707,0.121559,-0.104743,-0.107104,-0.022398,0.276836,0.368176,-0.270517,0.215892,0.256428,0.002464,-0.367747,-0.237299,0.240410,0.222792,-0.029602,0.292912
0.031139,-0.388087,-0.321964,0.424238,0.030699,-0.235873,-0.442124,0.104627,0.042824,0.105439,0.126644,-0.015650,-0.349249,-0.137920,-0.008498,-0.130152,0.246076,-0.232345
0.182355,-0.475562,0.075882,0.019264,0.294152,-0.229226,-0.226190,0.352163,0.067331,0.349165,0.042666,-0.151722,-0.138246,-0.118630,0.000782,0.120600,0.100842,0.459367
-0.059861,-0.425265,-0.228781,-0.148548,0.419425,0.429453,0.163798,0.093347,-0.408044,-0.204659,-0.229426,-0.206694,0.008829,-0.148528,0.102058,0.067195,-0.024126,0.062233
0.246450,-0.048779,-0.368437,0.213936,-0.317123,0.332385,0.076035,0.194307,-0.334629,0.267846,-0.301888,0.276393,-0.164752,-0.111973,-0.310436,-0.077187,-0.080038,-0.033508
0.106200,0.179573,-0.278664,0.390397,0.349069,-0.037791,-0.213742,0.208592,0.065503,0.306956,0.342793,-0.152038,-0.133077,-0.073655,-0.209578,0.348542,0.278916,-0.092036
0.211647,-0.060184,-0.178246,0.331094,0.205091,-0.128645,0.368877,0.058257,-0.016460,-0.184536,-0.280826,0.292014,-0.173203,0.244692,-0.075347,-0.080921,-0.451423,0.328286
-0.122251,-0.280232,0.323495,-0.315868,0.074790,-0.102558,0.343595,0.181833,0.021449,-0.034013,-0.042442,-0.202894,0.351937,0.243541,0.264878,0.203320,0.285792,-0.337547
0.061215,0.389118,0.370843,-0.046865,-0.238106,0.208385,0.431080,-0.055320,-0.176479,0.163470,-0.251499,0.209488,0.344717,-0.206933,0.067973,-0.011483,0.260124,-0.130528
-0.148669,0.363746,0.127807,-0.198445,0.037603,0.166967,0.314478,-0.075328,-0.023802,-0.309402,0.327698,-0.292823,0.069947,-0.359114,-0.052923,-0.314563,0.140621,-0.333469
0.138481,-0.154205,0.244703,0.107559,0.161598,-0.358060,0.329107,-0.093915,-0.139654,0.334911,0.132788,0.082902,-0.290937,-0.004522,0.362589,-0.367055,0.241169,0.221227
1.642850,1.206962,1.224825,1.565945,1.800838,-0.002749,0.147180,0.735020,1.355533,-0.022532,-0.110785,-0.197871,0.456486,0.426577,2.673266,-0.292665,-0.677040,0.571875
1.531565,1.338777,1.143408,1.528660,1.808122,-0.002843,0.186227,0.844617,0.064881,-0.161526,-0.191229,-0.273690,0.292095,0.279719,-0.026759,-0.292497,-0.665672,0.550588
1.687435,2.137718,1.110835,1.554531,1.824736,-0.058681,-0.038479,0.472923,-0.122312,-0.182031,-0.205418,-0.307708,0.129408,0.819345,0.090083,-0.294014,-0.602470,0.577616
1.484867,2.136259,1.072964,1.551188,1.731333,-0.047808,0.089090,0.725152,1.030415,0.136650,0.031239,0.106998,0.074491,0.356059,-0.251198,-0.293624,-0.603710,0.551370
1.656974,1.944976,1.192872,1.643238,1.534618,-0.076457,0.128822,0.500006,0.817685,0.074858,-0.024602,0.063934,0.512307,0.336840,-0.312930,-0.293542,-0.620171,0.595948
1.479220,1.308967,1.500627,1.634735,0.477443,-0.089398,0.574944,1.484963,-0.138231,-0.203816,-0.202185,-0.292738,1.014484,-1.179382,-0.314721,-0.294011,-0.693780,0.475810
1.622610,1.445551,1.711331,1.685312,0.291440,-0.075929,0.738821,1.764168,-0.264019,-0.221794,-0.211818,-0.314192,1.499318,-1.966989,-0.314725,-0.294014,-0.708273,0.428904
1.698866,2.021083,1.229152,1.648269,1.394369,-0.079652,0.061181,0.567388,-0.240135,-0.202127,-0.213697,-0.297557,0.644759,0.117630,-0.314396,-0.294014,-0.627420,0.570049
1.203350,2.170026,1.074633,1.478847,0.409463,-0.169654,0.201695,0.997837,-0.273419,-0.205169,-0.222318,-0.326613,0.149221,-0.837764,-0.308054,-0.294013,-0.602779,0.502629
0.931580,2.171150,1.057322,1.402720,-0.302620,-0.229233,0.371702,1.407607,-0.302394,-0.231450,-0.235550,-0.349747,0.001592,-1.687843,-0.314676,-0.294014,-0.602471,0.449398
1.234285,2.432303,1.288802,1.391901,0.552093,0.687994,0.901728,1.009242,0.147109,-0.057706,-0.136331,-0.258327,1.004463,-0.458319,0.575692,-0.290525,-0.587876,0.537610
0.667080,0.138591,0.423335,0.730364,1.719626,0.396056,0.702064,1.673859,0.080209,-0.126434,-0.170036,-0.273187,-0.046687,0.236784,-0.064292,-0.284311,-0.554442,0.138208
0.588461,-0.286004,0.301623,0.653883,1.924427,0.199302,0.652354,1.982909,-0.070194,-0.176216,-0.195410,-0.295693,-0.408647,0.185916,-0.314691,-0.293971,-0.602447,0.091218
0.597563,-0.164451,0.303027,0.691530,1.958279,0.373550,0.626078,1.938422,0.618266,-0.019877,-0.125870,-0.175310,-0.370509,0.266718,-0.314730,-0.291517,-0.605106,0.087534
0.345984,0.818257,0.093203,0.531479,2.139017,1.205369,0.634955,2.021411,1.244976,0.154721,-0.042754,-0.015797,-0.038690,0.597399,-0.314630,-0.209729,-0.655482,0.040492
0.455230,-0.331512,0.210192,0.573803,1.930834,0.197970,0.639994,1.959440,2.717022,0.408987,0.038577,0.279241,-0.419356,0.225921,-0.314688,-0.293761,-0.605014,0.068819
-0.182114,-0.415355,-0.198324,0.011110,0.966672,0.267921,0.150992,0.966153,1.102956,0.288572,-0.076250,-0.114308,-0.228533,0.077163,-0.177495,-0.083547,-0.298354,0.128260
0.285782,-0.201619,-0.128568,0.331290,-0.262993,0.179917,-0.316484,-0.001695,-0.346165,-0.154763,-0.209794,-0.383094,0.300290,0.138926,0.102449,-0.227091,-0.121884,0.122387
-0.201885,0.031065,-0.258980,0.212373,-0.304033,0.244240,-0.239680,-0.273395,0.108884,-0.317089,-0.304328,0.281190,-0.293050,0.000324,0.287907,-0.218087,0.246976,-0.018547
0.205502,-0.232845,-0.009329,-0.323615,0.313835,-0.356293,0.170796,-0.021420,-0.118207,-0.163456,0.364474,-0.247385,-0.244456,-0.302889,0.302392,-0.110661,0.205912,0.106548
0.173721,-0.316446,-0.371826,-0.107211,-0.303088,-0.159960,-0.058585,-0.348949,-0.062096,0.266840,-0.273262,0.231164,0.293508,0.093299,0.272817,-0.254516,0.050175,0.193756
0.194566,-0.093605,-0.129665,0.348613,-0.206935,0.234786,-0.138433,0.469735,0.123415,0.220510,-0.252714,0.340639,0.258874,0.179411,0.070511,0.129446,0.301137,-0.148003
-0.036154,-0.223451,0.195506,0.153122,-0.085601,0.447067,0.017451,0.358810,-0.217893,0.362954,-0.282014,0.051816,-0.239554,0.303031,0.077600,0.241473,0.155646,0.227264
-0.173851,-0.003804,0.235548,0.403084,0.253591,0.135166,0.295665,-0.121144,0.026985,0.259835,0.280593,0.392458,-0.117664,0.233147,-0.304098,0.181243,0.163513,0.214167
0.329994,0.047869,-0.033905,0.199124,-0.119771,0.309228,-0.312597,-0.280591,-0.186936,-0.155538,0.116021,0.176207,0.376624,-0.199585,-0.128874,0.387965,0.173666,-0.281043
0.227260,-0.309205,0.169393,-0.234480,-0.251566,0.046128,0.083673,0.230798,0.380262,0.217412,0.155518,0.054896,-0.357630,-0.157564,0.399715,-0.168793,-0.273544,0.092233
0.035441,0.164399,-0.073150,-0.117281,0.211115,-0.136078,0.444921,-0.230973,0.324519,0.295860,0.017913,-0.246949,0.296250,0.248007,-0.138898,0.282236,-0.215054,0.299335
0.175661,-0.385411,-0.260063,-0.306243,0.355933,-0.020525,-0.289026,0.073915,-0.115911,0.165996,0.202809,-0.018176,0.182615,-0.061803,-0.379886,-0.215805,0.206065,-0.300178
-0.070176,0.076490,-0.033916,-0.354952,-0.301740,-0.368804,0.410009,-0.022798,0.255203,-0.000559,-0.357796,-0.122983,-0.046373,-0.043181,-0.370177,-0.202592,0.193030,0.196905
0.204610,0.227053,-0.372169,-0.072864,-0.166010,0.066528,0.243326,0.139318,-0.292995,-0.232359,0.338551,-0.228839,0.102059,-0.247474,-0.144276,-0.320601,0.367560,0.122389
0.063432,0.422861,-0.066841,-0.381017,-0.031886,-0.321298,-0.075100,0.144282,-0.116790,0.004870,-0.025704,-0.393852,0.098233,0.293151,0.262387,-0.321041,0.212336,0.234063
0.318613,-0.377626,0.308452,-0.144969,-0.272738,0.056606,-0.353536,0.178278,-0.059092,0.276475,0.120784,0.383607,-0.030820,0.219680,0.312576,-0.114247,0.042984,0.043336
0.282848,-0.154912,0.002282,-0.205418,-0.394113,0.267027,0.206649,0.227863,-0.386760,0.013451,0.235849,0.054289,0.137512,-0.366540,0.083220,-0.067122,0.193111,0.349605
0.211695,-0.115463,0.200390,-0.254161,-0.045092,0.256989,0.004302,-0.012643,-0.318145,-0.212956,0.316836,0.073237,-0.264217,-0.388372,-0.380626,0.197569,0.150847,-0.298700
0.030150,0.199138,-0.001800,-0.109243,0.233395,0.195609,-0.281726,-0.322750,0.344115,0.115903,-0.327022,0.009942,-0.052033,-0.287791,0.207895,-0.324890,-0.323774,-0.305285
-0.297757,0.121110,0.098095,-0.286050,-0.284108,0.130046,-0.246978,-0.289907,0.337843,-0.022813,0.283674,-0.247016,-0.249545,0.073633,0.078794,-0.297531,-0.258227,0.278022
-0.164249,0.278375,0.063787,-0.246020,-0.313870,0.332325,0.211704,0.031551,-0.308513,0.231780,-0.229964,0.016380,-0.107666,0.209128,-0.321295,0.350116,-0.188128,0.239963
0.196296,0.074025,0.122013,0.295599,-0.167152,0.169973,-0.298038,0.274421,-0.133486,0.084969,0.343895,0.381360,0.206310,0.299875,-0.328441,-0.234455,-0.220605,-0.004788
0.052809,-0.348898,-0.292272,-0.326032,-0.261604,-0.158986,-0.278903,0.190309,-0.111063,-0.160737,-0.109261,-0.301019,0.341871,-0.110574,-0.185351,0.249364,0.107754,-0.313164
-0.264570,0.280584,-0.012341,-0.332969,-0.100099,-0.386014,0.287238,-0.006610,0.197587,0.335088,-0.306157,-0.214993,-0.129736,0.155690,-0.313537,-0.139595,-0.144797,-0.166044
1.666659,2.104049,1.145103,1.618520,1.801457,-0.067369,-0.091665,0.341900,1.736801,-0.019890,-0.151308,-0.132875,0.256778,0.901941,3.176932,-0.294014,-0.605375,0.599920
1.687793,1.733455,1.209986,1.577697,1.788768,-0.048460,0.548620,0.445174,0.511956,-0.016435,-0.062811,-0.110037,0.405204,0.869889,3.074051,-0.293469,-0.627412,0.606607
1.702707,2.140655,1.118140,1.592972,1.798449,-0.072869,-0.110287,0.339866,-0.079201,-0.093554,-0.214266,-0.323899,0.268071,1.116809,3.087702,-0.293994,-0.602489,0.602104
1.625676,1.728602,1.388103,1.557338,1.228728,-0.091999,0.935833,0.697133,0.104845,-0.055170,-0.043488,-0.170485,0.905706,-0.493149,0.860094,-0.291054,-0.617491,0.625405
1.733897,0.712814,1.649207,1.555571,0.979628,-0.061012,1.847137,0.883350,-0.044827,-0.162328,-0.046136,-0.187411,1.327578,-0.462497,-0.311066,-0.293329,-0.707914,0.606805
1.240328,0.677474,1.620441,1.577345,-0.088650,-0.100955,1.011768,1.945494,-0.272847,-0.251337,-0.212910,-0.326896,1.138835,-2.010299,-0.314733,-0.294014,-0.740095,0.444488
1.330855,0.853908,1.679590,1.624449,-0.209536,-0.098273,0.914265,2.067764,-0.304926,-0.259197,-0.229156,-0.342089,1.346598,-2.775451,-0.314733,-0.294014,-0.740901,0.408620
1.658777,1.549374,1.929947,1.700973,0.214083,0.326834,1.342218,2.295550,-0.254307,-0.201276,-0.165800,-0.278159,1.917900,-2.221375,-0.279303,-0.292990,-0.733424,0.360054
1.693723,2.689169,1.729909,1.613264,1.372433,1.685017,2.024335,1.583742,0.176186,0.031526,0.242010,0.067135,1.635094,0.480327,0.554615,-0.291247,-0.678342,0.498773
1.739503,2.965230,1.737854,1.664138,1.143777,1.548336,1.504386,0.708221,0.426071,0.105708,0.178103,0.075440,1.793648,0.164177,1.452759,-0.293421,-0.676260,0.683758
2.466237,3.914427,2.402351,1.889700,2.260382,2.924005,2.339291,-0.064091,1.103663,0.209494,0.012282,-0.057487,3.639486,1.513527,3.006701,-0.293935,-0.734627,0.967799
1.359365,1.660177,1.201294,1.177087,2.101133,1.501360,1.419003,0.998271,0.861656,0.126956,-0.048303,-0.083924,1.482585,0.784412,1.201649,-0.290346,-0.668593,0.478048
0.703112,-0.054281,0.451381,0.819873,1.971041,0.451265,0.666832,1.888356,0.883637,0.235241,-0.048349,-0.009591,-0.213215,0.135024,-0.308470,-0.293036,-0.618637,0.153268
1.016983,1.707252,0.516213,1.078264,2.498194,2.768307,0.739509,2.263878,0.273907,0.027521,-0.085335,-0.187326,0.319717,0.770052,-0.314568,-0.293902,-0.644473,0.148678
0.760452,4.248577,0.330189,0.819683,2.551005,3.169434,0.751862,2.381805,0.045035,-0.043843,-0.166381,-0.268402,0.827030,0.804063,-0.314733,-0.293977,-0.723943,0.075171
0.505544,1.127898,0.116769,0.611867,2.437279,2.557842,0.679387,2.170805,0.774220,0.270634,-0.071332,-0.039325,0.237684,1.594825,-0.314192,-0.293837,-0.683935,0.046325
0.092108,0.127966,0.144359,0.325190,1.068245,0.787475,0.201434,0.892910,0.634222,0.260413,0.126831,-0.020849,-0.056230,0.413980,0.044150,-0.332565,-0.229256,0.191037
0.366360,0.239948,0.215271,-0.280542,0.317129,0.228483,0.215737,-0.306329,0.218807,0.040058,-0.119753,-0.104114,0.351449,0.225222,0.133242,0.003269,0.292784,-0.174384
-0.361202,-0.263062,0.255697,0.037270,-0.344610,-0.022577,-0.080365,-0.338787,-0.132829,0.096479,-0.162195,-0.083092,0.007924,-0.354697,-0.235396,-0.237143,0.262742,-0.354151
0.334149,0.082361,-0.040670,0.160312,0.137463,-0.194013,-0.030650,-0.241850,0.150543,-0.350738,0.335499,0.369939,-0.149985,-0.003717,-0.300175,-0.355075,0.322468,-0.021538
-0.219397,0.168485,-0.009162,-0.187929,-0.404600,-0.198056,-0.094992,-0.392334,-0.104650,-0.325590,-0.397820,0.163444,-0.018138,0.093094,0.243268,-0.112573,-0.362799,-0.088284
0.122416,0.130715,-0.460812,0.223986,-0.094939,-0.463173,-0.024458,-0.156749,0.088475,-0.267266,-0.198718,-0.138205,-0.109262,-0.038991,0.342866,-0.300540,-0.251994,0.184417
-0.006929,-0.256253,-0.048973,-0.020865,-0.255217,-0.060583,-0.360203,-0.155576,-0.226537,0.131597,-0.358547,-0.212951,0.306837,-0.311671,0.285767,-0.268739,-0.332583,0.101844
-0.139277,0.227302,0.322908,-0.316307,0.164111,-0.111009,0.062263,0.373131,-0.328398,-0.437610,-0.021705,-0.107834,-0.062839,0.180712,-0.039287,0.184123,0.356417,-0.178119
-0.267139,0.264056,-0.318049,-0.006233,-0.289252,-0.221726,-0.288105,0.214710,0.223189,-0.050496,0.009692,-0.000055,0.403997,-0.078159,0.294977,0.281905,-0.256508,0.204268
0.334294,0.237629,0.196614,0.148659,0.372336,0.274295,-0.007286,0.015517,-0.335066,-0.340119,0.125809,0.125058,-0.097466,-0.267272,-0.258474,0.273310,0.243022,-0.126253
-0.199848,-0.265471,0.220649,0.351897,0.329496,-0.294279,-0.105631,0.242995,0.095326,0.141930,-0.050200,-0.319001,-0.211604,0.133725,-0.271971,-0.010256,0.292507,-0.309663
0.082609,-0.086622,-0.195869,-0.118825,-0.262541,0.337206,0.084912,0.340747,-0.043897,-0.303996,0.110544,0.346288,0.242017,0.203475,-0.063333,-0.089591,-0.430773,-0.321218
-0.259841,0.039345,0.166671,-0.346867,0.336412,0.245568,-0.130836,0.116389,0.039900,0.392774,0.213652,-0.141065,0.027760,-0.332085,-0.357840,-0.312276,-0.005354,-0.143674
0.164036,0.142221,0.200881,-0.006834,0.260017,0.157824,-0.289207,0.073866,0.113520,0.088021,0.319498,0.103941,0.308399,0.344594,0.355682,-0.267342,0.294003,0.314737
-0.005245,-0.363369,-0.059018,-0.179502,-0.003514,-0.182767,-0.278697,0.056475,-0.349151,-0.343565,0.112584,0.339733,0.060260,0.280832,0.271428,0.157231,0.258826,-0.319427
-0.309631,-0.097089,-0.017450,-0.249524,-0.084757,-0.162495,-0.189380,0.285296,-0.405902,0.066418,0.105088,0.431613,-0.187483,0.183844,0.266104,0.073046,-0.057444,0.407912
-0.249867,0.114573,0.323962,-0.069744,-0.092584,0.084933,0.284611,-0.171934,-0.181236,-0.433569,0.272309,-0.076610,0.106054,-0.141661,-0.408338,0.326246,0.285729,0.035939
-0.203848,-0.364235,-0.017160,0.162314,0.362617,0.220241,-0.009221,-0.284038,-0.292412,-0.399776,0.382327,0.369002,0.001290,-0.079463,-0.017170,-0.034172,-0.046515,-0.027786
-0.219298,-0.133260,-0.393774,0.073272,0.145759,-0.009726,-0.016160,0.056370,0.389527,0.192914,-0.185201,0.264510,-0.065448,0.411010,-0.242659,-0.078940,-0.263690,0.384534
0.017042,-0.376416,-0.364288,0.151460,-0.137397,0.035858,0.171710,-0.146390,0.257231,-0.294600,0.048791,0.222470,-0.317700,0.295772,-0.014514,-0.381080,0.271991,0.136529
0.142661,-0.171018,-0.256598,0.363331,0.100754,-0.065009,0.193792,0.305977,-0.300789,0.325382,-0.228804,-0.168764,0.336419,0.088407,0.001611,-0.352552,-0.213451,0.197392
0.208105,0.346784,-0.348485,-0.357516,0.031424,0.119745,0.181347,0.363861,0.123455,0.259980,-0.054264,-0.199636,-0.206291,-0.120942,0.067485,-0.326540,-0.335355,0.010358
0.228517,-0.007686,-0.177649,-0.028099,-0.340815,0.249470,-0.001370,0.087532,0.087358,0.204031,0.306125,-0.254115,-0.203004,-0.290662,-0.378318,-0.368524,-0.328667,-0.095499
0.160043,-0.002279,-0.345459,-0.100393,0.215049,-0.309815,0.185905,-0.116681,-0.326489,0.202085,0.350833,0.016661,0.155927,0.295755,0.322500,0.189488,0.238611,0.274091
1.811119,0.615356,1.264635,1.567816,1.775023,-0.016635,0.788810,0.414822,0.627715,-0.032981,0.045676,-0.033227,0.761830,0.652736,3.176979,-0.294012,-0.712635,0.622120
2.012247,0.482465,1.494811,1.611541,1.791820,-0.032854,2.559243,0.034633,0.335374,0.086812,0.086225,0.308647,1.119042,1.481940,3.176890,-0.294014,-0.659430,0.705648
1.979166,1.239806,1.724762,1.556295,1.754012,-0.069004,1.882127,0.054003,0.285394,0.079997,0.207943,0.021273,1.730855,0.230484,2.946509,-0.293154,-0.623811,0.812807
2.104534,0.742344,1.775870,1.489188,1.765165,-0.066707,2.515018,-0.144440,0.447890,0.015909,0.244581,-0.050624,1.764940,-0.229979,-0.113792,-0.293273,-0.625350,0.823603
1.995880,0.493393,1.457465,1.553521,1.803777,-0.034676,2.653557,0.007776,0.391482,-0.108812,-0.065313,-0.194843,1.039656,1.596663,-0.314719,-0.294014,-0.626965,0.706719
1.824770,0.745270,1.753252,1.555528,1.085651,-0.066412,2.000796,0.705809,-0.096425,-0.159168,-0.057009,-0.210729,1.649462,-0.409810,-0.314636,-0.294006,-0.694229,0.674854
1.650488,1.378521,1.944180,1.690308,0.148226,0.197963,1.324602,2.192781,-0.258006,-0.211355,-0.174388,-0.297227,1.953604,-2.285519,-0.275278,-0.277735,-0.734587,0.391092
1.955374,2.547163,2.237526,1.689564,2.172003,2.722816,3.534802,2.917540,-0.034611,-0.088340,0.060415,-0.051604,2.383372,0.748388,-0.121008,-0.293528,-0.740887,0.299353
2.166224,3.271929,2.245450,1.728698,2.545464,3.220092,3.288094,1.494090,0.912954,0.490231,1.399782,1.122881,2.864763,1.196867,1.799828,-0.287074,-0.740293,0.594336
2.541471,4.195649,2.436288,1.932788,2.358415,3.049467,2.439101,-0.115090,1.798641,0.987151,1.885511,1.963157,3.729381,0.613022,3.162015,-0.291419,-0.740452,0.989884
2.531202,4.091649,2.393967,1.925078,2.396547,3.086093,2.468175,-0.133621,2.202771,0.584154,0.426959,0.675771,3.756772,0.778771,3.141748,-0.290615,-0.739533,0.983613
1.813374,2.305743,1.653533,1.529606,2.136405,1.655950,1.752346,0.522846,2.704604,0.643493,0.249867,0.470720,2.142095,0.516212,1.481350,-0.284754,-0.692516,0.696965
0.766805,0.232922,0.730228,1.051029,1.854216,0.182899,0.673745,1.536542,3.971434,1.439833,0.603471,0.875998,0.154862,-0.357780,0.052801,-0.291856,-0.667119,0.298934
1.387764,1.541399,0.872815,1.361984,2.391857,2.335600,0.811478,1.867656,1.667339,0.451549,-0.018773,0.195936,0.546207,0.956982,-0.248958,-0.212931,-0.632051,0.302447
1.556366,2.624841,0.884658,1.485659,2.627685,3.285855,0.697040,2.174806,-0.071921,0.241672,-0.188716,0.196530,0.702728,1.331099,-0.314545,-0.291951,-0.618361,0.242552
1.315250,0.796453,0.700432,1.390243,2.640580,3.296124,0.744882,2.285486,0.374285,0.770699,-0.067855,0.052125,0.211967,2.563471,-0.314448,-0.293991,-0.603720,0.197906
0.807472,0.410111,0.452973,0.848550,2.042940,2.067486,0.644672,1.799959,1.369929,1.143932,0.089558,0.563683,-0.116919,0.224126,0.250973,-0.195321,-0.485293,0.122908
0.015781,-0.321998,-0.311692,0.043451,0.486910,-0.075589,-0.257210,0.239397,0.188910,-0.147207,0.146667,0.276956,-0.047503,-0.212909,-0.018915,-0.023585,-0.378261,-0.240497
0.082466,0.322001,-0.306190,0.331765,0.103248,-0.208902,-0.191509,0.027538,0.106182,-0.264968,0.019328,-0.300267,0.272383,0.290513,0.334443,-0.165093,-0.153278,-0.315123
-0.314351,-0.020091,0.229447,0.261379,0.116369,-0.169766,0.271709,0.145218,-0.276961,-0.095406,-0.351525,0.045358,-0.363018,-0.141179,-0.260755,0.348634,-0.052964,-0.295003
0.136683,0.217053,-0.190919,-0.433387,-0.187651,0.064874,-0.247671,0.029544,-0.143048,0.327578,-0.331316,0.028251,0.224841,-0.178482,-0.040042,-0.271968,0.398953,-0.229814
-0.219155,0.089292,0.414476,-0.260647,-0.333238,0.155147,-0.393047,0.093692,0.220829,0.370131,0.318042,-0.058632,0.224272,0.008491,0.059161,-0.150260,0.027470,-0.195793
-0.225711,-0.025550,0.344408,-0.057822,0.275713,-0.291578,-0.136953,-0.179605,-0.021430,0.209555,0.135697,-0.368530,-0.387899,0.215300,-0.072187,0.258262,-0.152062,0.352048
0.003354,-0.051158,-0.291825,-0.212810,0.247140,-0.047419,-0.117645,0.168551,0.259998,0.311357,0.210559,-0.273103,-0.215630,-0.306168,0.297837,-0.349084,0.289207,-0.208425
0.073022,-0.150872,-0.322788,-0.168500,-0.430672,0.055143,0.206846,-0.028791,0.129420,0.261477,-0.153400,0.034035,-0.288344,-0.432243,-0.016820,-0.119095,0.428613,0.170952
-0.237506,0.111859,0.277386,-0.386139,0.366390,0.389859,0.131367,-0.041306,0.310957,0.009198,0.332714,-0.054679,-0.151668,-0.094888,-0.022358,-0.187460,0.097042,0.335119
0.113046,-0.213996,0.377915,0.092757,-0.199703,0.187494,0.080863,0.016432,0.346966,0.257484,-0.275258,-0.283340,0.116557,0.226979,-0.216293,-0.082484,-0.335510,0.366290
-0.017698,-0.270663,0.350256,0.169536,-0.319272,-0.115146,0.010079,0.327534,-0.053378,-0.090921,0.028385,-0.202823,0.256433,-0.263760,0.194036,0.258119,-0.363786,0.356976
-0.247024,-0.017792,0.317419,0.341541,-0.312809,0.202095,0.240993,0.228427,0.197549,0.239137,0.176836,0.109623,0.150575,0.088992,0.075736,-0.367784,-0.195067,-0.350947
0.353867,-0.119147,0.264812,-0.029778,-0.036025,-0.149193,0.126915,-0.310065,0.338794,-0.338318,0.099353,-0.347682,0.351834,-0.268323,-0.094838,-0.258468,-0.144265,-0.037079
-0.238074,0.023605,-0.168554,0.082614,0.342692,0.259848,0.367842,0.265545,0.156369,0.155123,-0.090042,0.373364,-0.115863,0.114169,0.150582,0.163691,-0.377283,-0.320085
0.314113,0.355720,-0.377195,-0.202242,-0.414870,0.313416,0.110384,-0.164166,-0.155926,0.052390,-0.420330,0.000910,0.240210,-0.015172,-0.085473,-0.039154,-0.105537,-0.021981
0.295129,0.239040,0.083483,0.174836,-0.414103,0.051418,-0.200303,0.067316,-0.167212,0.085938,-0.012519,0.296467,-0.310062,0.365924,-0.392972,0.234551,0.171479,0.078323
0.063560,-0.385938,-0.265449,-0.281678,0.008518,-0.325805,0.199042,-0.296966,-0.039191,0.029209,-0.306194,0.369305,0.084534,-0.218297,-0.368728,0.009755,-0.104328,-0.122400
0.157268,0.298409,0.343279,0.019645,-0.178139,-0.014057,0.332109,-0.403983,-0.084403,0.057200,0.150195,0.179660,-0.172240,0.284098,0.354246,0.239795,-0.000306,0.206748
0.165330,-0.208700,0.120379,0.037096,-0.351573,-0.030980,-0.327048,0.241806,-0.215249,0.353109,0.138406,-0.281101,-0.140012,-0.317811,0.136143,-0.001035,-0.390559,-0.202018
-0.091613,-0.412492,-0.198980,-0.311603,0.038116,-0.046738,0.005263,0.295995,-0.148143,-0.278725,0.472051,-0.176137,0.168623,-0.076908,-0.348346,-0.033716,0.288184,-0.010181
-0.066721,-0.325132,0.236434,0.147815,0.017561,-0.214647,-0.277853,0.296589,-0.078743,-0.027835,-0.228353,-0.208079,0.348667,0.146172,0.271111,-0.354712,0.226475,-0.323375
0.240981,-0.052664,-0.088931,0.158634,0.159148,0.375254,-0.091293,0.240915,0.029451,0.370810,0.078630,-0.114597,0.386756,-0.251927,0.061878,-0.212926,0.502688,0.031172
-0.072790,0.220911,0.123627,0.281673,0.040121,0.147426,0.069087,0.359902,-0.091919,0.260580,-0.346203,-0.227119,0.334844,0.315943,-0.085816,0.377961,-0.191429,0.216875
1.768689,0.806845,1.560842,1.311049,2.020895,1.247768,1.111832,0.199485,0.571902,0.659209,0.239812,0.263570,1.452053,0.855330,3.176144,-0.293018,0.036456,0.726766
2.062789,0.774579,1.712749,1.594755,1.849372,0.270472,2.577663,-0.112757,0.895043,1.107615,0.887947,1.402713,1.796898,1.204520,3.176478,-0.294012,-0.590660,0.839183
2.217788,1.127936,2.159820,1.572125,1.736982,-0.100574,2.483081,-0.315395,0.464408,0.047825,0.348978,-0.071234,2.834879,-0.409781,3.048159,-0.294014,-0.602666,1.000193
2.211036,1.138072,2.131796,1.537582,1.732418,-0.107087,2.480476,-0.314715,-0.137766,-0.140044,0.370883,-0.151467,2.811252,-0.640493,-0.010020,-0.294012,-0.603026,0.998069
2.118524,0.844362,1.917209,1.485458,1.756679,-0.075982,2.535562,-0.163212,-0.047615,-0.123252,0.205172,-0.130572,2.261067,0.312840,-0.314199,-0.294014,-0.638751,0.918972
2.211803,1.062803,2.120624,1.546059,1.737660,-0.103981,2.491779,-0.316004,-0.223110,-0.124616,-0.089067,-0.230539,2.804041,-0.379616,-0.314671,-0.294014,-0.602741,1.017042
2.094498,1.627983,2.146993,1.520304,1.943151,0.987504,2.921628,0.857880,0.165075,-0.029508,0.149063,-0.196274,2.652496,0.458516,0.485970,-0.164173,-0.653218,0.761911
2.015672,2.765246,2.295894,1.662820,2.709709,3.383378,4.108675,2.995170,0.329940,0.057177,0.340464,0.073832,2.415730,1.429323,2.638909,-0.282053,-0.740542,0.293964
2.203436,3.368302,2.339732,1.768129,2.544200,3.227814,3.360856,1.618934,1.497760,0.799432,2.288784,2.699408,2.885272,0.728729,3.054992,-0.270895,-0.740327,0.580612
2.555352,4.316699,2.448372,1.923872,2.344397,3.022381,2.433775,-0.061661,1.899362,1.683489,3.394697,3.677751,3.708681,0.038256,3.155430,-0.235604,-0.738658,0.983686
2.463226,4.013546,2.337342,1.933468,2.335546,2.896607,2.434678,-0.119750,2.389362,1.266696,2.550246,1.835242,3.612239,0.296064,2.854345,-0.122459,-0.729389,0.981245
2.081563,1.505548,1.875239,1.548169,1.859064,0.526304,2.128876,0.012100,4.810486,0.347384,0.675198,0.241413,2.354397,0.366988,0.434804,-0.193267,-0.636755,0.881621
1.623845,1.215988,1.232349,1.490818,1.482250,0.075451,0.834410,0.802939,5.055250,0.499927,0.303676,0.261862,0.704738,-0.277501,2.385725,-0.213525,-0.631016,0.573135
1.175298,1.256146,0.690977,1.050611,2.297350,2.370064,0.779278,1.860077,5.867747,0.698714,0.029411,0.333862,0.534655,0.909359,0.358734,0.307677,-0.579697,0.262101
1.085516,3.031379,0.504380,1.029422,2.556577,3.163499,0.754958,2.299107,1.722835,1.347213,0.029632,0.657020,0.697481,0.944557,-0.266473,-0.214245,-0.649805,0.153463
1.349628,1.170487,0.725663,1.360378,2.646118,3.321366,0.778936,2.354662,1.399626,2.141926,0.194686,1.259889,0.209415,0.663518,-0.298449,-0.253873,-0.607906,0.210115
1.321844,0.694818,0.702098,1.308877,2.649836,3.332576,0.808751,2.426332,2.408559,2.906903,0.271835,1.540755,0.006890,-1.039179,-0.280475,-0.055594,-0.602127,0.203344
0.240472,0.315697,0.320327,0.628832,1.254638,1.139674,0.353930,0.980904,1.109496,1.067903,0.142187,0.467050,-0.220140,-0.114383,0.209464,0.363211,-0.141587,-0.091454
-0.336547,0.360462,0.096859,0.091863,-0.221193,-0.156885,-0.107697,0.332457,0.321626,-0.306986,0.066095,0.137947,-0.343568,0.136687,-0.266040,0.182682,-0.187461,0.001193
0.185598,-0.234043,0.109675,0.290428,-0.360695,-0.281412,0.163301,-0.031289,0.317230,0.339783,0.017951,0.172495,0.058470,0.373648,-0.167091,-0.174388,0.235443,-0.273142
-0.356252,0.349097,0.236459,0.058416,0.236904,-0.232763,-0.300913,-0.095336,-0.004960,0.292256,-0.314879,0.004032,-0.211793,0.319290,-0.299350,-0.085924,0.211037,-0.094950
-0.073038,-0.005121,-0.354537,0.142499,-0.255680,0.236800,0.254342,-0.280623,0.120498,0.280896,0.052173,-0.308302,0.341396,0.143887,-0.042293,0.284774,-0.342168,-0.235242
-0.194548,0.142435,-0.302940,0.180614,0.228278,-0.331642,-0.245988,-0.023152,-0.237009,-0.136608,-0.270258,-0.038420,-0.030841,-0.268975,0.371277,0.275911,-0.148047,0.368491
-0.179756,-0.256215,-0.014015,0.444692,0.048763,-0.040240,0.380506,-0.107289,0.422314,0.013560,-0.215781,-0.236759,-0.419095,-0.092889,-0.232629,0.036493,-0.130867,0.076222
-0.132494,-0.037904,-0.193609,-0.150340,0.139744,0.391617,0.042011,0.099749,0.187559,-0.206564,0.360376,-0.368255,-0.320838,-0.265647,0.183790,-0.272094,-0.059041,0.328908
0.274795,-0.326500,-0.404952,-0.051413,-0.067002,0.033597,0.081929,0.039640,-0.254680,0.365409,-0.382967,-0.123309,0.209692,-0.361419,0.012207,0.188610,-0.034906,-0.256055
-0.036569,0.269138,0.307678,0.203668,-0.296952,0.397255,-0.067265,0.163249,-0.004535,0.246731,0.172132,-0.202123,-0.388066,0.045386,-0.222947,0.250237,-0.278741,0.197125
-0.100466,0.385579,-0.129271,-0.267060,0.161000,0.252314,0.211131,-0.407167,-0.167060,-0.396601,0.019472,-0.381194,0.036445,0.060663,-0.200741,0.227145,-0.088657,-0.132696
-0.187680,0.094829,-0.439251,0.137717,-0.015040,-0.156402,0.349675,0.011653,0.156948,-0.071499,-0.157125,0.427463,-0.056755,0.282778,0.238879,-0.278761,0.338337,-0.164910
-0.182653,0.043742,0.164358,-0.331904,0.357116,0.256116,0.004770,-0.076585,-0.126188,-0.425764,-0.300768,-0.352919,0.292016,-0.179755,-0.218500,-0.189697,0.115779,0.040081
-0.124311,0.287595,0.222132,0.287162,-0.117694,-0.362535,0.326155,-0.094805,0.179135,-0.120521,-0.270665,-0.202880,-0.335821,0.376601,-0.154189,-0.070146,0.026265,-0.253691
-0.215755,-0.047541,-0.189237,0.279439,0.318679,-0.333929,-0.336057,-0.288881,-0.254964,-0.345969,0.153796,-0.219284,-0.006497,-0.029458,0.223555,-0.179427,-0.024036,-0.292647
-0.331715,-0.344213,-0.349618,-0.110859,-0.234035,-0.119221,0.043934,-0.437628,0.136564,-0.256373,-0.347772,0.028369,0.020240,-0.192516,-0.012852,0.107852,0.449532,0.466987
-0.459349,-0.383440,-0.289233,-0.900139,-0.458192,-0.337665,-0.514639,-0.624066,-0.261275,-0.228837,-0.234270,-0.139057,-0.560394,-0.082088,-0.264684,-0.242753,1.729419,1.420258
-0.560508,-0.420138,-0.395598,-1.147101,-0.497719,-0.385739,-0.585384,-0.673741,-0.300691,-0.268010,-0.249801,-0.135761,-0.577303,-0.003764,-0.314024,-0.294001,1.886141,1.610525
-0.333864,-0.182554,-0.247282,-0.809801,-0.282995,-0.311733,-0.383619,-0.578045,-0.267917,-0.134508,-0.231313,-0.186073,-0.317413,-0.112202,-0.191020,-0.124276,1.367223,1.180562
-0.039828,0.313955,-0.342796,0.166313,0.112369,-0.283286,0.307262,0.108160,-0.221333,-0.216876,-0.130202,0.033100,0.014668,-0.171054,-0.266456,0.338764,0.248045,-0.210721
-0.192415,0.292819,0.092944,-0.004390,0.255347,0.335671,0.014704,0.195487,0.322797,-0.018316,-0.145062,-0.256307,0.353402,0.189668,0.234570,0.189149,0.253940,0.380235
-0.347156,-0.392715,0.253187,-0.383023,0.146945,0.139218,-0.092718,0.144615,0.343280,-0.079078,-0.311309,-0.020670,-0.176968,0.058179,-0.043512,-0.032575,-0.308347,-0.299655
-0.319761,0.234492,-0.085343,-0.025771,0.237025,-0.400735,-0.169346,0.193720,-0.036570,-0.056427,-0.223129,-0.048966,-0.184445,-0.402190,0.080289,0.150832,-0.432768,0.287882
1.497696,1.213583,1.763465,0.710056,2.295700,2.987595,-0.229151,-0.305981,1.025650,1.515739,0.167282,0.266306,1.919484,0.200223,3.176860,-0.294014,1.701769,0.803099
2.247108,1.267902,1.984169,1.592000,2.380113,2.879012,2.494126,-0.173650,0.345803,0.410202,0.189199,0.018653,2.592408,2.073322,3.176548,-0.294014,-0.545733,0.883598
2.235528,1.151654,2.087945,1.562998,1.826219,0.292266,2.496661,-0.295750,0.661629,0.147353,0.423991,-0.017496,2.804425,0.578779,2.684378,-0.294010,-0.609650,0.983062
2.254366,1.038231,2.091148,1.532665,1.736821,-0.104012,2.492801,-0.317285,-0.013492,-0.115548,1.089986,-0.031089,2.795146,-0.272498,-0.227261,-0.294014,-0.602475,1.031080
2.162075,1.027934,2.071967,1.429933,1.747694,-0.104240,2.503477,-0.317200,0.163211,-0.109386,0.701747,-0.012940,2.822878,0.217779,-0.314411,-0.294014,-0.602501,1.046808
2.146224,1.017577,2.068135,1.409123,1.747881,-0.104225,2.496633,-0.317275,0.126572,-0.165918,0.077540,-0.250658,2.807254,0.260123,-0.314712,-0.293998,-0.602472,1.051093
2.165254,1.347686,2.125160,1.485683,1.874577,0.510929,2.700500,0.220492,0.875653,0.122493,0.178536,-0.041640,2.741687,0.322861,-0.019811,0.092891,-0.629958,0.908646
2.139016,2.584294,2.264419,1.665354,2.572674,3.133562,3.524217,1.910975,1.591779,1.208668,0.667017,0.720316,2.567048,1.616874,2.692467,0.511997,-0.734266,0.502103
2.269674,2.771178,2.164763,1.792293,2.459160,3.134704,2.617821,0.519423,1.435463,3.355750,2.116613,1.904467,2.874983,1.328901,3.005675,1.038576,-0.707188,0.772260
2.047127,2.446055,1.807073,1.638992,2.420331,3.071895,1.997633,0.584079,1.731430,6.584278,1.981714,2.117179,2.370622,1.159723,2.505079,1.493856,-0.556084,0.720925
2.212416,2.024117,1.972217,1.724697,2.299201,2.912161,2.287056,0.041651,1.790980,5.535742,1.655006,1.506717,2.647869,1.706544,0.983376,1.751902,-0.600515,0.839199
2.126475,1.491496,1.819094,1.618377,2.126981,1.889423,2.264481,0.031523,4.930252,1.416268,0.875736,0.785837,2.133418,1.852185,0.029854,0.247037,-0.647110,0.806724
1.321262,1.199907,1.321182,0.979463,0.828824,0.036138,0.322602,0.462516,8.475179,0.311390,0.196728,0.256390,0.679346,1.936076,0.489740,0.533732,0.518111,0.608666
0.798281,0.450382,0.433943,0.780356,2.312539,2.564630,0.774662,1.826036,8.068369,3.559827,0.216571,0.921726,0.317302,0.879064,2.502243,1.563080,-0.555478,0.190466
1.152830,1.283419,0.678690,1.160622,2.375572,2.869904,0.682097,2.029524,4.120298,3.481295,0.469775,1.633655,0.343332,1.271983,0.202992,0.088773,-0.470183,0.219476
1.485639,0.978920,0.845838,1.429628,2.648594,3.340099,0.790130,2.380148,1.806614,4.174862,0.873547,1.960936,0.405102,3.306315,-0.310186,-0.082036,-0.602556,0.231630
1.460662,1.489483,0.832392,1.344628,2.636416,3.315121,0.801182,2.381295,2.553667,4.534833,0.746249,3.037673,0.432453,2.304023,-0.026985,2.725392,-0.603639,0.224495
0.907006,0.348840,0.492537,0.956345,2.364976,3.023526,0.667346,2.079698,1.763914,2.766657,0.471773,1.296532,-0.079659,1.165240,-0.130348,2.833449,-0.529719,0.170380
0.185051,-0.013940,-0.091499,-0.141170,0.246842,0.697893,0.053874,0.095624,0.381251,0.701315,0.261578,0.159118,-0.199958,0.507158,-0.291269,0.671839,-0.245928,-0.247048
-0.190365,0.376735,-0.367278,0.312584,-0.128769,0.369657,0.262713,0.131008,0.200570,0.360190,-0.061915,0.178251,-0.133181,-0.012137,0.095929,0.087670,-0.332644,0.061779
0.406639,0.173468,0.062330,0.269527,-0.377023,0.230865,-0.011723,-0.231061,-0.330749,0.407411,0.149351,0.315900,-0.035577,0.191721,-0.008247,0.095197,0.184372,-0.020852
-0.078957,-0.340037,-0.282253,-0.320087,-0.013935,-0.066774,0.060494,-0.119787,0.306769,0.167746,-0.076224,0.330081,-0.279147,-0.348088,-0.254101,0.121161,0.329985,-0.221634
0.117886,-0.216407,-0.212367,0.235505,0.186658,-0.428549,-0.267684,-0.255017,0.055005,0.402241,0.011603,0.161313,-0.228272,-0.184340,0.344258,-0.052324,-0.209873,0.202871
0.229606,0.358159,0.067322,-0.339591,0.233912,-0.256681,-0.101322,0.067987,0.230456,0.264736,-0.283296,-0.183002,0.309216,0.051238,0.304214,-0.150640,-0.305681,0.140711
0.351214,-0.076073,-0.189493,-0.076491,-0.266939,0.155462,-0.259918,-0.334899,-0.240098,-0.072648,-0.238125,0.050844,-0.176158,-0.003517,-0.031762,0.407536,0.251376,-0.412822
0.179225,0.104535,-0.498861,-0.307606,-0.231540,-0.246686,0.287116,0.308490,0.091219,-0.281177,-0.075911,-0.365752,-0.181124,-0.176732,-0.068357,-0.057942,0.006740,-0.149550
-0.176865,0.327279,-0.257000,-0.248084,0.240344,-0.339692,-0.178828,0.346826,-0.183273,0.241911,0.229107,0.171056,-0.019006,0.264865,-0.112815,0.304689,0.233627,-0.063793
0.130717,0.153158,-0.306443,0.214919,0.286011,-0.083971,0.182638,-0.291150,-0.305900,0.049885,-0.195613,-0.175155,-0.259480,0.200789,-0.335339,0.280131,0.221527,-0.315796
0.068837,0.029243,0.349322,-0.162504,-0.186554,-0.199180,-0.105587,-0.206018,0.435688,-0.338043,-0.324871,-0.035698,0.081454,0.034540,0.004588,-0.354504,-0.236274,0.342996
-0.458567,0.064167,0.383369,0.206562,-0.023724,-0.026407,0.427129,-0.283079,-0.060270,-0.018240,0.070697,-0.224197,0.104580,-0.036944,0.272851,-0.341117,-0.005256,0.264123
-0.234641,0.113674,0.060612,-0.080108,0.372253,-0.323606,-0.313718,-0.098387,-0.349273,-0.080913,-0.186361,0.011535,-0.148018,-0.161071,0.383037,0.051309,0.356502,0.287822
0.017317,0.129665,-0.431037,-0.269099,0.040369,0.181965,-0.093312,0.159747,-0.192813,-0.367047,-0.104151,0.325780,0.005125,0.411383,-0.170972,0.236579,-0.114521,0.295226
-0.384483,-0.369363,-0.262281,-0.727717,-0.393035,-0.303622,-0.478830,-0.577246,-0.306306,-0.294006,-0.221908,-0.077973,-0.464422,-0.107431,-0.264862,-0.246852,1.595501,1.274367
-0.580594,-0.405465,-0.413355,-1.051114,-0.498813,-0.386548,-0.586439,-0.674427,-0.279263,-0.262524,-0.220397,-0.146471,-0.579404,0.004146,-0.314733,-0.294014,1.889384,1.647851
-0.577006,-0.432665,-0.413354,-1.239711,-0.498813,-0.386548,-0.586439,-0.674427,-0.300363,-0.241691,-0.254273,-0.148773,-0.579404,0.004146,-0.314733,-0.294014,1.889384,1.643365
-0.563926,-0.420886,-0.380862,-1.144952,-0.498788,-0.386527,-0.586424,-0.674417,-0.299418,-0.268253,-0.250311,-0.136053,-0.579026,0.002475,-0.314730,-0.294015,1.889334,1.620739
-0.348284,-0.428082,-0.188023,-0.520182,-0.131403,-0.215814,-0.429261,-0.222102,-0.111794,-0.297096,-0.071292,-0.229203,-0.042052,-0.238744,-0.003080,-0.195110,0.742902,0.414453
-0.322928,-0.069209,-0.093739,-0.206083,-0.346767,-0.104150,-0.099760,-0.384687,0.241208,-0.301620,0.220192,0.225723,0.038104,0.009695,0.358269,-0.105164,0.256902,0.311484
-0.256914,-0.326526,-0.180366,0.286478,-0.325622,0.103541,0.268453,0.349973,-0.156256,-0.328126,-0.197616,-0.080948,0.257390,0.094976,0.264351,-0.160997,0.174855,0.148803
-0.251925,-0.251767,-0.219659,0.147513,0.207870,0.376506,-0.314370,-0.194701,0.344595,0.163388,-0.158964,0.356858,0.108149,-0.322041,0.042730,-0.021449,-0.103249,-0.234567
1.489573,1.095016,1.860740,0.724365,2.377196,3.065609,2.186603,0.242123,0.389723,0.990154,0.432542,0.241096,1.856024,1.147664,3.046844,-0.294014,1.486036,0.767125
1.906788,1.216117,1.920090,1.219393,2.366568,2.981959,1.836409,-0.079180,0.385967,0.885059,0.326933,0.172710,2.226897,1.618708,1.558417,-0.294006,0.426768,0.824624
2.131597,1.238932,1.973599,1.500241,2.169520,1.902891,2.385758,-0.167851,0.166593,0.389635,0.327177,-0.046037,2.623397,1.286183,0.434393,-0.293928,-0.239138,0.902441
2.216348,1.128854,2.037984,1.558679,1.883191,0.533248,2.515815,-0.282584,0.293242,0.089655,0.836927,0.080615,2.751332,0.496521,-0.247679,-0.293975,-0.599537,0.981439
2.198796,1.109493,2.071825,1.490061,1.762273,-0.073089,2.509957,-0.315105,0.860547,0.147337,1.232420,0.512239,2.848212,0.601844,-0.314365,-0.293665,-0.602509,1.020909
2.185463,1.054353,2.111470,1.445663,1.747046,-0.090403,2.498630,-0.312918,1.946899,0.229741,0.401392,0.159440,2.806240,-0.068938,-0.313451,-0.279684,-0.603111,1.037695
2.270621,1.661296,2.174952,1.642126,2.113203,1.575713,2.592833,-0.013458,1.667950,0.396337,0.275838,0.147732,2.976647,1.105604,0.035252,1.564814,-0.674623,0.923936
2.272344,2.470855,2.129920,1.764109,2.441628,3.092631,2.660018,0.258386,1.803360,2.464245,0.445960,0.740004,2.679543,1.965717,2.261196,2.974890,-0.736189,0.790829
2.057314,1.728744,1.859497,1.645914,2.462834,3.107435,2.316755,0.583560,1.424063,6.523552,1.179864,1.452849,2.274089,1.683801,2.962996,3.092553,-0.676301,0.691457
1.432186,1.311695,1.060646,1.269767,2.520606,3.136245,1.199979,1.853685,2.907344,11.178609,0.840629,1.819884,0.704267,1.844408,2.280672,1.768626,-0.098105,0.356100
2.095489,1.206330,1.818794,1.585137,2.418649,3.072045,2.248107,0.099139,0.866933,9.765373,1.303012,1.247287,2.150439,2.231585,0.809858,2.146732,-0.477842,0.781920
2.062996,1.218825,1.767773,1.563979,2.039392,1.694285,2.164321,0.159004,4.906295,4.467423,1.762356,1.490297,1.958113,1.462602,1.171481,1.151924,-0.554067,0.777891
2.017570,0.794468,1.633927,1.554174,1.822608,0.313747,2.433335,0.034677,8.969569,1.152298,1.954584,1.882258,1.545333,1.372640,2.490780,0.301147,-0.600873,0.766535
2.048442,1.743920,1.731389,1.568897,2.218480,2.212082,2.256140,0.283955,8.698064,1.129912,0.690892,1.023897,2.052933,1.138342,1.192959,0.775662,-0.628837,0.739021
1.751410,2.478403,1.091782,1.698455,2.499041,2.998494,0.890462,1.972321,3.662164,3.978638,0.707444,2.414050,0.879684,1.142104,0.008801,-0.008651,-0.580928,0.334238
1.743461,2.543664,1.009026,1.686422,2.639938,3.292638,0.719117,2.232759,2.102675,5.129253,0.594830,2.143059,0.731152,1.335342,-0.304059,-0.247460,-0.602112,0.276152
1.422286,1.793056,1.079118,1.161527,1.814479,2.327959,0.523610,1.738001,1.756250,3.453906,0.597569,2.108068,0.709921,2.057198,0.745981,2.040344,0.067805,0.352106
0.857792,0.735185,1.278209,0.283047,-0.113315,0.037560,-0.003148,0.498822,0.902674,1.489036,1.187227,1.958089,0.710395,1.753549,2.833684,3.283247,1.642276,0.566080
0.317296,0.289925,0.540665,0.303759,-0.028975,0.358400,0.149705,0.247384,0.599044,0.764946,0.372517,0.650429,0.411205,0.993918,1.039587,1.253734,0.823871,0.314386
-0.018023,-0.144674,-0.294663,0.249864,-0.225161,0.171819,-0.254825,-0.340953,0.344082,-0.196486,-0.203845,0.105053,-0.104259,0.208409,-0.322543,0.015231,-0.286112,-0.297034
0.106324,-0.054774,0.328302,0.192806,-0.184827,-0.126289,0.168028,-0.020146,0.373537,0.292382,-0.123172,-0.386682,-0.145463,0.436160,-0.315458,-0.088980,0.040681,0.227621
0.048630,-0.206757,-0.275478,0.047401,-0.041357,-0.144734,0.032051,0.361883,-0.219989,-0.134089,-0.277278,0.378592,0.214865,0.295630,-0.047230,-0.344889,-0.360377,0.225613
-0.245643,-0.213940,-0.258143,0.241304,0.282167,-0.248943,0.301971,0.321309,-0.046442,-0.197925,-0.139060,0.326794,0.233346,-0.012924,-0.240405,0.214158,0.196728,-0.261850
0.105722,0.293519,-0.153861,-0.023388,-0.291003,0.257321,0.272684,0.357148,-0.322877,-0.344087,0.306134,-0.353121,0.036212,0.146019,0.061012,-0.142348,0.050399,0.188217
0.205349,0.288223,0.194649,0.014633,-0.018038,0.327619,0.172839,0.010934,0.390807,0.088743,0.296625,-0.264514,0.356712,-0.064992,0.054550,-0.360412,0.260671,0.219444
-0.256424,0.133652,0.249345,0.337944,0.150979,-0.250201,-0.322934,-0.198015,0.129923,-0.123011,-0.071686,0.033975,-0.370476,-0.191793,0.248471,0.185067,-0.241931,-0.379807
-0.153067,0.378278,-0.232729,-0.285754,-0.150058,-0.133339,0.318826,0.052416,-0.241192,-0.112477,0.335023,-0.347380,0.151987,0.019221,-0.351617,-0.144646,0.254353,0.128471
0.168074,0.394243,-0.279455,-0.304786,-0.219916,0.326525,0.232656,0.057965,0.106861,-0.025821,0.417257,-0.405945,-0.115266,-0.106551,-0.174771,0.086676,-0.056498,0.126466
-0.231374,-0.095954,0.094285,0.334088,-0.329022,0.185623,0.058587,0.228299,-0.047791,0.076068,0.346194,0.324241,-0.044040,0.111904,-0.348243,0.158148,0.375657,0.289089
-0.305426,-0.335392,-0.053999,-0.089758,0.317394,-0.134423,-0.146993,0.361184,0.122326,-0.370641,-0.071730,-0.084175,-0.380893,-0.343318,0.073264,-0.176710,0.216707,-0.036246
-0.390061,0.346537,0.279537,0.319393,-0.093337,-0.223083,0.051546,0.409589,-0.221018,-0.029437,0.069865,0.073771,0.043511,0.291984,-0.132890,0.297145,-0.167312,0.193831
-0.065279,0.240732,0.346349,-0.298654,0.185582,-0.331773,0.086820,0.268952,0.129192,-0.027107,-0.153621,0.313785,-0.072708,0.031740,-0.391133,-0.085892,0.397501,-0.137193
-0.223145,-0.283855,-0.112737,-0.765762,-0.485678,-0.381141,-0.574172,-0.665364,0.150044,-0.276816,-0.240270,-0.135179,-0.493032,-0.190867,-0.310989,-0.285544,1.855190,1.347991
-0.449094,-0.403009,-0.372144,-1.032478,-0.498813,-0.386548,-0.586439,-0.674427,-0.303615,-0.281735,-0.249647,-0.124418,-0.578847,0.002663,-0.314733,-0.294014,1.889384,1.583460
-0.564514,-0.401542,-0.395747,-0.939640,-0.498813,-0.386548,-0.586439,-0.674427,-0.296433,-0.267256,-0.239424,-0.152020,-0.577095,-0.003128,-0.314733,-0.294014,1.889384,1.594288
-0.578561,-0.401702,-0.276713,-1.021700,-0.498813,-0.386548,-0.586439,-0.674427,-0.297274,-0.282982,-0.253761,-0.119195,-0.578720,0.001344,-0.314733,-0.294014,1.889384,1.584296
0.236470,0.070956,0.311647,-0.230628,-0.351035,-0.353318,-0.397086,-0.435710,-0.192940,-0.191412,-0.248989,-0.014679,0.264121,-0.512011,-0.100456,-0.239587,1.197265,0.870523
0.340220,-0.157854,-0.054568,0.047923,-0.333353,-0.147594,-0.230092,-0.154442,0.175018,0.316020,0.015904,-0.138152,-0.307042,0.308534,0.288711,-0.345048,0.267470,-0.136680
0.377072,-0.316416,-0.349785,0.184522,0.177509,-0.027248,0.135011,0.175044,0.272598,-0.373671,0.239211,-0.188728,-0.006783,0.295759,-0.056324,0.074532,-0.290652,-0.180744
0.397344,0.215190,0.207695,0.206125,0.049713,-0.014866,-0.064833,-0.250200,-0.162842,0.089517,-0.232033,-0.257157,-0.056963,-0.364802,-0.374732,0.213320,0.188259,-0.358461
2.060082,2.578636,2.105331,1.431035,2.388437,3.085939,2.005255,-0.077145,0.901532,0.801386,0.194796,0.163720,2.907738,0.987193,-0.116098,-0.294009,0.143193,0.893999
1.408568,1.216715,1.777417,0.666437,2.296313,2.997876,-0.298235,-0.284614,0.376799,1.705097,-0.002073,0.070047,1.910010,0.344249,-0.312313,-0.294012,1.822662,0.797790
1.478174,1.068784,1.831076,0.663526,2.376368,3.048867,2.271364,0.309783,-0.003253,0.808094,0.294664,0.146875,1.853100,1.225496,-0.314078,-0.293836,1.596702,0.755241
2.189516,1.157014,1.883207,1.626464,2.424705,3.058112,2.585581,-0.132530,0.531579,0.289157,0.024400,-0.129319,2.312183,1.785685,-0.314618,-0.293684,-0.534787,0.858375
2.190615,1.268130,1.995965,1.593511,2.198814,1.948353,2.614099,-0.089770,0.266066,0.110259,0.434415,-0.023218,2.655167,1.317961,-0.314623,-0.107376,-0.610505,0.911186
2.173205,2.053393,2.155537,1.647831,2.294407,2.215612,2.905283,0.618419,0.991707,0.221354,0.411540,0.092061,2.827624,1.204823,-0.302998,2.066392,-0.689122,0.777039
2.409477,2.440045,2.315563,1.837385,2.394216,3.000144,2.493500,-0.118120,1.804292,0.314785,0.393650,0.385265,3.478705,2.000160,-0.246181,3.256024,-0.736477,0.938663
2.394772,2.750411,2.308565,1.883644,2.411426,3.089903,2.493624,-0.028251,1.660559,1.742948,0.318064,2.611481,3.436064,1.707902,0.790603,2.879460,-0.731543,0.918763
1.825257,2.180512,1.746774,1.354860,2.004620,2.563600,2.011714,0.736903,1.287812,5.666749,0.898661,3.288248,2.064963,1.721386,2.639945,2.457040,-0.237476,0.667897
0.806928,1.422243,1.139754,0.231528,0.229546,0.393783,0.440251,0.985265,1.155409,9.251453,0.447086,0.906982,0.114726,1.861517,3.055903,3.176686,1.433383,0.505703
1.359050,1.849483,1.089597,1.185783,2.187655,2.682189,1.348439,1.540718,1.759133,8.965052,1.959790,1.296383,1.119737,1.910194,2.434796,2.498516,-0.412545,0.369038
1.994797,1.487473,1.819366,1.566569,1.690817,1.021801,2.069676,0.660997,5.852283,5.362388,4.261267,1.952718,1.991690,0.760075,2.667559,2.577197,-0.660906,0.678857
2.080930,1.233497,1.983086,1.545903,1.797808,0.239227,2.527544,-0.099439,9.277992,1.639651,4.585236,2.809056,2.449777,0.165199,2.559321,2.505468,-0.612388,0.957529
2.161865,2.966109,1.964475,1.597211,2.314684,2.569038,2.632903,0.408769,7.274728,1.437549,3.026174,2.857020,2.662692,1.332091,2.763065,3.041491,-0.718844,0.766447
1.868758,2.215626,1.248201,1.616218,1.788106,1.592593,1.486159,1.437220,3.549510,2.375997,1.459543,2.124821,1.153800,1.499009,1.868973,2.047661,-0.631519,0.447361
1.720836,2.598573,0.986899,1.619023,2.581078,3.185275,0.745276,2.205838,1.457240,2.709045,0.343505,1.206156,0.754228,1.560791,-0.195447,-0.164777,-0.601927,0.275310
1.120884,1.318249,1.409766,0.568324,0.231793,0.447617,0.048936,0.600247,1.041909,1.241613,0.231217,0.445293,0.973069,2.163295,2.399739,2.671052,1.356650,0.556995
1.163180,0.876141,1.620208,0.462063,-0.447818,-0.337981,-0.303479,-0.088858,2.136698,1.006812,0.435032,0.409519,1.414574,1.936658,3.175881,3.400681,1.889228,0.677624
1.042142,0.922559,1.619880,0.388490,-0.425998,-0.320489,-0.171002,0.028619,0.628525,0.771233,0.012350,0.019507,1.244547,2.472314,3.150048,3.376802,1.881568,0.655349
-0.012861,0.020781,0.472663,-0.254482,-0.060987,0.040945,-0.301762,-0.165194,0.196796,0.054207,0.061117,0.229270,0.207070,0.522919,0.307860,0.144122,0.549798,0.261010
-0.297607,0.025181,0.028514,0.205728,-0.153981,-0.256249,0.322725,0.291959,-0.335889,-0.339255,0.105748,0.049478,0.034059,-0.069620,0.332261,0.296088,0.018726,0.373194
-0.298129,0.256357,-0.199952,-0.189392,0.190168,0.286558,-0.038988,-0.325466,0.232925,0.051341,0.244319,-0.097265,-0.143720,0.270646,-0.258741,0.308583,0.317716,-0.246499
-0.094354,0.062516,0.230180,0.339948,-0.268322,-0.223133,-0.323321,-0.432107,-0.044404,0.313914,-0.286255,0.120407,-0.108132,-0.003921,-0.046790,-0.235289,0.137352,0.347170
0.177603,0.199788,0.085844,-0.008402,0.333585,-0.209375,0.365654,-0.288116,-0.250225,0.008248,0.453407,0.074685,-0.373891,0.037177,-0.107297,-0.280770,0.209219,-0.011946
0.250841,-0.123891,-0.251344,-0.269774,-0.016898,0.136262,-0.090016,0.416080,-0.270119,0.261092,-0.259857,-0.030972,-0.205760,0.285361,0.155912,-0.274628,0.170101,-0.351639
-0.250217,0.185385,-0.177740,-0.083770,0.344546,0.154126,0.231394,-0.119231,-0.065412,-0.242822,-0.385919,0.002920,-0.329433,-0.300613,0.019438,-0.281753,0.240673,-0.324691
-0.278421,-0.151607,-0.327964,0.024922,-0.305702,-0.022232,0.054139,0.050602,-0.379902,0.322631,-0.241986,0.188161,-0.242866,-0.322791,-0.176153,-0.232227,-0.317810,-0.018901
